{"learner":{"attributes":{"best_iteration":"99","best_ntree_limit":"100","scikit_learn":"{\"use_label_encoder\": null, \"n_estimators\": 100, \"objective\": \"binary:logistic\", \"max_depth\": null, \"max_leaves\": null, \"max_bin\": null, \"grow_policy\": null, \"learning_rate\": 0.16, \"verbosity\": 0, \"booster\": null, \"tree_method\": null, \"gamma\": null, \"min_child_weight\": null, \"max_delta_step\": null, \"subsample\": null, \"sampling_method\": null, \"colsample_bytree\": null, \"colsample_bylevel\": null, \"colsample_bynode\": null, \"reg_alpha\": null, \"reg_lambda\": null, \"scale_pos_weight\": null, \"base_score\": null, \"missing\": NaN, \"num_parallel_tree\": null, \"random_state\": null, \"n_jobs\": -1, \"monotone_constraints\": null, \"interaction_constraints\": null, \"importance_type\": null, \"gpu_id\": null, \"validate_parameters\": true, \"predictor\": null, \"enable_categorical\": false, \"feature_types\": null, \"max_cat_to_onehot\": null, \"max_cat_threshold\": null, \"eval_metric\": null, \"early_stopping_rounds\": null, \"callbacks\": null, \"classes_\": [0, 1], \"n_classes_\": 2, \"_estimator_type\": \"classifier\"}"},"feature_names":[],"feature_types":[],"gradient_booster":{"model":{"gbtree_model_param":{"num_parallel_tree":"1","num_trees":"100","size_leaf_vector":"0"},"tree_info":[0,0,0,0,0,0,0,0,0,0,0,0,0,0,0,0,0,0,0,0,0,0,0,0,0,0,0,0,0,0,0,0,0,0,0,0,0,0,0,0,0,0,0,0,0,0,0,0,0,0,0,0,0,0,0,0,0,0,0,0,0,0,0,0,0,0,0,0,0,0,0,0,0,0,0,0,0,0,0,0,0,0,0,0,0,0,0,0,0,0,0,0,0,0,0,0,0,0,0,0],"trees":[{"base_weights":[-0E0,1.85461E0,-8.702163E-1,-1.2E0,1.9453053E0,1.132353E0,-1.1235955E0,1.1111112E0,-1.7333333E0,6.666667E-1,1.9558011E0,-9.3333334E-1,1.5151515E0,1.6949153E0,-1.2858555E0,1.9629287E0,5.4545456E-1,1.4285715E0,-1.7714286E0,-1.3846154E0,1.6576576E0,-1E0,1.8245614E0,-1.4377593E0,1.755102E0,5.4545456E-1,1.9701493E0,1.7383177E0,-3.3333334E-1,1.8933333E0,-1.5691977E0,-1E0,1.9148936E0,7.692308E-1,1.9774224E0,1.8181819E-1,1.7874396E0,5E-1,-1E0,1.76E0,-1.6576477E0],"categories":[],"categories_nodes":[],"categories_segments":[],"categories_sizes":[],"default_left":[0,0,0,0,0,0,0,0,0,0,1,0,0,0,1,0,0,0,0,0,0,0,0,0,1,0,0,0,0,0,0,0,0,0,0,0,0,0,0,0,0],"id":0,"left_children":[1,3,5,7,9,11,13,-1,-1,-1,15,17,19,21,23,25,-1,-1,-1,-1,27,-1,-1,29,31,-1,33,35,37,-1,39,-1,-1,-1,-1,-1,-1,-1,-1,-1,-1],"loss_changes":[1.4250841E3,8.045941E1,3.062253E2,1.2711111E1,2.376587E0,5.5184586E1,2.4639465E2,0E0,0E0,0E0,1.6585693E0,2.4800003E1,2.6159515E1,1.2131424E1,2.3603052E2,1.6862793E0,0E0,0E0,0E0,0E0,9.492386E0,0E0,0E0,2.1400665E2,1.2700821E1,0E0,8.198242E-1,3.7655182E0,2.1666667E0,0E0,1.3962402E2,0E0,0E0,0E0,0E0,0E0,0E0,0E0,0E0,0E0,0E0],"parents":[2147483647,0,0,1,1,2,2,3,3,4,4,5,5,6,6,10,10,11,11,12,12,13,13,14,14,15,15,20,20,23,23,24,24,26,26,27,27,28,28,30,30],"right_children":[2,4,6,8,10,12,14,-1,-1,-1,16,18,20,22,24,26,-1,-1,-1,-1,28,-1,-1,30,32,-1,34,36,38,-1,40,-1,-1,-1,-1,-1,-1,-1,-1,-1,-1],"split_conditions":[3.5E0,1.8E1,1.8E1,2.000001E0,6.000001E0,4.000001E0,2.5E0,1.7777778E-1,-2.7733332E-1,1.0666667E-1,2.5E0,1.5E0,4.000001E0,4.000001E0,-9.536743E-7,8.000001E0,8.7272726E-2,2.2857143E-1,-2.8342858E-1,-2.2153847E-1,6E1,-1.6E-1,2.919298E-1,4.000001E0,5.5E0,8.7272726E-2,4.000001E0,6.000001E0,4.000001E0,3.0293334E-1,3E1,-1.6E-1,3.0638298E-1,1.2307692E-1,3.1638756E-1,2.909091E-2,2.8599033E-1,8E-2,-1.6E-1,2.816E-1,-2.6522362E-1],"split_indices":[1666,2890,2162,478,1481,2418,1892,0,0,0,1008,1692,2600,1901,1393,2517,0,0,0,0,0,0,0,2087,15,0,1565,1842,1029,0,2235,0,0,0,0,0,0,0,0,0,0],"split_type":[0,0,0,0,0,0,0,0,0,0,0,0,0,0,0,0,0,0,0,0,0,0,0,0,0,0,0,0,0,0,0,0,0,0,0,0,0,0,0,0,0],"sum_hessian":[8.81E2,2.81E2,6E2,7.75E0,2.7325E2,6.7E1,5.33E2,1.25E0,6.5E0,2.75E0,2.705E2,1.025E1,5.675E1,2.85E1,5.045E2,2.6875E2,1.75E0,2.5E0,7.75E0,2.25E0,5.45E1,1E0,2.75E1,4.81E2,2.35E1,1.75E0,2.67E2,5.25E1,2E0,1.775E1,4.6325E2,1E0,2.25E1,2.25E0,2.6475E2,1.75E0,5.075E1,1E0,1E0,1.15E1,4.5175E2],"tree_param":{"num_deleted":"0","num_feature":"3089","num_nodes":"41","size_leaf_vector":"0"}},{"base_weights":[1.6386374E-3,1.6003599E0,-7.4420804E-1,-1.0364014E0,1.6792511E0,1.6215521E0,-9.041873E-1,1.0170459E0,-1.5195074E0,4.8719817E-1,1.6895536E0,1.1270403E-1,1.6907407E0,1.6626594E0,-1.0413433E0,4.9054626E-1,1.6956453E0,5.126507E-1,1.6955272E0,1.4068351E0,-1.1712687E0,6.8592477E-1,1.7016883E0,1.5497496E0,5.053039E-1,1.654627E0,-1.2867559E0,7.8261155E-1,1.7075235E0,1.3049266E0,-1.1299831E0,1.3490057E0,-1.3757702E0],"categories":[],"categories_nodes":[],"categories_segments":[],"categories_sizes":[],"default_left":[0,0,0,0,0,0,0,0,0,0,0,0,0,0,0,0,0,0,0,1,0,0,0,0,0,0,0,0,0,0,0,0,0],"id":1,"left_children":[1,3,5,7,9,11,13,-1,-1,-1,15,-1,-1,17,19,-1,21,-1,-1,23,25,-1,27,-1,29,-1,31,-1,-1,-1,-1,-1,-1],"loss_changes":[1.0320137E3,5.9013184E1,2.2482791E2,1.0093535E1,2.4646606E0,3.749199E0,1.9657007E2,0E0,0E0,0E0,1.1038818E0,0E0,0E0,2.0639801E-1,1.6894867E2,0E0,4.3914795E-1,0E0,0E0,2.6906052E0,1.6530963E2,0E0,6.347656E-2,0E0,8.238758E0,0E0,1.14694275E2,0E0,0E0,0E0,0E0,0E0,0E0],"parents":[2147483647,0,0,1,1,2,2,3,3,4,4,5,5,6,6,10,10,13,13,14,14,16,16,19,19,20,20,22,22,24,24,26,26],"right_children":[2,4,6,8,10,12,14,-1,-1,-1,16,-1,-1,18,20,-1,22,-1,-1,24,26,-1,28,-1,30,-1,32,-1,-1,-1,-1,-1,-1],"split_conditions":[3.5E0,1.8E1,1.5E0,2.000001E0,3E0,6.000001E0,3E1,1.6272733E-1,-2.4312118E-1,7.795171E-2,8.000001E0,1.8032644E-2,2.705185E-1,4.000001E0,2.5E0,7.8487396E-2,4.000001E0,8.202411E-2,2.7128434E-1,1.5E0,4.000001E0,1.0974796E-1,4.000001E0,2.4795993E-1,2.000001E0,2.6474032E-1,6.000001E0,1.2521784E-1,2.7320376E-1,2.0878826E-1,-1.807973E-1,2.158409E-1,-2.2012323E-1],"split_indices":[1666,2890,1042,478,2550,3062,2235,0,0,0,2517,0,0,256,1892,0,1565,0,0,1027,2087,0,1481,0,165,0,2485,0,0,0,0,0,0],"split_type":[0,0,0,0,0,0,0,0,0,0,0,0,0,0,0,0,0,0,0,0,0,0,0,0,0,0,0,0,0,0,0,0,0],"sum_hessian":[8.6349335E2,2.7432736E2,5.89166E2,7.616775E0,2.6671057E2,3.6738865E1,5.524271E2,1.2401752E0,6.3766E0,2.6991122E0,2.6401147E2,1.72607E0,3.5012794E1,2.7456774E1,5.2497034E2,1.746672E0,2.622648E2,1.2241019E0,2.6232672E1,2.5960964E1,4.990094E2,2.2415009E0,2.600233E2,2.1788015E1,4.172949E0,1.906929E1,4.799401E2,2.4929023E0,2.575304E2,2.9382317E0,1.234717E0,1.5216488E1,4.647236E2],"tree_param":{"num_deleted":"0","num_feature":"3089","num_nodes":"33","size_leaf_vector":"0"}},{"base_weights":[4.507067E-3,1.4342039E0,-6.494281E-1,-9.179517E-1,1.5057867E0,9.463721E-1,-8.5303885E-1,9.385752E-1,-1.369041E0,4.3419582E-1,1.5154963E0,-7.268629E-1,1.2540847E0,1.0799037E0,-9.9660784E-1,4.4213566E-1,1.521234E0,1.1846229E0,-1.4218102E0,-1.1203529E0,1.3714719E0,1.5202838E0,-1.3470992E0,1.2182727E0,-1.102421E0,1.5285066E0,6.9897485E-1,1.43374E0,-1.636896E-1,1.6291987E0,3.3352607E-1,-9.46552E-1,1.4140276E0,1.2129085E0,-1.2112569E0,6.989002E-1,1.5340612E0,1.266836E-1,1.4768624E0,1.491921E0,5.0314534E-1,1.3859016E0,2.933282E-1,1.7732333E0,-1.2851801E0],"categories":[],"categories_nodes":[],"categories_segments":[],"categories_sizes":[],"default_left":[0,0,0,0,0,0,0,0,0,0,0,0,0,0,0,0,1,0,0,0,0,0,0,0,0,0,0,0,0,0,0,0,0,0,0,0,0,0,0,0,0,0,0,0,0],"id":2,"left_children":[1,3,5,7,9,11,13,-1,-1,-1,15,17,19,21,23,-1,25,-1,-1,-1,27,29,-1,31,33,35,-1,37,-1,-1,-1,-1,39,41,43,-1,-1,-1,-1,-1,-1,-1,-1,-1,-1],"loss_changes":[7.738578E2,4.5121277E1,1.8534631E2,8.230353E0,1.9689331E0,3.424447E1,1.4099957E2,0E0,0E0,0E0,8.659668E-1,1.5884039E1,1.6880608E1,3.982026E1,1.1146304E2,0E0,4.151001E-1,0E0,0E0,0E0,5.2921143E0,3.3837585E0,0E0,1.0618664E1,1.14605286E2,5.7128906E-2,0E0,2.684433E0,0E0,0E0,0E0,0E0,7.027168E-1,2.8795586E0,9.699524E1,0E0,0E0,0E0,0E0,0E0,0E0,0E0,0E0,0E0,0E0],"parents":[2147483647,0,0,1,1,2,2,3,3,4,4,5,5,6,6,10,10,11,11,12,12,13,13,14,14,16,16,20,20,21,21,23,23,24,24,25,25,27,27,32,32,33,33,34,34],"right_children":[2,4,6,8,10,12,14,-1,-1,-1,16,18,20,22,24,-1,26,-1,-1,-1,28,30,-1,32,34,36,-1,38,-1,-1,-1,-1,40,42,44,-1,-1,-1,-1,-1,-1,-1,-1,-1,-1],"split_conditions":[3.5E0,1.8E1,1.8E1,2.000001E0,3E0,4.000001E0,2.5E0,1.5017202E-1,-2.1904655E-1,6.947133E-2,8.000001E0,1.5E0,4.000001E0,3.5E0,6.5E0,7.0741706E-2,2.5E0,1.8953966E-1,-2.2748962E-1,-1.7925645E-1,6E1,2.5E0,-2.1553586E-1,2.5E0,2.5E0,4.000001E0,1.1183597E-1,6.000001E0,-2.6190335E-2,2.606718E-1,5.3364173E-2,-1.5144831E-1,1.8E1,1.35E1,1.0000001E1,1.11824036E-1,2.4544978E-1,2.0269375E-2,2.3629798E-1,2.3870735E-1,8.0503255E-2,2.2174424E-1,4.693251E-2,2.8371733E-1,-2.0562881E-1],"split_indices":[1666,2890,2162,478,2550,2418,2955,0,0,0,2517,1692,2600,2431,2010,0,2019,0,0,0,0,2816,0,15,1892,1481,0,1842,0,0,0,0,1029,1029,3014,0,0,0,0,0,0,0,0,0,0],"split_type":[0,0,0,0,0,0,0,0,0,0,0,0,0,0,0,0,0,0,0,0,0,0,0,0,0,0,0,0,0,0,0,0,0,0,0,0,0,0,0,0,0,0,0,0,0],"sum_hessian":[8.25722E2,2.5877335E2,5.6694867E2,7.293423E0,2.5147992E2,6.373978E1,5.032089E2,1.2144564E0,6.0789666E0,2.6687047E0,2.4881122E2,9.689497E0,5.405028E1,3.4340702E1,4.688682E2,1.738034E0,2.4707318E2,2.3956163E0,7.293881E0,2.1437469E0,5.1906536E1,2.9382786E1,4.9579163E0,2.0898914E1,4.4796927E2,2.4405568E2,3.017491E0,4.9946697E1,1.9598365E0,2.657138E1,2.8114069E0,1.4150202E0,1.9483894E1,1.965667E1,4.283126E2,2.4666924E0,2.4158899E2,1.7209775E0,4.8225723E1,1.7361364E1,2.1225302E0,1.6117514E1,3.5391574E0,9.7969E0,4.185157E2],"tree_param":{"num_deleted":"0","num_feature":"3089","num_nodes":"45","size_leaf_vector":"0"}},{"base_weights":[6.491328E-3,1.3164982E0,-5.7806146E-1,-8.268229E-1,1.3831964E0,8.432518E-1,-7.5958085E-1,8.718773E-1,-1.2564062E0,3.8748842E-1,1.3929063E0,-6.529728E-1,1.1169133E0,1.2646981E0,-8.6864007E-1,3.9917007E-1,1.3986619E0,1.0876324E0,-1.3011516E0,-1.0327636E0,1.2251532E0,1.4504327E0,-9.164041E-1,1.1632001E0,-9.813387E-1,4.803901E-1,1.4052137E0,1.2837465E0,-1.4671898E-1,1.3837037E0,6.377241E-1,1.4058173E0,-1.0740988E0,6.2699616E-1,1.4108474E0,1.13940254E-1,1.3245395E0,1.1653866E0,-1.2628726E0,1.7014242E0,-1.1407323E0],"categories":[],"categories_nodes":[],"categories_segments":[],"categories_sizes":[],"default_left":[0,0,0,0,0,0,0,0,0,0,0,0,0,0,0,0,0,0,0,0,0,0,0,0,0,0,0,0,0,0,0,0,0,0,0,0,0,0,0,0,0],"id":3,"left_children":[1,3,5,7,9,11,13,-1,-1,-1,15,17,19,21,23,-1,25,-1,-1,-1,27,-1,-1,29,31,-1,33,35,-1,-1,37,-1,39,-1,-1,-1,-1,-1,-1,-1,-1],"loss_changes":[5.9525433E2,3.542984E1,1.3931285E2,6.834176E0,1.7127075E0,2.5847603E1,1.06437744E2,0E0,0E0,0E0,7.5909424E-1,1.2828617E1,1.3417938E1,1.1375767E1,1.0495276E2,0E0,7.0043945E-1,0E0,0E0,0E0,4.2221375E0,0E0,0E0,1.9311104E0,9.674194E1,0E0,1.083374E-1,2.150589E0,0E0,0E0,1.0530053E1,0E0,7.860904E1,0E0,0E0,0E0,0E0,0E0,0E0,0E0,0E0],"parents":[2147483647,0,0,1,1,2,2,3,3,4,4,5,5,6,6,10,10,11,11,12,12,13,13,14,14,16,16,20,20,23,23,24,24,26,26,27,27,30,30,32,32],"right_children":[2,4,6,8,10,12,14,-1,-1,-1,16,18,20,22,24,-1,26,-1,-1,-1,28,-1,-1,30,32,-1,34,36,-1,-1,38,-1,40,-1,-1,-1,-1,-1,-1,-1,-1],"split_conditions":[3.5E0,1.8E1,1.8E1,2.000001E0,3E0,4.000001E0,1.5E0,1.3950036E-1,-2.0102498E-1,6.1998148E-2,8.000001E0,1.5E0,4.000001E0,4E0,2.5E0,6.386721E-2,4.000001E0,1.7402118E-1,-2.0818426E-1,-1.6524217E-1,6E1,2.3206922E-1,-1.4662465E-1,3.2E1,4.000001E0,7.686242E-2,4.000001E0,6.000001E0,-2.3475036E-2,2.2139259E-1,3.5E0,2.2493076E-1,1.5E0,1.00319386E-1,2.2573559E-1,1.823044E-2,2.1192633E-1,1.8646185E-1,-2.0205961E-1,2.7222788E-1,-1.8251716E-1],"split_indices":[1666,2890,2162,478,2550,2418,2955,0,0,0,2517,1692,2600,2431,1892,0,1565,0,0,0,0,0,0,1051,2087,0,1481,1842,0,0,0,0,2144,0,0,0,0,0,0,0,0],"split_type":[0,0,0,0,0,0,0,0,0,0,0,0,0,0,0,0,0,0,0,0,0,0,0,0,0,0,0,0,0,0,0,0,0,0,0,0,0,0,0,0,0],"sum_hessian":[7.753359E2,2.3883798E2,5.364979E2,6.8641686E0,2.3197382E2,6.0345074E1,4.7615283E2,1.1776805E0,5.686488E0,2.6353674E0,2.2933846E2,9.116297E0,5.122878E1,2.3799883E1,4.5235297E2,1.7257556E0,2.276127E2,2.289674E0,6.826623E0,2.0463443E0,4.9182434E1,2.2240929E1,1.5589548E0,2.3281952E1,4.29071E2,2.1390588E0,2.2547363E2,4.722948E1,1.9529536E0,1.5249587E1,8.032364E0,1.5519739E1,4.1355127E2,2.427595E0,2.2304604E2,1.7192898E0,4.551019E1,6.5896983E0,1.4426659E0,9.120375E0,4.044309E2],"tree_param":{"num_deleted":"0","num_feature":"3089","num_nodes":"41","size_leaf_vector":"0"}},{"base_weights":[8.588268E-3,1.2285607E0,-5.19731E-1,-7.533908E-1,1.2918739E0,-1.4630814E-1,-1.1406462E0,8.142537E-1,-1.1679786E0,1.2996169E0,1.450298E-1,-1.3950652E0,1.4391667E-1,1.1438301E0,-1.3234657E0,3.6678702E-1,1.3096441E0,-1.3794943E0,3.6895454E-1,1.2456882E0,4.2067575E-1,-1.362577E0,1.214175E0,3.6083716E-1,1.3157774E0,1.3153037E-1,1.3418494E0,-8.451675E-1,1.4961121E0,9.813525E-1,-1.4033352E0,4.3384346E-1,1.3227383E0,-6.9841254E-1,7.113434E-1,1.4391179E0,-8.645173E-1,-3.808459E-1,-1.418497E0],"categories":[],"categories_nodes":[],"categories_segments":[],"categories_sizes":[],"default_left":[0,0,0,0,1,0,0,0,0,0,0,0,0,0,1,0,0,0,0,0,1,0,0,0,0,0,1,0,0,0,0,0,0,0,0,0,0,0,0],"id":4,"left_children":[1,3,5,7,9,11,13,-1,-1,15,-1,-1,17,19,21,-1,23,-1,25,-1,27,29,-1,-1,31,33,35,-1,-1,-1,37,-1,-1,-1,-1,-1,-1,-1,-1],"loss_changes":[4.6526547E2,2.834613E1,1.166306E2,5.7503076E0,1.6918945E0,1.1461816E2,8.046127E1,0E0,0E0,1.4858398E0,0E0,0E0,8.864039E1,5.471897E-1,1.9071503E1,0E0,7.3321533E-1,0E0,5.174416E1,0E0,5.764233E0,1.793274E1,0E0,0E0,6.9000244E-1,8.797671E1,1.0683716E1,0E0,0E0,0E0,2.106781E0,0E0,0E0,0E0,0E0,0E0,0E0,0E0,0E0],"parents":[2147483647,0,0,1,1,2,2,3,3,4,4,5,5,6,6,9,9,12,12,13,13,14,14,16,16,18,18,20,20,21,21,24,24,25,25,26,26,30,30],"right_children":[2,4,6,8,10,12,14,-1,-1,16,-1,-1,18,20,22,-1,24,-1,26,-1,28,30,-1,-1,32,34,36,-1,-1,-1,38,-1,-1,-1,-1,-1,-1,-1,-1],"split_conditions":[3.5E0,1.8E1,1.3E2,2.000001E0,2.5E0,1.6E1,6.000001E0,1.3028058E-1,-1.8687658E-1,6.000001E0,2.3204768E-2,-2.2321042E-1,3.4E1,2.000001E0,1.5E0,5.868592E-2,8.000001E0,-2.2071908E-1,1.45E1,1.9931011E-1,-9.536743E-7,2.000001E0,1.9426799E-1,5.7733946E-2,4.000001E0,3.2E1,1.75E1,-1.352268E-1,2.3937793E-1,1.570164E-1,1.5E0,6.941495E-2,2.1163812E-1,-1.11746006E-1,1.1381494E-1,2.3025887E-1,-1.3832276E-1,-6.0935345E-2,-2.2695951E-1],"split_indices":[1666,2890,15,478,1008,2352,2010,0,0,1481,0,0,2392,1660,2202,0,2517,0,0,0,2930,1245,0,0,1565,1027,1027,0,0,0,2482,0,0,0,0,0,0,0,0],"split_type":[0,0,0,0,0,0,0,0,0,0,0,0,0,0,0,0,0,0,0,0,0,0,0,0,0,0,0,0,0,0,0,0,0,0,0,0,0,0,0],"sum_hessian":[7.198716E2,2.1713869E2,5.027329E2,6.3843412E0,2.1075435E2,3.1470358E2,1.8802933E2,1.1336734E0,5.2506676E0,2.0920866E2,1.5456895E0,5.862963E1,2.5607394E2,1.3542931E1,1.744864E2,2.6245716E0,2.0658409E2,3.2298275E1,2.2377567E2,1.1237519E1,2.305411E0,1.7229398E2,2.1924183E0,1.7111142E0,2.0487297E2,1.8079086E2,4.2984802E1,1.1573124E0,1.1480988E0,2.5503595E0,1.6974362E2,2.1002383E0,2.0277274E2,7.427264E1,1.0651822E2,4.1502876E1,1.4819252E0,2.8618698E0,1.6688176E2],"tree_param":{"num_deleted":"0","num_feature":"3089","num_nodes":"39","size_leaf_vector":"0"}},{"base_weights":[7.853463E-3,1.159656E0,-4.702405E-1,-6.9201094E-1,1.220558E0,1.2603408E0,-5.894186E-1,7.637644E-1,-1.0957996E0,2.4061413E-1,1.2322065E0,-4.0224973E-2,1.3354567E0,1.3489789E0,-6.9910663E-1,1.2410665E0,4.0874296E-1,4.158342E-1,1.359013E0,2.9373628E-1,1.3853228E0,2.121234E0,-7.632148E-1,1.2441235E-1,1.2496852E0,2.4083166E0,7.7939236E-1,9.812221E-1,-8.5598E-1,3.1709304E-1,1.2549342E0,1.1643384E0,1.8613395E-1,1.2324417E0,-9.3712807E-1],"categories":[],"categories_nodes":[],"categories_segments":[],"categories_sizes":[],"default_left":[0,0,0,0,0,0,0,0,0,0,1,0,0,0,0,0,0,0,0,0,0,1,0,0,0,0,0,0,0,0,0,0,0,0,0],"id":5,"left_children":[1,3,5,7,9,11,13,-1,-1,-1,15,-1,17,19,21,23,-1,-1,-1,-1,-1,25,27,-1,29,-1,-1,31,33,-1,-1,-1,-1,-1,-1],"loss_changes":[3.6858023E2,2.2984955E1,9.829968E1,4.887025E0,1.8773499E0,3.0620918E0,9.517905E1,0E0,0E0,0E0,8.640747E-1,0E0,6.617737E-2,5.165291E-1,7.7582535E1,1.6295166E0,0E0,0E0,0E0,0E0,0E0,1.8219833E0,6.743558E1,0E0,5.0250244E-1,0E0,0E0,2.8764648E0,6.7467255E1,0E0,0E0,0E0,0E0,0E0,0E0],"parents":[2147483647,0,0,1,1,2,2,3,3,4,4,5,5,6,6,10,10,12,12,13,13,14,14,15,15,21,21,22,22,24,24,27,27,28,28],"right_children":[2,4,6,8,10,12,14,-1,-1,-1,16,-1,18,20,22,24,-1,-1,-1,-1,-1,26,28,-1,30,-1,-1,32,34,-1,-1,-1,-1,-1,-1],"split_conditions":[3.5E0,1.8E1,1.5E0,2.000001E0,3E0,6.000001E0,3E1,1.222023E-1,-1.7532793E-1,3.849826E-2,2.5E0,-6.4359955E-3,2.000001E0,4.000001E0,8.000001E0,4.000001E0,6.539887E-2,6.653347E-2,2.1744207E-1,4.6997804E-2,2.2165164E-1,-9.536743E-7,2.5E0,1.9905975E-2,2.000001E0,3.8533065E-1,1.24702774E-1,1.35E1,4.000001E0,5.0734885E-2,2.0078947E-1,1.8629414E-1,2.9781431E-2,1.9719066E-1,-1.4994049E-1],"split_indices":[1666,2890,1042,478,2550,3062,2235,0,0,0,2019,0,1140,256,1581,2689,0,0,0,0,0,1393,1892,0,1334,0,0,1029,2087,0,0,0,0,0,0],"split_type":[0,0,0,0,0,0,0,0,0,0,0,0,0,0,0,0,0,0,0,0,0,0,0,0,0,0,0,0,0,0,0,0,0,0,0],"sum_hessian":[6.6734033E2,1.953313E2,4.72009E2,5.889957E0,1.8944135E2,2.9794119E1,4.422149E2,1.0853738E0,4.804583E0,2.4798052E0,1.8696155E2,1.6522024E0,2.8141918E1,2.3078342E1,4.1913657E2,1.8446964E2,2.4919035E0,1.168717E0,2.69732E1,1.0707687E0,2.2007572E1,8.602321E0,4.1053424E2,1.5311201E0,1.8293852E2,6.43153E0,2.1707907E0,2.0245352E1,3.9028888E2,1.3676109E0,1.815709E2,1.6078018E1,4.167332E0,1.4067265E1,3.7622162E2],"tree_param":{"num_deleted":"0","num_feature":"3089","num_nodes":"35","size_leaf_vector":"0"}},{"base_weights":[1.132006E-2,1.1028308E0,-4.2177996E-1,-6.3917494E-1,1.1619252E0,-8.3998606E-2,-1.026588E0,7.189912E-1,-1.0349091E0,3.0984837E-1,1.177256E0,-1.2631146E0,1.6605897E-1,1.0443833E0,-1.1923835E0,-1.799877E-1,7.408157E-1,1.1968634E0,5.819197E-1,5.320144E-1,-5.8962643E-1,-1.2317973E0,1.0551721E0,2.3949958E-1,1.2052387E0,-1.2528403E-1,9.7269475E-1,-1.3037094E0,6.659101E-1,7.7647716E-1,-1.1041921E0,8.4652597E-1,-1.2680769E0,1.210684E0,2.4628921E-1,-3.789888E-1,9.109441E-1,-1.0025539E0,1.1378936E0,-1.2501191E0,1.0181721E0,-2.424053E-1,-1.2858063E0],"categories":[],"categories_nodes":[],"categories_segments":[],"categories_sizes":[],"default_left":[0,0,0,0,0,0,0,0,0,0,0,0,1,0,1,0,0,0,0,0,0,0,0,0,1,0,0,0,0,0,1,0,0,0,0,0,0,0,0,0,0,0,0],"id":6,"left_children":[1,3,5,7,9,11,13,-1,-1,15,17,-1,19,-1,21,-1,-1,23,25,27,29,31,-1,-1,33,-1,-1,-1,35,37,39,-1,41,-1,-1,-1,-1,-1,-1,-1,-1,-1,-1],"loss_changes":[2.920903E2,1.881105E1,9.028741E1,4.186018E0,1.8574371E0,8.422211E1,5.564601E1,0E0,0E0,1.0545664E0,1.2500153E0,0E0,6.556919E1,0E0,1.4335907E1,0E0,0E0,9.981537E-1,2.1290822E0,4.0073273E1,5.5309433E1,1.2013031E1,0E0,0E0,5.3125E-1,0E0,0E0,0E0,3.8576958E1,1.51455965E1,1.8827461E1,0E0,2.2886047E0,0E0,0E0,0E0,0E0,0E0,0E0,0E0,0E0,0E0,0E0],"parents":[2147483647,0,0,1,1,2,2,3,3,4,4,5,5,6,6,9,9,10,10,12,12,14,14,17,17,18,18,19,19,20,20,21,21,24,24,28,28,29,29,30,30,32,32],"right_children":[2,4,6,8,10,12,14,-1,-1,16,18,-1,20,-1,22,-1,-1,24,26,28,30,32,-1,-1,34,-1,-1,-1,36,38,40,-1,42,-1,-1,-1,-1,-1,-1,-1,-1,-1,-1],"split_conditions":[3.5E0,1.8E1,1.3E2,2.000001E0,1.5E0,1.6E1,6.000001E0,1.15038596E-1,-1.6558546E-1,1.7E1,3.52E2,-2.0209832E-1,1.5E0,1.6710132E-1,1.5E0,-2.879803E-2,1.1853051E-1,8.000001E0,8.5E0,1.0000001E1,1.4000001E1,2.000001E0,1.6882753E-1,3.8319934E-2,1.5E0,-2.0045444E-2,1.5563115E-1,-2.085935E-1,1.5E0,3E1,-9.536743E-7,1.3544415E-1,1.5E0,1.9370943E-1,3.9406274E-2,-6.0638208E-2,1.4575106E-1,-1.6040863E-1,1.8206297E-1,-2.0001905E-1,1.6290754E-1,-3.8784847E-2,-2.0572901E-1],"split_indices":[1666,2890,15,478,1078,2352,2010,0,0,0,1029,0,1027,0,2202,0,0,2517,15,2251,1452,1245,0,0,2482,0,0,0,0,2392,25,0,2482,0,0,0,0,0,0,0,0,0,0],"split_type":[0,0,0,0,0,0,0,0,0,0,0,0,0,0,0,0,0,0,0,0,0,0,0,0,0,0,0,0,0,0,0,0,0,0,0,0,0,0,0,0,0,0,0],"sum_hessian":[6.158914E2,1.7451855E2,4.4137286E2,5.403909E0,1.6911464E2,2.8393555E2,1.574373E2,1.0349817E0,4.3689275E0,3.363876E0,1.6575076E2,4.8970387E1,2.3496518E2,1.1276916E1,1.4616039E2,1.8469744E0,1.5169017E0,1.5948764E2,6.263125E0,1.5850299E2,7.646219E1,1.440856E2,2.0747848E0,1.6398084E0,1.5784784E2,2.4708707E0,3.7922542E0,1.0181183E1,1.4832181E2,2.0781382E1,5.568081E1,2.0888667E0,1.4199673E2,1.5669556E2,1.1522818E0,2.807117E1,1.2025063E2,3.2094202E0,1.7571962E1,5.2483208E1,3.1975992E0,2.6621077E0,1.3933464E2],"tree_param":{"num_deleted":"0","num_feature":"3089","num_nodes":"43","size_leaf_vector":"0"}},{"base_weights":[9.706026E-3,1.05568E0,-3.8829866E-1,-5.926113E-1,1.1134499E0,-7.941063E-2,-9.741563E-1,5.4289824E-1,-9.7420514E-1,1.0470238E-1,1.1284348E0,-1.2083224E0,1.4294627E-1,9.596743E-1,-1.1358536E0,-2.809861E-2,1.1397529E0,-1.2128344E0,3.175163E-1,1.0712241E0,3.662005E-1,-1.1756254E0,9.785695E-1,1.1508023E0,2.8559095E-1,-1.257621E-1,6.849553E-1,-7.976494E-1,1.3128403E0,8.022475E-1,-1.2117914E0,3.0137897E-2,1.1617385E0,-5.5450916E-1,1.0589819E0,-1.1999882E0,8.276693E-1,-1.2302879E0,-1.20554194E-1],"categories":[],"categories_nodes":[],"categories_segments":[],"categories_sizes":[],"default_left":[0,0,0,0,0,0,0,0,0,0,0,0,0,0,1,0,1,0,0,0,1,0,0,0,0,0,0,0,0,0,1,0,0,0,0,0,0,0,0],"id":7,"left_children":[1,3,5,7,9,11,13,-1,-1,-1,15,-1,17,19,21,-1,23,-1,25,-1,27,29,-1,31,-1,33,35,-1,-1,-1,37,-1,-1,-1,-1,-1,-1,-1,-1],"loss_changes":[2.3584778E2,1.5528748E1,7.418946E1,3.1027784E0,2.1675262E0,6.789958E1,4.5364426E1,0E0,0E0,0E0,1.9810333E0,0E0,5.3945908E1,3.6688805E-1,1.2177063E1,0E0,1.0632019E0,0E0,3.2870125E1,0E0,4.720214E0,1.0210831E1,0E0,1.7453156E0,0E0,4.7354797E1,3.0640404E1,0E0,0E0,0E0,2.419815E0,0E0,0E0,0E0,0E0,0E0,0E0,0E0,0E0],"parents":[2147483647,0,0,1,1,2,2,3,3,4,4,5,5,6,6,10,10,12,12,13,13,14,14,16,16,18,18,20,20,21,21,23,23,25,25,26,26,30,30],"right_children":[2,4,6,8,10,12,14,-1,-1,-1,16,-1,18,20,22,-1,24,-1,26,-1,28,30,-1,32,-1,34,36,-1,-1,-1,38,-1,-1,-1,-1,-1,-1,-1,-1],"split_conditions":[3.5E0,1.8E1,1.3E2,4.000001E0,6.000001E0,1.6E1,6.000001E0,8.686372E-2,-1.5587282E-1,1.675238E-2,6.000001E0,-1.9333158E-1,3.4E1,2.000001E0,1.5E0,-4.495777E-3,2.5E0,-1.9405349E-1,6.4E1,1.7139585E-1,-9.536743E-7,2.000001E0,1.5657112E-1,4.000001E0,4.569455E-2,1.65E1,4.000001E0,-1.276239E-1,2.1005446E-1,1.283596E-1,1.5E0,4.8220633E-3,1.8587816E-1,-8.872146E-2,1.694371E-1,-1.9199811E-1,1.3242708E-1,-1.9684607E-1,-1.928867E-2],"split_indices":[1666,2890,15,1086,1481,2352,2010,0,0,0,2101,0,2392,1660,2202,0,2019,0,1027,0,2930,1245,0,2689,0,0,2418,0,0,0,2162,0,0,0,0,0,0,0,0],"split_type":[0,0,0,0,0,0,0,0,0,0,0,0,0,0,0,0,0,0,0,0,0,0,0,0,0,0,0,0,0,0,0,0,0,0,0,0,0,0,0],"sum_hessian":[5.645451E2,1.5515042E2,4.0939465E2,4.9401436E0,1.5021028E2,2.6880518E2,1.405895E2,1.1362599E0,3.8038838E0,2.3155966E0,1.4789468E2,4.3503353E1,2.2530182E2,1.0467519E1,1.3012198E2,1.4189461E0,1.4647574E2,2.502216E1,2.0027966E2,8.133697E0,2.3338218E0,1.281554E2,1.9665732E0,1.442623E2,2.2134445E0,9.1070244E1,1.0920941E2,1.1174085E0,1.2164133E0,1.920903E0,1.262345E2,1.4305124E0,1.4283179E2,6.7261086E1,2.3809158E1,7.1651373E0,1.0204427E2,1.2400517E2,2.2293231E0],"tree_param":{"num_deleted":"0","num_feature":"3089","num_nodes":"39","size_leaf_vector":"0"}},{"base_weights":[8.189331E-3,1.0136791E0,-3.564457E-1,-5.508632E-1,1.0709081E0,1.1410234E0,-4.644005E-1,5.2776235E-1,-9.306823E-1,4.3758824E-2,1.0875967E0,1.2203183E0,-4.4700123E-2,1.1574614E0,-5.5439425E-1,1.111709E0,4.3648428E-1,3.724278E-1,1.2463758E0,1.6791719E-1,1.206172E0,1.5627497E0,-6.145531E-1,1.4120376E-1,1.1226748E0,-2.1923375E-1,8.7297875E-1,1.7016531E0,6.1826634E-1,1.3482075E0,-6.805821E-1,1.13989264E-1,1.1302578E0,1.3445774E0,-7.464209E-1],"categories":[],"categories_nodes":[],"categories_segments":[],"categories_sizes":[],"default_left":[0,0,0,0,0,1,0,0,0,0,0,0,0,0,0,0,0,0,0,0,0,1,0,0,0,0,0,0,0,0,0,0,0,0,0],"id":8,"left_children":[1,3,5,7,9,11,13,-1,-1,-1,15,17,-1,19,21,23,25,-1,-1,-1,-1,27,29,-1,31,-1,-1,-1,-1,-1,33,-1,-1,-1,-1],"loss_changes":[1.9061098E2,1.2978027E1,6.2210396E1,2.7619185E0,2.246231E0,2.4940338E0,5.2690285E1,0E0,0E0,0E0,1.5813904E0,7.390976E-2,0E0,7.166939E-1,4.407734E1,1.1854553E0,2.0080342E0,0E0,0E0,0E0,0E0,2.1207047E-1,4.3671623E1,0E0,8.2522583E-1,0E0,0E0,0E0,0E0,0E0,4.364685E1,0E0,0E0,0E0,0E0],"parents":[2147483647,0,0,1,1,2,2,3,3,4,4,5,5,6,6,10,10,11,11,13,13,14,14,15,15,16,16,21,21,22,22,24,24,30,30],"right_children":[2,4,6,8,10,12,14,-1,-1,-1,16,18,-1,20,22,24,26,-1,-1,-1,-1,28,30,-1,32,-1,-1,-1,-1,-1,34,-1,-1,-1,-1],"split_conditions":[3.5E0,1.8E1,1.5E0,4.000001E0,3E0,1.5E0,3E1,8.4441975E-2,-1.4890917E-1,7.0014116E-3,3.52E2,1.5E0,-7.1520195E-3,2.5E0,8.000001E0,8.000001E0,8.5E0,5.9588443E-2,1.9942012E-1,2.686675E-2,1.9298752E-1,-9.536743E-7,8.000001E0,2.25926E-2,2.000001E0,-3.50774E-2,1.396766E-1,2.7226448E-1,9.892261E-2,2.1571319E-1,1.5E0,1.8238282E-2,1.8084125E-1,2.1513239E-1,-1.19427346E-1],"split_indices":[1666,2890,1042,1531,2550,2816,2235,0,0,0,1029,2130,0,599,1581,2517,15,0,0,0,0,1393,236,0,1334,0,0,0,0,0,2485,0,0,0,0],"split_type":[0,0,0,0,0,0,0,0,0,0,0,0,0,0,0,0,0,0,0,0,0,0,0,0,0,0,0,0,0,0,0,0,0,0,0],"sum_hessian":[5.1790485E2,1.3735771E2,3.8054715E2,4.54268E0,1.3281503E2,2.4945946E1,3.5560123E2,1.0815997E0,3.46108E0,2.1813214E0,1.3063371E2,2.3354918E1,1.5910282E0,1.8070694E1,3.3753052E2,1.2528661E2,5.3470926E0,1.1523055E0,2.2202612E1,1.0564489E0,1.7014246E1,8.635852E0,3.2889465E2,1.5548445E0,1.2373177E2,2.335843E0,3.0112495E0,6.8297386E0,1.8061134E0,1.0072215E1,3.1882245E2,1.0428708E0,1.226889E2,9.427145E0,3.093953E2],"tree_param":{"num_deleted":"0","num_feature":"3089","num_nodes":"35","size_leaf_vector":"0"}},{"base_weights":[1.24020185E-2,9.76771E-1,-3.1603527E-1,-5.1277876E-1,1.0337327E0,-4.0949553E-2,-8.8351727E-1,5.127446E-1,-8.9084196E-1,-1.4728645E-3,1.0529759E0,-1.1404849E0,1.5175125E-1,9.6733963E-1,-1.0671455E0,1.2798624E-1,1.0749649E0,-1.1389512E0,2.9960176E-1,1.0579698E0,4.2276338E-1,-1.1084063E0,8.838022E-1,6.8474233E-1,-5.4309976E-1,1.0891875E0,1.8263319E-1,-9.92203E-1,4.0083095E-1,-7.0607144E-1,1.2538662E0,7.014209E-1,-1.141919E0,-4.6324003E-2,1.1034573E0,-1.2111864E0,7.070735E-1,-4.6846487E-2,7.566586E-1,-5.1469993E-2,-1.1663094E0],"categories":[],"categories_nodes":[],"categories_segments":[],"categories_sizes":[],"default_left":[0,0,0,0,0,0,0,0,0,0,0,0,0,0,1,0,1,0,0,0,1,0,0,0,0,0,0,1,0,0,0,0,0,0,0,0,0,0,0,0,0],"id":9,"left_children":[1,3,5,7,9,11,13,-1,-1,-1,15,-1,17,19,21,23,25,-1,27,-1,29,31,-1,-1,-1,33,-1,35,37,-1,-1,-1,39,-1,-1,-1,-1,-1,-1,-1,-1],"loss_changes":[1.5251376E2,1.0909134E1,5.60399E1,2.4628005E0,2.3552322E0,5.1657497E1,4.087539E1,0E0,0E0,0E0,2.2217712E0,0E0,3.996441E1,1.0084057E-1,9.602943E0,1.8023849E0,1.2373352E0,0E0,2.48627E1,0E0,3.93446E0,7.190674E0,0E0,0E0,0E0,1.852829E0,0E0,6.022437E0,2.7785372E1,0E0,0E0,0E0,2.7010803E0,0E0,0E0,0E0,0E0,0E0,0E0,0E0,0E0],"parents":[2147483647,0,0,1,1,2,2,3,3,4,4,5,5,6,6,10,10,12,12,13,13,14,14,15,15,16,16,18,18,20,20,21,21,25,25,27,27,28,28,32,32],"right_children":[2,4,6,8,10,12,14,-1,-1,-1,16,-1,18,20,22,24,26,-1,28,-1,30,32,-1,-1,-1,34,-1,36,38,-1,-1,-1,40,-1,-1,-1,-1,-1,-1,-1,-1],"split_conditions":[3.5E0,1.8E1,1.3E2,4.5E0,6.000001E0,1.6E1,6.000001E0,8.203913E-2,-1.4253472E-1,-2.3565831E-4,2.5E0,-1.8247758E-1,3.4E1,2.000001E0,1.5E0,2.000001E0,2.5E0,-1.8223219E-1,6E1,1.6927516E-1,-9.536743E-7,2.000001E0,1.4140834E-1,1.0955877E-1,-8.689596E-2,4.000001E0,2.922131E-2,-9.536743E-7,6.4E1,-1.12971425E-1,2.0061858E-1,1.1222734E-1,1.5E0,-7.4118404E-3,1.7655317E-1,-1.9378982E-1,1.1313176E-1,-7.4954377E-3,1.2106538E-1,-8.235198E-3,-1.8660949E-1],"split_indices":[1666,2890,15,1614,1481,2352,2010,0,0,0,2660,0,2392,1660,2202,777,2019,0,2251,0,2930,1245,0,0,0,2689,0,25,1027,0,0,0,2482,0,0,0,0,0,0,0,0],"split_type":[0,0,0,0,0,0,0,0,0,0,0,0,0,0,0,0,0,0,0,0,0,0,0,0,0,0,0,0,0,0,0,0,0,0,0,0,0,0,0,0,0],"sum_hessian":[4.7954428E2,1.21326675E2,3.582176E2,4.174002E0,1.1715268E2,2.4198705E2,1.1623057E2,1.0283335E0,3.1456685E0,2.1548445E0,1.1499783E2,3.535214E1,2.066349E2,1.0105505E1,1.0612506E2,2.8286455E0,1.1216919E2,2.0548409E1,1.8608649E2,7.855438E0,2.2500672E0,1.04350006E2,1.7750504E0,1.5348945E0,1.293751E0,1.1019227E2,1.9769213E0,1.2882968E1,1.7320352E2,1.0179244E0,1.2321427E0,1.5347928E0,1.02815216E2,1.339706E0,1.0885256E2,1.1666727E1,1.2162408E0,7.708673E1,9.611679E1,2.317421E0,1.00497795E2],"tree_param":{"num_deleted":"0","num_feature":"3089","num_nodes":"41","size_leaf_vector":"0"}},{"base_weights":[1.039043E-2,9.4215053E-1,-2.893259E-1,-4.7776163E-1,9.9900615E-1,7.193827E-1,-4.379419E-1,4.0976122E-1,-8.450988E-1,3.2718917E-3,1.0225353E0,-4.3315506E-1,9.1841155E-1,-7.0562977E-1,6.27954E-2,-2.1896343E-1,2.2647679E-1,1.0533093E0,3.0510622E-1,8.58872E-1,-9.95791E-1,-7.2542727E-1,9.9875534E-1,2.2235305E0,-7.705168E-1,6.086606E-1,-7.9786956E-1,5.9752874E-2,1.0679253E0,-2.9377633E-1,7.8691417E-1,-9.029849E-2,1.0436842E0,1.1021627E0,-8.7026674E-1,7.946467E-1,-7.043767E-1,6.998067E-1,-1.1516366E0,1.0396843E-1,1.0779641E0,5.9740614E-2,1.0830656E0,-9.346324E-1,1.6962348E0,2.2555594E0,6.509885E-1,-9.8630303E-1,6.585421E-1,-8.095783E-1,1.156967E0],"categories":[],"categories_nodes":[],"categories_segments":[],"categories_sizes":[],"default_left":[0,0,0,0,0,0,1,0,0,0,0,0,0,0,1,0,0,0,0,0,0,0,0,0,0,0,0,0,0,0,0,0,0,0,1,0,1,1,0,0,0,0,0,0,0,0,0,0,0,0,0],"id":10,"left_children":[1,3,5,7,9,11,13,-1,-1,15,17,19,21,23,25,-1,-1,27,29,-1,-1,-1,31,-1,33,35,37,-1,39,-1,-1,-1,41,-1,43,45,47,49,-1,-1,-1,-1,-1,-1,-1,-1,-1,-1,-1,-1,-1],"loss_changes":[1.2393757E2,9.196892E0,5.0657227E1,1.9225478E0,2.437355E0,1.0376574E1,3.936049E1,0E0,0E0,2.186423E-1,1.9254456E0,6.005976E0,5.6661606E0,3.805686E1,4.8921253E1,0E0,0E0,1.3473206E0,1.8451613E0,0E0,0E0,0E0,1.8602943E0,0E0,3.604306E1,1.6104193E1,2.223428E1,0E0,8.14064E-1,0E0,0E0,0E0,1.2815475E0,0E0,3.113475E1,1.0331764E1,3.8877726E0,6.698347E0,0E0,0E0,0E0,0E0,0E0,0E0,0E0,0E0,0E0,0E0,0E0,0E0,0E0],"parents":[2147483647,0,0,1,1,2,2,3,3,4,4,5,5,6,6,9,9,10,10,11,11,12,12,13,13,14,14,17,17,18,18,22,22,24,24,25,25,26,26,28,28,32,32,34,34,35,35,36,36,37,37],"right_children":[2,4,6,8,10,12,14,-1,-1,16,18,20,22,24,26,-1,-1,28,30,-1,-1,-1,32,-1,34,36,38,-1,40,-1,-1,-1,42,-1,44,46,48,50,-1,-1,-1,-1,-1,-1,-1,-1,-1,-1,-1,-1,-1],"split_conditions":[3.5E0,1.8E1,1.8E1,6.000001E0,1.5E0,4.000001E0,3.5E0,6.5561794E-2,-1.352158E-1,1.1E1,3.52E2,1.5E0,4.000001E0,2.000001E0,1.5E0,-3.5034146E-2,3.6236286E-2,8.000001E0,8.5E0,1.3741952E-1,-1.5932655E-1,-1.1606836E-1,6.000001E0,3.5576487E-1,4.000001E0,6.8E1,1.6E1,9.560459E-3,1.5E0,-4.700421E-2,1.2590626E-1,-1.4447758E-2,6.000001E0,1.7634603E-1,-9.536743E-7,2.000001E0,-9.536743E-7,3E0,-1.8426186E-1,1.6634949E-2,1.7247425E-1,9.558498E-3,1.7329049E-1,-1.4954118E-1,2.7139756E-1,3.608895E-1,1.0415816E-1,-1.5780848E-1,1.0536674E-1,-1.2953253E-1,1.8511473E-1],"split_indices":[1666,2890,2162,1638,1078,2418,1029,0,0,15,1029,1692,2600,518,1027,0,0,2517,15,0,0,0,1842,0,2087,15,2550,0,2607,0,0,0,1587,0,433,1538,1173,3047,0,0,0,0,0,0,0,0,0,0,0,0,0],"split_type":[0,0,0,0,0,0,0,0,0,0,0,0,0,0,0,0,0,0,0,0,0,0,0,0,0,0,0,0,0,0,0,0,0,0,0,0,0,0,0,0,0,0,0,0,0,0,0,0,0,0,0],"sum_hessian":[4.4182507E2,1.0700957E2,3.3481552E2,3.8348522E0,1.0317471E2,4.250162E1,2.923139E2,1.0887746E0,2.7460778E0,2.4080338E0,1.0076668E2,6.085472E0,3.641615E1,1.9021706E2,1.0209683E2,1.2161597E0,1.1918743E0,9.617318E1,4.593501E0,1.6863815E0,4.399091E0,1.3227884E0,3.509336E1,3.4014096E0,1.8681564E2,6.2652885E1,3.944395E1,1.4680382E0,9.470514E1,2.2219284E0,2.3715727E0,1.3504065E0,3.3742954E1,8.93945E0,1.778762E2,5.5225266E1,7.4276185E0,7.3499026E0,3.2094048E1,1.0931598E0,9.361198E1,1.3954186E0,3.2347538E1,1.7414464E2,3.7315657E0,3.6281703E0,5.1597095E1,6.3834925E0,1.0441263E0,1.529416E0,5.820487E0],"tree_param":{"num_deleted":"0","num_feature":"3089","num_nodes":"51","size_leaf_vector":"0"}},{"base_weights":[1.1864966E-2,9.0891516E-1,-2.63556E-1,-4.456265E-1,9.6608734E-1,-2.3046715E-2,-8.290217E-1,4.0727147E-1,-8.128386E-1,-1.1543483E-1,9.902885E-1,-1.0867659E0,1.3716628E-1,9.2024845E-1,-1.0109518E0,1.0235237E0,2.821976E-1,-1.0750407E0,2.5489005E-1,-1.0539824E0,7.840516E-1,1.0417354E0,1.09806046E-1,-2.571429E-1,7.5337636E-1,8.397504E-2,9.289923E-1,6.186308E-1,-1.0868627E0,9.599896E-2,1.0529109E0,-4.6492332E-1,4.174943E-1,1.2910244E0,2.908122E-1,-2.2606391E-2,-1.1161716E0],"categories":[],"categories_nodes":[],"categories_segments":[],"categories_sizes":[],"default_left":[0,0,0,0,0,0,0,0,0,0,0,0,0,0,1,1,0,0,0,0,0,0,0,0,0,0,1,0,0,0,0,0,0,0,0,0,0],"id":11,"left_children":[1,3,5,7,9,11,13,-1,-1,-1,15,-1,17,-1,19,21,23,-1,25,27,-1,29,-1,-1,-1,31,33,-1,35,-1,-1,-1,-1,-1,-1,-1,-1],"loss_changes":[1.00384514E2,7.8216476E0,4.226258E1,1.7559363E0,2.5194855E0,3.749702E1,3.0445942E1,0E0,0E0,0E0,1.8288116E0,0E0,2.7580936E1,0E0,7.3519745E0,1.3095169E0,1.5697813E0,0E0,2.011E1,5.2333603E0,0E0,7.8440094E-1,0E0,0E0,0E0,2.5984797E1,7.789873E0,0E0,2.5230713E0,0E0,0E0,0E0,0E0,0E0,0E0,0E0,0E0],"parents":[2147483647,0,0,1,1,2,2,3,3,4,4,5,5,6,6,10,10,12,12,14,14,15,15,16,16,18,18,19,19,21,21,25,25,26,26,28,28],"right_children":[2,4,6,8,10,12,14,-1,-1,-1,16,-1,18,-1,20,22,24,-1,26,28,-1,30,-1,-1,-1,32,34,-1,36,-1,-1,-1,-1,-1,-1,-1,-1],"split_conditions":[3.5E0,1.8E1,1.3E2,2.000001E0,3E0,1.6E1,6.000001E0,6.516343E-2,-1.3005418E-1,-1.8469572E-2,3.52E2,-1.7388254E-1,3.4E1,1.4723974E-1,1.5E0,-9.536743E-7,8.5E0,-1.720065E-1,1.25E1,2.000001E0,1.2544826E-1,1.5E0,1.7568966E-2,-4.1142862E-2,1.2054022E-1,3.2E1,2.5E0,9.898093E-2,1.5E0,1.5359833E-2,1.6846575E-1,-7.438773E-2,6.679909E-2,2.065639E-1,4.652995E-2,-3.6170227E-3,-1.7858745E-1],"split_indices":[1666,2890,15,2019,2550,2352,2010,0,0,0,1029,0,2392,0,2202,1645,15,0,0,1245,0,2607,0,0,0,1027,1027,0,2482,0,0,0,0,0,0,0,0],"split_type":[0,0,0,0,0,0,0,0,0,0,0,0,0,0,0,0,0,0,0,0,0,0,0,0,0,0,0,0,0,0,0,0,0,0,0,0,0],"sum_hessian":[4.0433618E2,9.444084E1,3.0989532E2,3.549539E0,9.0891304E1,2.1815031E2,9.174502E1,1.0354593E0,2.5140798E0,1.9068427E0,8.898446E1,2.7798893E1,1.9035141E2,8.2605915E0,8.348443E1,8.45696E1,4.4148607E0,1.612984E1,1.7422157E2,8.193311E1,1.5513163E0,8.277958E1,1.7900234E0,2.270342E0,2.1445184E0,1.3988025E2,3.4341316E1,1.2361436E0,8.069697E1,1.0787576E0,8.170082E1,5.2720337E1,8.715992E1,2.1258589E1,1.3082727E1,2.210254E0,7.848672E1],"tree_param":{"num_deleted":"0","num_feature":"3089","num_nodes":"37","size_leaf_vector":"0"}},{"base_weights":[1.0688736E-2,8.770264E-1,-2.4064822E-1,-4.1583636E-1,9.345939E-1,1.0822915E0,-3.4398383E-1,3.8877633E-1,-7.794728E-1,-1.7345628E-1,9.629516E-1,4.415431E-1,1.2997024E0,1.0837803E0,-4.1704425E-1,-7.890719E-2,9.9420935E-1,-1.1063573E0,9.2634255E-1,-4.6013322E-1,2.1936705E0,5.6850296E-1,-6.59371E-1,-1.4510904E-2,1.0128534E0,1.2379482E0,-5.228247E-1,1.0335568E0,9.51602E-2,1.3063399E0,-5.856576E-1],"categories":[],"categories_nodes":[],"categories_segments":[],"categories_sizes":[],"default_left":[0,0,0,0,0,0,0,0,0,0,0,1,0,0,1,0,0,0,0,0,0,0,0,0,1,0,0,0,0,0,0],"id":12,"left_children":[1,3,5,7,9,11,13,-1,-1,-1,15,17,-1,-1,19,21,23,-1,-1,25,-1,-1,-1,-1,27,-1,29,-1,-1,-1,-1],"loss_changes":[8.167767E1,6.6665726E0,4.0125427E1,1.5576062E0,2.714157E0,2.3946495E0,2.8666786E1,0E0,0E0,0E0,2.6574478E0,6.212656E0,0E0,0E0,3.0036736E1,1.5898801E0,1.4620438E0,0E0,0E0,2.7758602E1,0E0,0E0,0E0,0E0,1.3375473E0,0E0,2.9073814E1,0E0,0E0,0E0,0E0],"parents":[2147483647,0,0,1,1,2,2,3,3,4,4,5,5,6,6,10,10,11,11,14,14,15,15,16,16,19,19,24,24,26,26],"right_children":[2,4,6,8,10,12,14,-1,-1,-1,16,18,-1,-1,20,22,24,-1,-1,26,-1,-1,-1,-1,28,-1,30,-1,-1,-1,-1],"split_conditions":[3.5E0,1.8E1,1.5E0,4.000001E0,6.000001E0,2.5E0,1.1E1,6.2204212E-2,-1.2471565E-1,-2.7753005E-2,2.5E0,4.5E0,2.0795238E-1,1.7340484E-1,-9.536743E-7,2.000001E0,8.000001E0,-1.7701717E-1,1.482148E-1,8.000001E0,3.509873E-1,9.096047E-2,-1.0549936E-1,-2.3217446E-3,2.5E0,1.980717E-1,8.000001E0,1.653691E-1,1.5225632E-2,2.0901437E-1,-9.3705215E-2],"split_indices":[1666,2890,1042,2150,1481,2431,2235,0,0,0,2660,15,0,0,890,725,2517,0,0,236,0,0,0,0,2019,0,1581,0,0,0,0],"split_type":[0,0,0,0,0,0,0,0,0,0,0,0,0,0,0,0,0,0,0,0,0,0,0,0,0,0,0,0,0,0,0],"sum_hessian":[3.7314172E2,8.335039E1,2.8979135E2,3.2878451E0,8.0062546E1,2.0309408E1,2.6948193E2,1.0018756E0,2.2859695E0,1.8701808E0,7.819237E1,5.91317E0,1.4396237E1,1.244499E1,2.5703693E2,2.233187E0,7.5959175E1,1.1045129E0,4.8086567E0,2.5367389E2,3.363052E0,1.0654554E0,1.1677315E0,1.3824846E0,7.457669E1,8.364471E0,2.4530942E2,7.280787E1,1.7688266E0,7.489432E0,2.3781999E2],"tree_param":{"num_deleted":"0","num_feature":"3089","num_nodes":"31","size_leaf_vector":"0"}},{"base_weights":[1.4842016E-2,8.45052E-1,-2.0922898E-1,-3.883138E-1,9.031088E-1,6.67067E-1,-3.4481466E-1,3.271168E-1,-7.4174833E-1,-1.605804E-1,9.3579686E-1,-4.1554812E-1,8.525526E-1,1.3192478E0,-4.2170873E-1,9.783633E-1,1.6870163E-1,7.546343E-1,-9.266568E-1,-6.3794434E-1,9.2451495E-1,1.0961453E0,-5.1686823E-1,1.607315E-1,1.0175271E0,-3.5048553E-1,7.6558405E-1,7.100676E-1,1.3754886E0,1.7341687E-1,1.3203526E0,1.3631514E0,-5.82968E-1,6.605171E-1,-4.1506937E-1,1.1678694E-1,1.0324638E0,-9.0960455E-1,9.432648E-1,4.241041E-1,-2.1455157E-1,8.062125E-1,-6.82843E-1],"categories":[],"categories_nodes":[],"categories_segments":[],"categories_sizes":[],"default_left":[0,0,0,0,0,0,0,0,0,0,0,0,0,0,0,0,0,0,0,0,1,0,0,0,0,0,0,0,0,0,0,0,0,0,0,0,0,0,0,0,0,0,0],"id":13,"left_children":[1,3,5,7,9,11,13,-1,-1,-1,15,17,19,-1,21,23,25,-1,-1,-1,27,29,31,33,35,-1,-1,37,-1,39,-1,-1,41,-1,-1,-1,-1,-1,-1,-1,-1,-1,-1],"loss_changes":[6.527076E1,5.6901703E0,3.306408E1,1.2671119E0,2.636898E0,7.8585205E0,3.1263407E1,0E0,0E0,0E0,2.105297E0,4.37062E0,4.0469303E0,0E0,3.380741E1,1.9392166E0,1.7755911E0,0E0,0E0,0E0,2.0363445E0,2.6461678E0,2.7791E1,1.4797187E0,7.200012E-1,0E0,0E0,9.613869E0,0E0,4.6718177E-1,0E0,0E0,2.9765E1,0E0,0E0,0E0,0E0,0E0,0E0,0E0,0E0,0E0,0E0],"parents":[2147483647,0,0,1,1,2,2,3,3,4,4,5,5,6,6,10,10,11,11,12,12,14,14,15,15,16,16,20,20,21,21,22,22,23,23,24,24,27,27,29,29,32,32],"right_children":[2,4,6,8,10,12,14,-1,-1,-1,16,18,20,-1,22,24,26,-1,-1,-1,28,30,32,34,36,-1,-1,38,-1,40,-1,-1,42,-1,-1,-1,-1,-1,-1,-1,-1,-1,-1],"split_conditions":[3.5E0,1.8E1,1.8E1,4.000001E0,1.5E0,4.000001E0,1.5E0,5.2338686E-2,-1.1867973E-1,-2.5692863E-2,3.52E2,1.5E0,4.000001E0,2.1107966E-1,1.5E0,1.5E0,7.5E0,1.2074149E-1,-1.4826508E-1,-1.0207109E-1,1.5E0,4.5E0,1.0000001E1,2.000001E0,2.000001E0,-5.6077685E-2,1.22493446E-1,2.5E0,2.2007817E-1,3.5E0,2.112564E-1,2.1810423E-1,2.5E0,1.0568273E-1,-6.64111E-2,1.868591E-2,1.651942E-1,-1.4553672E-1,1.5092236E-1,6.7856655E-2,-3.432825E-2,1.2899399E-1,-1.0925488E-1],"split_indices":[1666,2890,2162,2803,1078,2418,2144,0,0,0,1029,1692,2600,0,2614,1426,0,0,0,0,1573,1029,3014,2162,1522,0,0,2431,0,0,0,0,1892,0,0,0,0,0,0,0,0,0,0],"split_type":[0,0,0,0,0,0,0,0,0,0,0,0,0,0,0,0,0,0,0,0,0,0,0,0,0,0,0,0,0,0,0,0,0,0,0,0,0,0,0,0,0,0,0],"sum_hessian":[3.4891858E2,7.35682E1,2.7535037E2,3.0515785E0,7.051662E1,3.636995E1,2.3898042E2,1.0336673E0,2.0179112E0,1.9857738E0,6.8530846E1,5.138425E0,3.1231524E1,9.841616E0,2.2913881E2,6.466703E1,3.8638134E0,1.417225E0,3.7211998E0,1.0761954E0,3.0155327E1,1.2897445E1,2.1624136E2,3.1892107E0,6.147782E1,2.2871685E0,1.5766449E0,2.2181896E1,7.9734316E0,2.8679254E0,1.0029519E1,6.6781354E0,2.0956323E2,1.6285385E0,1.5606722E0,1.1466967E0,6.0331127E1,2.426695E0,1.9755201E1,1.685617E0,1.1823083E0,1.3581631E1,1.959816E2],"tree_param":{"num_deleted":"0","num_feature":"3089","num_nodes":"43","size_leaf_vector":"0"}},{"base_weights":[1.810275E-2,8.119659E-1,-1.8547477E-1,-3.6308965E-1,8.705342E-1,1.8335186E-2,-7.164721E-1,-7.1164703E-1,3.1018102E-1,-2.2617729E-1,9.057662E-1,-1.0368444E0,1.5406282E-1,9.4723624E-1,-9.547746E-1,-1.6592526E-1,9.446882E-1,-1.0165825E0,2.5148463E-1,-1.0081675E0,7.642046E-1,-6.2021427E-2,9.68386E-1,-8.880391E-1,3.3198476E-1,-3.0948503E-2,-1.069053E0,5.0022024E-1,1.0417517E0,5.099385E-1,-1.0964488E0,-3.2518947E-1,4.7434795E-1,6.9277316E-1,-8.506256E-1],"categories":[],"categories_nodes":[],"categories_segments":[],"categories_sizes":[],"default_left":[0,0,0,1,0,0,0,0,0,0,0,0,0,0,1,0,0,0,0,0,0,0,1,0,0,0,0,0,0,0,0,0,0,0,0],"id":14,"left_children":[1,3,5,7,9,11,13,-1,-1,-1,15,-1,17,-1,19,-1,21,-1,23,25,-1,-1,27,29,31,33,-1,-1,-1,-1,-1,-1,-1,-1,-1],"loss_changes":[5.2481976E1,4.8771935E0,2.7992163E1,1.1247452E0,2.6554794E0,2.705583E1,2.934402E1,0E0,0E0,0E0,2.7282562E0,0E0,1.9331816E1,0E0,6.5750084E0,0E0,1.4828262E0,0E0,1.45332155E1,3.642105E0,0E0,0E0,1.4822388E0,3.622325E0,1.3785938E1,3.3493173E0,0E0,0E0,0E0,0E0,0E0,0E0,0E0,0E0,0E0],"parents":[2147483647,0,0,1,1,2,2,3,3,4,4,5,5,6,6,10,10,12,12,14,14,16,16,18,18,19,19,22,22,23,23,24,24,25,25],"right_children":[2,4,6,8,10,12,14,-1,-1,-1,16,-1,18,-1,20,-1,22,-1,24,26,-1,-1,28,30,32,34,-1,-1,-1,-1,-1,-1,-1,-1,-1],"split_conditions":[3.5E0,1.8E1,1.3E2,4E0,6.000001E0,1.6E1,6.000001E0,-1.1386352E-1,4.962896E-2,-3.6188364E-2,2.5E0,-1.6589509E-1,3.4E1,1.5155779E-1,1.5E0,-2.6548041E-2,8.000001E0,-1.626532E-1,6E1,4.000001E0,1.2227274E-1,-9.923428E-3,2.5E0,6.000001E0,1.5E0,3E0,-1.7104849E-1,8.003524E-2,1.6668028E-1,8.159015E-2,-1.754318E-1,-5.2030314E-2,7.589567E-2,1.108437E-1,-1.3610008E-1],"split_indices":[1666,2890,15,1481,1481,2352,2010,0,0,0,2660,0,2392,0,2202,0,2517,0,2251,2162,0,0,1029,1848,0,1029,0,0,0,0,0,0,0,0,0],"split_type":[0,0,0,0,0,0,0,0,0,0,0,0,0,0,0,0,0,0,0,0,0,0,0,0,0,0,0,0,0,0,0,0,0,0,0],"sum_hessian":[3.2280734E2,6.5274994E1,2.5753235E2,2.8521864E0,6.242281E1,1.8679953E2,7.073283E1,1.841716E0,1.0104703E0,1.7742381E0,6.064857E1,2.0532867E1,1.6626665E2,8.489372E0,6.2243454E1,2.011105E0,5.8637466E1,1.2048921E1,1.5421773E2,6.0769417E1,1.4740392E0,1.3113798E0,5.7326084E1,9.513754E0,1.4470398E2,3.6526344E0,5.7116783E1,8.825628E0,4.8500458E1,1.0465904E0,8.467163E0,2.553688E1,1.191671E2,2.0220857E0,1.6305487E0],"tree_param":{"num_deleted":"0","num_feature":"3089","num_nodes":"35","size_leaf_vector":"0"}},{"base_weights":[1.4114281E-2,7.788307E-1,-1.7114206E-1,-3.3986202E-1,8.380305E-1,1.1466167E-2,-6.9258666E-1,-6.745128E-1,2.5566667E-1,-2.922778E-1,8.759552E-1,-1.0170017E0,1.2992337E-1,8.7275636E-1,-9.31597E-1,9.2883235E-1,1.0625982E-1,3.257145E-1,-3.9752516E-1,-9.871874E-1,7.2362924E-1,9.582033E-1,-3.378876E-2,-4.0660486E-1,6.6255546E-1,-1.0258576E0,4.0174162E-1,8.343521E-1,-8.5211766E-1,-3.3691607E-2,-1.052895E0,9.7642606E-1,7.219778E-2,-2.3389035E-1,5.7100856E-1,-6.917052E-1,1.1061168E0,-9.877734E-1,7.943232E-1,6.2645644E-1,-8.0313843E-1],"categories":[],"categories_nodes":[],"categories_segments":[],"categories_sizes":[],"default_left":[0,0,0,0,0,0,0,0,0,0,0,0,1,0,1,1,0,0,0,0,0,1,0,0,0,0,0,1,1,0,0,0,0,0,0,0,0,0,0,0,0],"id":15,"left_children":[1,3,5,7,9,11,13,-1,-1,-1,15,-1,17,-1,19,21,23,25,27,29,-1,31,-1,-1,-1,-1,33,35,37,39,-1,-1,-1,-1,-1,-1,-1,-1,-1,-1,-1],"loss_changes":[4.2812687E1,4.1875343E0,2.3178062E1,9.045044E-1,2.6675606E0,2.2208067E1,2.4431599E1,0E0,0E0,0E0,2.1267624E0,0E0,1.7001194E1,0E0,5.7981873E0,1.475338E0,1.5944091E0,1.2711717E1,2.5730917E1,3.3400764E0,0E0,7.2966385E-1,0E0,0E0,0E0,0E0,1.2403389E1,5.9692974E0,8.184143E0,2.7922235E0,0E0,0E0,0E0,0E0,0E0,0E0,0E0,0E0,0E0,0E0,0E0],"parents":[2147483647,0,0,1,1,2,2,3,3,4,4,5,5,6,6,10,10,12,12,14,14,15,15,16,16,17,17,18,18,19,19,21,21,26,26,27,27,28,28,29,29],"right_children":[2,4,6,8,10,12,14,-1,-1,-1,16,-1,18,-1,20,22,24,26,28,30,-1,32,-1,-1,-1,-1,34,36,38,40,-1,-1,-1,-1,-1,-1,-1,-1,-1,-1,-1],"split_conditions":[3.5E0,1.8E1,1.3E2,9.5E0,3E0,1.6E1,6.000001E0,-1.0792205E-1,4.0906668E-2,-4.676445E-2,3.52E2,-1.6272028E-1,1.5E0,1.3964102E-1,1.5E0,-9.536743E-7,8.5E0,1.0000001E1,2.5E0,4.000001E0,1.15780674E-1,1.5E0,-5.4062014E-3,-6.505678E-2,1.0600887E-1,-1.6413721E-1,1.5E0,5.5E0,-9.536743E-7,3E0,-1.6846319E-1,1.5622817E-1,1.1551645E-2,-3.7422456E-2,9.1361366E-2,-1.1067283E-1,1.7697868E-1,-1.5804374E-1,1.270917E-1,1.00233026E-1,-1.2850215E-1],"split_indices":[1666,2890,15,0,2550,2352,2010,0,0,0,1029,0,1027,0,2202,1645,15,2251,1452,2162,0,2385,0,0,0,0,0,1029,25,1029,0,0,0,0,0,0,0,0,0,0,0],"split_type":[0,0,0,0,0,0,0,0,0,0,0,0,0,0,0,0,0,0,0,0,0,0,0,0,0,0,0,0,0,0,0,0,0,0,0,0,0,0,0,0,0],"sum_hessian":[3.002623E2,5.793E1,2.423323E2,2.6732342E0,5.5256763E1,1.802036E2,6.2128708E1,1.6265715E0,1.0466626E0,1.5760925E0,5.368067E1,1.7828426E1,1.6237518E2,7.878533E0,5.4250175E1,5.0036472E1,3.6442006E0,1.1869687E2,4.367831E1,5.2877876E1,1.3722969E0,4.8559444E1,1.4770283E0,2.0361247E0,1.608076E0,5.6558948E0,1.1304097E2,1.1548428E1,3.2129883E1,3.5065405E0,4.9371338E1,4.748084E1,1.0786059E0,2.3691765E1,8.934921E1,1.5121158E0,1.0036312E1,3.0053713E1,2.0761697E0,1.9873371E0,1.5192034E0],"tree_param":{"num_deleted":"0","num_feature":"3089","num_nodes":"41","size_leaf_vector":"0"}},{"base_weights":[1.1074022E-2,7.451213E-1,-1.5853265E-1,-3.187952E-1,8.051839E-1,5.900874E-1,-2.7671582E-1,2.4934846E-1,-6.497176E-1,-2.9108265E-1,8.4950334E-1,-3.7694323E-1,7.4568987E-1,-3.2609254E-1,1.9268478E0,-2.3373399E-2,8.9741087E-1,6.415723E-1,-8.4448695E-1,1.1230961E0,5.136025E-1,1.1661664E0,-4.0202987E-1,5.48313E-1,-5.199113E-1,9.6217805E-1,1.0183272E-1,3.0252984E-1,1.1938297E0,-8.1473756E-1,7.450614E-1,9.836584E-1,-4.9286446E-1,9.809529E-1,1.134698E-1,-3.9569762E-1,7.14205E-1,-1.2106324E0,-6.945499E-2,9.469245E-1,-3.904272E-1,1.2489753E-1,1.194033E0,1.7904587E0,-5.5282485E-1],"categories":[],"categories_nodes":[],"categories_segments":[],"categories_sizes":[],"default_left":[0,0,0,0,0,0,1,0,0,0,0,0,0,0,0,0,0,0,0,0,0,0,0,0,0,1,0,0,0,0,0,0,0,0,0,0,0,0,0,0,0,0,0,0,0],"id":16,"left_children":[1,3,5,7,9,11,13,-1,-1,-1,15,17,19,21,-1,23,25,-1,-1,27,29,-1,31,-1,-1,33,35,-1,-1,37,39,41,43,-1,-1,-1,-1,-1,-1,-1,-1,-1,-1,-1,-1],"loss_changes":[3.4845303E1,3.6133556E0,2.0282875E1,8.2443976E-1,2.6768265E0,4.9945726E0,2.2071733E1,0E0,0E0,0E0,2.0414886E0,2.9256492E0,1.8160486E0,2.2409197E1,0E0,1.2753412E0,2.263462E0,0E0,0E0,1.9370365E-1,6.3745127E0,0E0,2.376863E1,0E0,0E0,5.62088E-1,1.6744757E0,0E0,0E0,8.781667E-1,4.1511383E0,1.9671307E0,2.4849121E1,0E0,0E0,0E0,0E0,0E0,0E0,0E0,0E0,0E0,0E0,0E0,0E0],"parents":[2147483647,0,0,1,1,2,2,3,3,4,4,5,5,6,6,10,10,11,11,12,12,13,13,15,15,16,16,19,19,20,20,22,22,25,25,26,26,29,29,30,30,31,31,32,32],"right_children":[2,4,6,8,10,12,14,-1,-1,-1,16,18,20,22,-1,24,26,-1,-1,28,30,-1,32,-1,-1,34,36,-1,-1,38,40,42,44,-1,-1,-1,-1,-1,-1,-1,-1,-1,-1,-1,-1],"split_conditions":[3.5E0,1.8E1,1.8E1,5.5E0,1.5E0,4.000001E0,-9.536743E-7,3.9895754E-2,-1.0395482E-1,-4.657322E-2,1.5E0,1.5E0,1.6E1,1.5E0,3.0829564E-1,2.000001E0,3.52E2,1.02651566E-1,-1.351179E-1,6.000001E0,2.000001E0,1.8658662E-1,1.5E0,8.773008E-2,-8.318581E-2,2.5E0,7.5E0,4.840477E-2,1.9101274E-1,1.85E1,5.6E1,4.5E0,2.000001E0,1.5695247E-1,1.8155169E-2,-6.331162E-2,1.142728E-1,-1.937012E-1,-1.1112798E-2,1.5150791E-1,-6.246835E-2,1.9983605E-2,1.9104528E-1,2.864734E-1,-8.8451974E-2],"split_indices":[1666,2890,2162,1481,1078,2418,890,0,0,0,1426,1692,2879,2144,0,2162,1029,0,0,995,102,0,2614,0,0,2392,0,0,0,15,15,1029,518,0,0,0,0,0,0,0,0,0,0,0,0],"split_type":[0,0,0,0,0,0,0,0,0,0,0,0,0,0,0,0,0,0,0,0,0,0,0,0,0,0,0,0,0,0,0,0,0,0,0,0,0,0,0,0,0,0,0,0,0],"sum_hessian":[2.7793472E2,5.152865E1,2.2640607E2,2.5233684E0,4.900528E1,3.0324621E1,1.9608144E2,1.019517E0,1.5038514E0,1.6878369E0,4.7317444E1,4.005979E0,2.6318642E1,1.9261736E2,3.464092E0,2.4885273E0,4.4828915E1,1.1432531E0,2.862726E0,8.559918E0,1.7758724E1,8.631965E0,1.8398538E2,1.1082625E0,1.3802648E0,4.1260532E1,3.5683823E0,1.0981011E0,7.4618173E0,2.261276E0,1.5497447E1,1.0713966E1,1.7327142E2,4.0215088E1,1.0454441E0,2.1640215E0,1.4043608E0,1.0690184E0,1.1922575E0,1.3299224E1,2.1982238E0,2.4217877E0,8.292179E0,3.695208E0,1.695762E2],"tree_param":{"num_deleted":"0","num_feature":"3089","num_nodes":"45","size_leaf_vector":"0"}},{"base_weights":[1.5681097E-2,-2.855697E-1,3.8937423E-1,1.0356379E0,-4.143952E-1,9.767537E-1,1.9600327E-1,4.0090552E-1,-6.9233245E-1,-1.138957E-1,1.025019E0,1.2636005E0,4.475647E-2,-1.0097771E0,5.835846E-1,4.9652112E-1,-8.462832E-1,5.592864E-3,1.0642282E0,1.3282771E0,4.1254306E-1,1.2129753E0,-1.0018682E-1,-8.9355534E-1,7.3644733E-1,-2.5975455E-2,6.988935E-1,8.876349E-1,-9.2094696E-1,1.6381655E0,8.2902473E-1,-2.8632596E-1,1.0018036E0,2.4329127E-1,1.232921E0,6.719513E-1,-6.738358E-1,1.7468742E-1,9.1279274E-1,-9.905726E-1,1.0942006E0,1.1259037E0,-4.1176185E-1,1.1071672E0,4.4653643E-2],"categories":[],"categories_nodes":[],"categories_segments":[],"categories_sizes":[],"default_left":[1,0,0,0,0,0,0,0,0,0,0,1,0,0,0,0,0,0,0,0,0,0,1,0,0,0,0,0,1,0,0,0,1,0,0,0,0,0,0,0,0,0,0,0,0],"id":17,"left_children":[1,3,5,-1,7,9,11,13,15,-1,17,19,21,-1,23,25,27,-1,-1,-1,-1,29,31,-1,33,35,37,-1,39,-1,-1,41,43,-1,-1,-1,-1,-1,-1,-1,-1,-1,-1,-1,-1],"loss_changes":[2.9731441E1,2.5322449E1,1.3195383E1,0E0,3.0636614E1,1.6401558E0,1.44629755E1,9.530052E0,1.8774101E1,0E0,1.1057663E0,6.419945E-2,1.3633526E1,0E0,7.736924E0,1.3004813E0,1.2359352E1,0E0,0E0,0E0,0E0,9.229946E-2,1.5038244E1,0E0,6.7901773E0,2.4196424E0,8.247304E-1,0E0,1.3145126E1,0E0,0E0,1.1499783E1,1.0209904E0,0E0,0E0,0E0,0E0,0E0,0E0,0E0,0E0,0E0,0E0,0E0,0E0],"parents":[2147483647,0,0,1,1,2,2,4,4,5,5,6,6,7,7,8,8,10,10,11,11,12,12,14,14,15,15,16,16,21,21,22,22,24,24,25,25,26,26,28,28,31,31,32,32],"right_children":[2,4,6,-1,8,10,12,14,16,-1,18,20,22,-1,24,26,28,-1,-1,-1,-1,30,32,-1,34,36,38,-1,40,-1,-1,42,44,-1,-1,-1,-1,-1,-1,-1,-1,-1,-1,-1,-1],"split_conditions":[3.5E0,4.000001E0,1.0000001E1,1.6570206E-1,1.5E0,1.5E0,6.000001E0,2.000001E0,2.5E0,-1.8223312E-2,4.000001E0,5.5E0,2.5E0,-1.6156432E-1,4.000001E0,1.5E0,2.000001E0,8.948582E-4,1.7027651E-1,2.1252434E-1,6.600689E-2,2.000001E0,3.05E1,-1.4296885E-1,6.000001E0,2.000001E0,2.000001E0,1.4202158E-1,-9.536743E-7,2.6210648E-1,1.3264395E-1,1.6E1,1.15E1,3.89266E-2,1.9726735E-1,1.07512206E-1,-1.0781373E-1,2.7949985E-2,1.4604683E-1,-1.5849161E-1,1.7507209E-1,1.801446E-1,-6.588189E-2,1.7714675E-1,7.144583E-3],"split_indices":[1029,2087,2614,0,15,1530,2485,102,2162,0,1407,1027,2333,0,1481,1029,819,0,0,0,0,1538,15,0,1029,1042,102,0,999,0,0,191,1027,0,0,0,0,0,0,0,0,0,0,0,0],"split_type":[0,0,0,0,0,0,0,0,0,0,0,0,0,0,0,0,0,0,0,0,0,0,0,0,0,0,0,0,0,0,0,0,0,0,0,0,0,0,0,0,0,0,0,0,0],"sum_hessian":[2.6211487E2,1.452545E2,1.1686036E2,1.2279496E1,1.32975E2,2.7939806E1,8.892055E1,3.369416E1,9.928085E1,1.1264179E0,2.6813387E1,1.0121553E1,7.8798996E1,3.3439488E0,3.0350212E1,1.1127305E1,8.815354E1,1.035418E0,2.577797E1,8.885553E0,1.2359993E0,7.884292E0,7.09147E1,2.3918517E0,2.795836E1,3.3499238E0,7.7773814E0,3.18974E0,8.4963806E1,2.1911678E0,5.693125E0,6.1300503E1,9.6142025E0,1.477356E1,1.3184801E1,1.5947485E0,1.7551754E0,2.7803116E0,4.99707E0,8.261771E1,2.3460972E0,4.34998E0,5.6950523E1,8.519625E0,1.0945785E0],"tree_param":{"num_deleted":"0","num_feature":"3089","num_nodes":"45","size_leaf_vector":"0"}},{"base_weights":[2.0322168E-2,7.430695E-1,-1.2098075E-1,8.0605125E-1,4.3690145E-2,1.0275702E0,-1.8904498E-1,8.4937245E-1,-2.7163094E-1,-1.1498809E0,7.4760795E-1,-2.3055915E-2,-7.884323E-1,8.002819E-2,9.114885E-1,-3.572911E-1,2.5258297E-1,-8.7895775E-1,1.2289956E0,6.35438E-1,-5.887112E-1,8.271919E-2,9.4565594E-1,8.3923155E-1,-5.265786E-1,-4.0027136E-1,5.662476E-1,-9.510039E-1,7.1127623E-1,4.2264533E-1,9.80364E-1,3.9624296E-2,1.016688E0,-9.486795E-1,2.3418818E-1,-5.782668E-1,8.922168E-1,-8.9807844E-1,6.769221E-1,-7.370273E-2,-1.0277112E0],"categories":[],"categories_nodes":[],"categories_segments":[],"categories_sizes":[],"default_left":[0,0,0,1,0,0,0,0,0,0,0,0,1,0,0,0,0,1,0,0,0,0,0,0,0,1,0,0,0,0,0,0,0,0,0,0,0,0,0,0,0],"id":18,"left_children":[1,3,5,7,9,-1,11,13,-1,-1,-1,15,17,19,21,23,25,27,-1,-1,-1,-1,29,31,33,35,37,39,-1,-1,-1,-1,-1,-1,-1,-1,-1,-1,-1,-1,-1],"loss_changes":[2.5173735E1,1.7402267E0,1.6322506E1,1.9543667E0,4.545703E0,0E0,1.9443546E1,1.6347942E0,0E0,0E0,0E0,1.4298149E1,8.822338E0,1.7728472E0,8.5536766E-1,1.4644147E1,1.7653996E1,5.391575E0,0E0,0E0,0E0,0E0,1.5869904E-1,1.2475643E0,2.0144121E1,7.004615E0,9.991285E0,2.602562E0,0E0,0E0,0E0,0E0,0E0,0E0,0E0,0E0,0E0,0E0,0E0,0E0,0E0],"parents":[2147483647,0,0,1,1,2,2,3,3,4,4,6,6,7,7,11,11,12,12,13,13,14,14,15,15,16,16,17,17,22,22,23,23,24,24,25,25,26,26,27,27],"right_children":[2,4,6,8,10,-1,12,14,-1,-1,-1,16,18,20,22,24,26,28,-1,-1,-1,-1,30,32,34,36,38,40,-1,-1,-1,-1,-1,-1,-1,-1,-1,-1,-1,-1,-1],"split_conditions":[1.5E0,4.8E1,4.000001E0,1.5E0,3.5E0,1.6441123E-1,2.56E2,1.5E0,-4.346095E-2,-1.8398094E-1,1.1961727E-1,4.05E1,-9.536743E-7,1.2000001E1,2.8E1,1.5E0,3.5E0,1.5E0,1.9663928E-1,1.0167008E-1,-9.4193794E-2,1.3235071E-2,1.5E0,6.000001E0,1.25E1,-9.536743E-7,8.5E0,4.000001E0,1.1380419E-1,6.762325E-2,1.5685824E-1,6.339887E-3,1.6267008E-1,-1.5178871E-1,3.747011E-2,-9.252269E-2,1.4275469E-1,-1.4369255E-1,1.0830753E-1,-1.1792436E-2,-1.6443378E-1],"split_indices":[1666,1029,2087,2385,15,0,15,1426,0,0,0,1027,2930,2162,1481,1042,1029,2202,0,0,0,0,2879,2431,0,1385,2251,2162,0,0,0,0,0,0,0,0,0,0,0,0,0],"split_type":[0,0,0,0,0,0,0,0,0,0,0,0,0,0,0,0,0,0,0,0,0,0,0,0,0,0,0,0,0,0,0,0,0,0,0,0,0,0,0,0,0],"sum_hessian":[2.4461581E2,3.9306927E1,2.0530888E2,3.59197E1,3.3872275E0,1.0697456E1,1.9461143E2,3.473525E1,1.1844515E0,1.0215431E0,2.3656845E0,1.5321883E2,4.1392612E1,2.765928E0,3.196932E1,6.9114944E1,8.410388E1,4.01551E1,1.2375109E0,1.5381999E0,1.227728E0,1.4012594E0,3.056806E1,8.07605E0,6.103889E1,2.7204647E1,5.689923E1,3.879926E1,1.3558424E0,2.7223613E0,2.78457E1,1.6889663E0,6.387084E0,3.9098583E1,2.194031E1,2.4397352E1,2.807295E0,3.4983416E0,5.340089E1,3.2773254E0,3.5521935E1],"tree_param":{"num_deleted":"0","num_feature":"3089","num_nodes":"41","size_leaf_vector":"0"}},{"base_weights":[1.9664446E-2,7.0628434E-1,-1.0939471E-1,9.18445E-1,4.175257E-1,5.5182433E-1,-2.204853E-1,-2.0759788E-1,9.9101126E-1,-8.566053E-1,5.6433547E-1,1.0521024E0,2.5443944E-1,-6.3707724E-2,-7.5857174E-1,-4.812789E-1,8.062835E-1,3.121611E-1,1.1076721E0,-7.2328556E-1,5.743996E-1,-3.326312E-1,4.528528E-1,-1.0017785E0,5.125326E-1,-9.161846E-1,1.3702983E-1,8.824092E-1,-3.993103E-2,-1.0576279E0,2.0147584E-1,7.57623E-1,-3.6030838E-1,1.3376356E0,-4.2278203E-1,5.823535E-1,-7.612576E-1,4.2460454E-1,-1.0703933E0,-7.7262706E-1,9.5222044E-1,-2.1368636E-1,9.2551607E-1,1.1403333E0,-5.208831E-1,6.765442E-1,-9.226042E-1,1.1100923E0,3.071183E-1],"categories":[],"categories_nodes":[],"categories_segments":[],"categories_sizes":[],"default_left":[0,0,0,0,0,0,1,0,0,0,0,0,0,1,1,1,1,0,0,0,0,0,0,0,1,0,0,0,0,0,0,0,0,0,0,1,0,0,0,0,0,0,0,0,0,0,0,0,0],"id":19,"left_children":[1,3,5,7,9,11,13,-1,-1,-1,15,17,19,21,23,25,27,-1,-1,29,31,33,35,37,39,-1,-1,-1,-1,-1,-1,41,-1,-1,43,45,-1,-1,-1,-1,47,-1,-1,-1,-1,-1,-1,-1,-1],"loss_changes":[2.0320797E1,1.8391132E0,1.4310677E1,1.8465195E0,3.7006357E0,3.9085398E0,1.3963395E1,0E0,0E0,0E0,4.4421663E0,7.143021E-2,6.335638E0,1.8169535E1,1.2070112E1,1.1036978E0,8.976517E-1,0E0,0E0,1.7926238E0,2.8103256E0,1.34968605E1,7.4922266E0,3.558733E0,4.5021687E0,0E0,0E0,0E0,0E0,0E0,0E0,2.2704372E0,0E0,0E0,1.3205098E1,6.447094E0,0E0,0E0,0E0,0E0,2.1048117E-1,0E0,0E0,0E0,0E0,0E0,0E0,0E0,0E0],"parents":[2147483647,0,0,1,1,2,2,3,3,4,4,5,5,6,6,10,10,11,11,12,12,13,13,14,14,15,15,16,16,19,19,20,20,21,21,22,22,23,23,24,24,31,31,34,34,35,35,40,40],"right_children":[2,4,6,8,10,12,14,-1,-1,-1,16,18,20,22,24,26,28,-1,-1,30,32,34,36,38,40,-1,-1,-1,-1,-1,-1,42,-1,-1,44,46,-1,-1,-1,-1,48,-1,-1,-1,-1,-1,-1,-1,-1],"split_conditions":[1.5E0,1.6E1,4E1,8.000001E0,2.5E0,4.6E1,1.5E0,-3.321566E-2,1.585618E-1,-1.3705684E-1,3.5E0,7E0,2.000001E0,3.5E0,3.5E0,1.5E0,1.35E1,4.994577E-2,1.7722753E-1,2.75E1,5.6E1,2.000001E0,1.2E2,1.5E0,1.35E1,-1.4658953E-1,2.1924771E-2,1.4118548E-1,-6.3889646E-3,-1.6922046E-1,3.2236133E-2,4.000001E0,-5.764934E-2,2.140217E-1,4.000001E0,2.5E0,-1.2180121E-1,6.7936726E-2,-1.7126293E-1,-1.23620324E-1,8.5E0,-3.4189817E-2,1.4808257E-1,1.8245332E-1,-8.334129E-2,1.0824707E-1,-1.4761667E-1,1.7761476E-1,4.9138926E-2],"split_indices":[1666,3062,2162,2517,995,2879,1027,0,0,0,15,3062,102,0,3047,1029,15,0,0,15,15,518,1029,1042,15,0,0,0,0,0,0,2866,0,0,3014,2816,0,0,0,0,1027,0,0,0,0,0,0,0,0],"split_type":[0,0,0,0,0,0,0,0,0,0,0,0,0,0,0,0,0,0,0,0,0,0,0,0,0,0,0,0,0,0,0,0,0,0,0,0,0,0,0,0,0,0,0,0,0,0,0,0,0],"sum_hessian":[2.2744473E2,3.5279316E1,1.921654E2,1.9079962E1,1.6199354E1,2.7070795E1,1.6509462E2,1.0424834E0,1.803748E1,1.1741714E0,1.5025182E1,9.1463785E0,1.7924417E1,1.2871147E2,3.638315E1,2.637528E0,1.2387654E1,1.1011686E0,8.04521E0,4.1086807E0,1.3815736E1,8.487912E1,4.3832348E1,3.0717667E1,5.665481E0,1.2655833E0,1.3719447E0,1.1325992E1,1.0616626E0,2.912137E0,1.1965437E0,1.170981E1,2.1059263E0,3.6380231E0,8.12411E1,4.0077866E1,3.7544816E0,1.1717054E0,2.9545961E1,1.2511853E0,4.4142957E0,1.6855676E0,1.0024242E1,4.1702003E0,7.70709E1,3.823529E1,1.842573E0,2.9673212E0,1.4469748E0],"tree_param":{"num_deleted":"0","num_feature":"3089","num_nodes":"49","size_leaf_vector":"0"}},{"base_weights":[1.9286763E-2,8.4146875E-1,-7.264792E-2,-2.3099013E-1,9.0758145E-1,1.0086495E0,-1.5224142E-1,9.539861E-1,7.491783E-3,1.07755E0,-2.1575405E-1,1.2095866E-1,1.2345587E0,8.027824E-1,-3.0213392E-1,9.388323E-1,-2.0074269E-1,4.577855E-1,-4.3118107E-1,9.8983276E-1,8.7302424E-2,1.0809008E0,-5.132398E-1],"categories":[],"categories_nodes":[],"categories_segments":[],"categories_sizes":[],"default_left":[0,0,0,0,1,0,0,0,0,1,0,0,0,0,0,0,0,0,0,0,0,0,0],"id":20,"left_children":[1,3,5,-1,7,-1,9,-1,-1,11,13,-1,-1,15,17,-1,-1,19,21,-1,-1,-1,-1],"loss_changes":[1.6223228E1,1.7400093E0,1.6784363E1,0E0,8.505039E-1,0E0,1.4358748E1,0E0,0E0,1.209692E0,1.5446432E1,0E0,0E0,2.070281E0,1.5890352E1,0E0,0E0,4.5881915E0,1.7592138E1,0E0,0E0,0E0,0E0],"parents":[2147483647,0,0,1,1,2,2,4,4,6,6,9,9,10,10,13,13,14,14,17,17,18,18],"right_children":[2,4,6,-1,8,-1,10,-1,-1,12,14,-1,-1,16,18,-1,-1,20,22,-1,-1,-1,-1],"split_conditions":[1.0000001E1,3.5E0,4.000001E0,-3.695842E-2,2.5E0,1.6138391E-1,1.5E0,1.5263778E-1,1.1986853E-3,3.5E0,2.5E0,1.9353386E-2,1.9752939E-1,2.1E1,1.8E1,1.5021317E-1,-3.211883E-2,1.8E1,2.5E0,1.5837324E-1,1.3968388E-2,1.7294413E-1,-8.211837E-2],"split_indices":[2614,15,2087,0,1042,0,2485,0,0,1029,1892,0,0,1029,2162,0,0,2879,2333,0,0,0,0],"split_type":[0,0,0,0,0,0,0,0,0,0,0,0,0,0,0,0,0,0,0,0,0,0,0],"sum_hessian":[2.1282101E2,2.0583914E1,1.922371E2,1.0504216E0,1.9533491E1,1.2379948E1,1.7985715E2,1.851886E1,1.0146309E0,8.048504E0,1.7180865E2,1.3843851E0,6.664119E0,1.2783235E1,1.5902542E2,1.1313859E1,1.469376E0,2.2715185E1,1.3631023E2,8.638206E0,1.407698E1,6.3900247E0,1.2992021E2],"tree_param":{"num_deleted":"0","num_feature":"3089","num_nodes":"23","size_leaf_vector":"0"}},{"base_weights":[2.3324635E-2,6.4664596E-1,-8.6904846E-2,8.9167833E-1,3.2587668E-1,-1.3090979E-1,1.5655574E0,-1.5789065E-1,9.736781E-1,-8.03724E-1,4.857141E-1,1.0983584E0,-1.9275613E-1,-4.1707793E-1,7.4202573E-1,3.7190643E-1,1.177702E0,9.703968E-1,-2.612164E-1,-7.844625E-1,1.2516272E-1,8.263959E-1,-2.1963792E-2,9.770943E-1,-3.318227E-1,1.003284E0,-4.0359467E-1],"categories":[],"categories_nodes":[],"categories_segments":[],"categories_sizes":[],"default_left":[0,0,1,0,0,0,0,0,0,0,0,0,0,1,1,0,0,0,0,0,0,0,0,0,0,0,0],"id":21,"left_children":[1,3,5,7,9,11,-1,-1,-1,-1,13,15,17,19,21,-1,-1,-1,23,-1,-1,-1,-1,-1,25,-1,-1],"loss_changes":[1.3956568E1,2.1081982E0,1.2769664E1,1.5932713E0,3.0612826E0,1.3077646E1,0E0,0E0,0E0,0E0,3.4524293E0,3.785801E-2,1.3151558E1,8.2404375E-1,7.23248E-1,0E0,0E0,0E0,1.3767834E1,0E0,0E0,0E0,0E0,0E0,1.4415447E1,0E0,0E0],"parents":[2147483647,0,0,1,1,2,2,3,3,4,4,5,5,10,10,11,11,12,12,13,13,14,14,18,18,24,24],"right_children":[2,4,6,8,10,12,-1,-1,-1,-1,14,16,18,20,22,-1,-1,-1,24,-1,-1,-1,-1,-1,26,-1,-1],"split_conditions":[1.5E0,1.6E1,-9.536743E-7,8.000001E0,2.5E0,1.0000001E1,2.5048918E-1,-2.5262503E-2,1.557885E-1,-1.2859583E-1,3.5E0,8.000001E0,4.000001E0,1.5E0,1.05E1,5.9505027E-2,1.884323E-1,1.5526348E-1,4.000001E0,-1.25514E-1,2.0026036E-2,1.3222335E-1,-3.5142067E-3,1.5633509E-1,1.5E0,1.6052543E-1,-6.457514E-2],"split_indices":[1666,3062,890,2517,995,1581,0,0,0,0,15,2431,2087,1029,1029,0,0,0,819,0,0,0,0,0,2485,0,0],"split_type":[0,0,0,0,0,0,0,0,0,0,0,0,0,0,0,0,0,0,0,0,0,0,0,0,0,0,0],"sum_hessian":[2.0130966E2,2.9519215E1,1.7179045E2,1.5726269E1,1.3792945E1,1.6823125E2,3.559206E0,1.0725464E0,1.4653723E1,1.2104048E0,1.25825405E1,7.2557273E0,1.6097552E2,2.643668E0,9.938872E0,1.2744488E0,5.9812784E0,8.215641E0,1.5275987E2,1.3096409E0,1.3340272E0,8.876881E0,1.0619915E0,7.547705E0,1.4521217E2,6.745892E0,1.3846628E2],"tree_param":{"num_deleted":"0","num_feature":"3089","num_nodes":"27","size_leaf_vector":"0"}},{"base_weights":[2.7172558E-2,7.95088E-1,-5.4290008E-2,-6.898765E-2,9.019875E-1,5.555691E-1,-1.6907549E-1,9.532266E-1,1.5948027E-1,9.7690976E-1,2.7231905E-1,3.957544E-1,-3.3074427E-1,1.0298308E0,2.6843247E-1,-8.723391E-1,5.0013864E-1,-2.6155604E-2,8.300777E-1,7.576532E-1,-4.3578225E-1,6.223674E-1,-6.0162735E-1,-4.8888266E-1,8.73857E-1,-6.9602156E-1,1.0582381E0,9.3186176E-1,-1.5136047E-1,1.0456513E0,-5.287682E-1,-4.3858713E-1,7.433538E-1,8.460625E-1,-7.7602166E-1,1.4021065E0,7.821376E-1,1.0284888E0,1.7016795E-1,1.1349031E0,2.8810206E-1,1.0846602E0,-6.222271E-1],"categories":[],"categories_nodes":[],"categories_segments":[],"categories_sizes":[],"default_left":[0,0,0,0,1,0,0,0,0,1,0,0,0,0,0,0,0,0,0,1,0,0,0,0,0,0,0,1,0,0,0,0,0,0,0,0,0,0,0,0,0,0,0],"id":22,"left_children":[1,3,5,-1,7,9,11,-1,-1,13,15,17,19,-1,-1,-1,21,23,25,27,29,31,-1,33,-1,-1,35,37,-1,39,41,-1,-1,-1,-1,-1,-1,-1,-1,-1,-1,-1,-1],"loss_changes":[1.2140707E1,1.7813387E0,1.2398705E1,0E0,4.8080158E-1,3.084754E0,1.3709349E1,0E0,0E0,1.322546E-1,5.176163E0,6.168738E0,1.3609152E1,0E0,0E0,0E0,2.5014503E0,7.9173684E0,6.502693E0,1.8177648E0,1.5232506E1,2.2140694E0,0E0,5.455478E0,0E0,0E0,3.087921E-1,4.8922873E-1,0E0,1.2127781E-1,1.5894867E1,0E0,0E0,0E0,0E0,0E0,0E0,0E0,0E0,0E0,0E0,0E0,0E0],"parents":[2147483647,0,0,1,1,2,2,4,4,5,5,6,6,9,9,10,10,11,11,12,12,16,16,17,17,18,18,19,19,20,20,21,21,23,23,26,26,27,27,29,29,30,30],"right_children":[2,4,6,-1,8,10,12,-1,-1,14,16,18,20,-1,-1,-1,22,24,26,28,30,32,-1,34,-1,-1,36,38,-1,40,42,-1,-1,-1,-1,-1,-1,-1,-1,-1,-1,-1,-1],"split_conditions":[1.0000001E1,3.5E0,1.8E1,-1.1038024E-2,3.5E0,1.8E1,1.5E0,1.5251626E-1,2.5516843E-2,1.5E0,8.000001E0,1.25E1,6.000001E0,1.6477293E-1,4.2949192E-2,-1.3957426E-1,8.4E1,3.5E0,5.8E1,-9.536743E-7,2.5E0,2.000001E0,-9.6260376E-2,1.5E0,1.3981712E-1,-1.1136345E-1,2.000001E0,-9.536743E-7,-2.4217675E-2,1.15E1,8.000001E0,-7.017394E-2,1.18936606E-1,1.3537E-1,-1.2416346E-1,2.2433704E-1,1.2514201E-1,1.645582E-1,2.7226873E-2,1.8158449E-1,4.609633E-2,1.7354563E-1,-9.955633E-2],"split_indices":[2614,1614,2162,0,2431,2879,15,0,0,1587,2816,1029,2010,0,0,0,0,0,1027,146,2333,777,0,2144,0,0,777,2718,0,15,236,0,0,0,0,0,0,0,0,0,0,0,0],"split_type":[0,0,0,0,0,0,0,0,0,0,0,0,0,0,0,0,0,0,0,0,0,0,0,0,0,0,0,0,0,0,0,0,0,0,0,0,0,0,0,0,0,0,0],"sum_hessian":[1.9238629E2,1.7611305E1,1.7477498E2,1.9779614E0,1.5633343E1,2.7076511E1,1.4769847E2,1.4358681E1,1.2746621E0,9.90045E0,1.7176062E1,3.2545338E1,1.1515313E2,8.79026E0,1.1101896E0,2.3814769E0,1.4794584E1,1.6985285E1,1.5560054E1,9.588148E0,1.0556498E2,1.3708857E1,1.0857273E0,1.1519516E1,5.46577E0,1.7570536E0,1.3803E1,8.025047E0,1.5631014E0,5.6296277E0,9.9935356E1,1.1345614E0,1.2574296E1,1.694597E0,9.824919E0,4.330879E0,9.472121E0,6.8107796E0,1.2142675E0,4.5906496E0,1.0389781E0,4.891153E0,9.5044205E1],"tree_param":{"num_deleted":"0","num_feature":"3089","num_nodes":"43","size_leaf_vector":"0"}},{"base_weights":[3.082216E-2,-1.8910864E-1,3.0152583E-1,3.8548356E-1,-4.2428288E-1,-6.806309E-1,3.9631128E-1,-8.506142E-1,5.219121E-1,9.155397E-1,-5.6382066E-1,5.425505E-1,-9.713116E-1,4.666523E-1,-6.613351E-1,-7.5970995E-1,6.380459E-1,3.4785035E-1,-7.025448E-1,-8.172969E-1,5.1816404E-1,7.262808E-2,-8.801041E-1,-6.2323797E-1,7.4099463E-1,-9.632294E-2,5.36055E-1,-7.8524137E-1,1.0074887E0,-7.980839E-1,5.730377E-1,-5.05405E-1,8.456731E-1,7.421688E-1,-7.6937467E-1,-9.025954E-2,6.8689215E-1,-8.506786E-1,1.1504318E0,-1.9882411E-1,6.6010356E-1],"categories":[],"categories_nodes":[],"categories_segments":[],"categories_sizes":[],"default_left":[1,0,0,0,0,0,1,0,0,0,0,0,0,0,0,0,0,1,1,0,0,0,0,0,0,0,0,1,0,0,0,0,0,0,0,0,0,0,0,0,0],"id":23,"left_children":[1,3,5,7,9,11,13,-1,15,-1,17,-1,-1,19,21,-1,23,25,27,-1,29,-1,-1,-1,31,33,35,37,-1,-1,39,-1,-1,-1,-1,-1,-1,-1,-1,-1,-1],"loss_changes":[1.0945295E1,1.3881889E1,7.9374638E0,5.504408E0,1.4072826E1,3.2353387E0,5.9439535E0,0E0,4.599347E0,0E0,8.6283455E0,0E0,0E0,5.1597157E0,8.888128E-1,0E0,3.823739E0,8.3942926E-1,8.974436E0,0E0,5.4742756E0,0E0,0E0,0E0,3.6101608E0,2.632212E0,7.0171463E-1,8.04155E0,0E0,0E0,4.6514835E0,0E0,0E0,0E0,0E0,0E0,0E0,0E0,0E0,0E0,0E0],"parents":[2147483647,0,0,1,1,2,2,3,3,4,4,5,5,6,6,8,8,10,10,13,13,14,14,16,16,17,17,18,18,20,20,24,24,25,25,26,26,27,27,30,30],"right_children":[2,4,6,8,10,12,14,-1,16,-1,18,-1,-1,20,22,-1,24,26,28,-1,30,-1,-1,-1,32,34,36,38,-1,-1,40,-1,-1,-1,-1,-1,-1,-1,-1,-1,-1],"split_conditions":[3.5E0,1.5E0,3E1,2.000001E0,4.000001E0,4.000001E0,1.5E0,-1.3609827E-1,4.000001E0,1.4648634E-1,2.5E0,8.680808E-2,-1.5540986E-1,5.6E1,1.0000001E1,-1.2155359E-1,2.000001E0,1.5E0,-9.536743E-7,-1.3076751E-1,2.5E0,1.1620493E-2,-1.4081666E-1,-9.971807E-2,6.000001E0,4.000001E0,2.000001E0,-9.536743E-7,1.611982E-1,-1.2769341E-1,2.5E0,-8.08648E-2,1.3530768E-1,1.18747E-1,-1.23099945E-1,-1.4441526E-2,1.0990274E-1,-1.3610858E-1,1.8406908E-1,-3.1811856E-2,1.0561657E-1],"split_indices":[1029,15,2392,102,2087,2614,1481,0,1481,0,2162,0,0,1845,2150,0,2352,0,999,0,2741,0,0,0,2816,1692,1692,2930,0,0,0,0,0,0,0,0,0,0,0,0,0],"split_type":[0,0,0,0,0,0,0,0,0,0,0,0,0,0,0,0,0,0,0,0,0,0,0,0,0,0,0,0,0,0,0,0,0,0,0,0,0,0,0,0,0],"sum_hessian":[1.8188531E2,1.0052008E2,8.1365234E1,2.9007652E1,7.151243E1,6.617249E0,7.4747986E1,2.3630054E0,2.6644648E1,6.220719E0,6.529171E1,1.10422E0,5.5130286E0,7.061066E1,4.137328E0,1.7533584E0,2.4891289E1,8.423889E0,5.6867825E1,2.1501894E0,6.8460464E1,1.1034161E0,3.0339122E0,1.4969867E0,2.3394302E1,2.652365E0,5.771524E0,5.4760433E1,2.1073897E0,2.1978106E0,6.626266E1,1.5159398E0,2.1878363E1,1.1353043E0,1.5170606E0,1.1981415E0,4.5733824E0,5.3511936E1,1.2484953E0,6.586652E0,5.9676003E1],"tree_param":{"num_deleted":"0","num_feature":"3089","num_nodes":"41","size_leaf_vector":"0"}},{"base_weights":[2.5180459E-2,5.888414E-1,-7.165696E-2,8.6628544E-1,2.2977196E-1,7.421481E-1,-1.4635995E-1,5.181761E-2,9.6082455E-1,-7.4856806E-1,4.037726E-1,9.314462E-2,8.840676E-1,9.684454E-1,-2.1166946E-1,-5.335914E-1,6.287153E-1,5.899195E-1,-4.1448975E-1,9.3585324E-1,2.8371617E-1,1.0463375E0,-2.7369502E-1,-1.7271349E-1,8.103719E-1,9.252374E-1,-3.4439605E-1,9.494208E-3,1.1047031E0,1.02696E0,-4.1059375E-1],"categories":[],"categories_nodes":[],"categories_segments":[],"categories_sizes":[],"default_left":[0,0,0,0,0,0,0,0,0,0,0,0,0,0,0,0,0,0,0,0,0,0,0,0,0,1,0,0,0,0,0],"id":24,"left_children":[1,3,5,7,9,11,13,-1,-1,-1,15,17,19,-1,21,-1,23,-1,-1,-1,-1,-1,25,-1,-1,27,29,-1,-1,-1,-1],"loss_changes":[9.442468E0,2.3271465E0,9.097599E0,1.0238781E0,2.415508E0,1.077858E0,1.0126023E1,0E0,0E0,0E0,2.6947386E0,1.0963799E0,5.216837E-2,0E0,1.0394482E1,0E0,1.5205069E0,0E0,0E0,0E0,0E0,0E0,1.0850735E1,0E0,0E0,1.171185E0,1.1139141E1,0E0,0E0,0E0,0E0],"parents":[2147483647,0,0,1,1,2,2,3,3,4,4,5,5,6,6,10,10,11,11,12,12,14,14,16,16,22,22,25,25,26,26],"right_children":[2,4,6,8,10,12,14,-1,-1,-1,16,18,20,-1,22,-1,24,-1,-1,-1,-1,-1,26,-1,-1,28,30,-1,-1,-1,-1],"split_conditions":[1.5E0,1.6E1,3.2E1,1.5E0,2.5E0,4E0,1.1E1,8.290818E-3,1.5373193E-1,-1.19770885E-1,2.000001E0,1.5E0,6.5E0,1.5495126E-1,8.000001E0,-8.537462E-2,6.000001E0,9.438712E-2,-6.6318356E-2,1.4973651E-1,4.539459E-2,1.67414E-1,1.5E0,-2.7634157E-2,1.296595E-1,3.5E0,8.000001E0,1.5190733E-3,1.767525E-1,1.643136E-1,-6.5694995E-2],"split_indices":[1666,3062,2192,1426,995,1692,2235,0,0,0,777,2550,1029,0,2000,0,2019,0,0,0,0,0,2485,0,0,1029,236,0,0,0,0],"split_type":[0,0,0,0,0,0,0,0,0,0,0,0,0,0,0,0,0,0,0,0,0,0,0,0,0,0,0,0,0,0,0],"sum_hessian":[1.712183E2,2.4357872E1,1.4686044E2,1.2943876E1,1.1413997E1,1.1596371E1,1.3526407E2,1.5072045E0,1.1436671E1,1.2248766E0,1.018912E1,2.3780005E0,9.21837E0,6.720443E0,1.2854362E2,1.7063652E0,8.482755E0,1.1199316E0,1.258069E0,7.971882E0,1.2464887E0,5.294323E0,1.23249306E2,1.5765582E0,6.906197E0,6.1902246E0,1.17059074E2,1.1868896E0,5.003335E0,4.722106E0,1.12336975E2],"tree_param":{"num_deleted":"0","num_feature":"3089","num_nodes":"31","size_leaf_vector":"0"}},{"base_weights":[2.9437134E-2,5.460411E-1,-6.693764E-2,9.4743216E-1,2.4182266E-1,1.1498948E0,-1.2009705E-1,2.879276E-1,9.9420774E-1,-8.090314E-1,4.5001516E-1,-3.5098702E-1,1.6580032E-1,6.0755223E-1,-1.7060757E-1,6.541458E-1,-4.6301353E-1,4.0184402E-1,-3.1534895E-1,-3.0542737E-1,7.6221156E-1,3.7962428E-1,-6.7003703E-1,-2.4909131E-1,8.4549856E-1,1.1784106E-1,-7.128191E-1,2.1751624E-1,9.030497E-1,3.4318E-1,-8.4635323E-1,-3.2959542E-1,9.3129367E-1,1.0140767E0,-1.9109967E-1,-7.9651827E-1,8.841427E-1,1.1539929E0,6.48852E-2,1.0004995E0,3.376944E-1,-5.23151E-1,5.786715E-1,-8.114483E-2,-9.821504E-1],"categories":[],"categories_nodes":[],"categories_segments":[],"categories_sizes":[],"default_left":[0,0,0,0,0,0,1,0,0,0,0,0,1,0,0,0,0,0,0,0,0,0,0,0,0,0,1,0,1,0,0,0,0,0,0,0,0,0,0,0,0,0,0,0,0],"id":25,"left_children":[1,3,5,7,9,-1,11,-1,-1,-1,13,15,17,19,21,23,25,27,29,-1,31,-1,-1,-1,-1,33,35,37,39,41,43,-1,-1,-1,-1,-1,-1,-1,-1,-1,-1,-1,-1,-1,-1],"loss_changes":[8.225386E0,2.941934E0,9.162249E0,4.8555374E-2,3.88975E0,0E0,8.941454E0,0E0,0E0,0E0,1.4815385E0,8.722009E0,7.032313E0,1.8508377E0,1.2529523E0,1.5781207E0,9.930108E0,3.6127882E0,7.4841204E0,0E0,2.1687331E0,0E0,0E0,0E0,0E0,6.08169E0,7.0656185E0,4.422207E0,2.554474E-1,2.321407E0,1.1337223E0,0E0,0E0,0E0,0E0,0E0,0E0,0E0,0E0,0E0,0E0,0E0,0E0,0E0,0E0],"parents":[2147483647,0,0,1,1,2,2,3,3,4,4,6,6,10,10,11,11,12,12,13,13,14,14,15,15,16,16,17,17,18,18,20,20,25,25,26,26,27,27,28,28,29,29,30,30],"right_children":[2,4,6,8,10,-1,12,-1,-1,-1,14,16,18,20,22,24,26,28,30,-1,32,-1,-1,-1,-1,34,36,38,40,42,44,-1,-1,-1,-1,-1,-1,-1,-1,-1,-1,-1,-1,-1,-1],"split_conditions":[4E1,4.6E1,4.000001E0,6.000001E0,8.000001E0,1.8398316E-1,3.5E0,4.6068415E-2,1.5907323E-1,-1.2944503E-1,6.4E1,6.000001E0,1.5E0,1.5E0,3.5E0,4.000001E0,1.5E0,1.55E1,9E1,-4.8868377E-2,4.000001E0,6.0739882E-2,-1.0720592E-1,-3.985461E-2,1.3527976E-1,2.000001E0,-9.536743E-7,2.000001E0,1.5E0,2E1,1.5E0,-5.2735265E-2,1.4900698E-1,1.6225228E-1,-3.0575948E-2,-1.2744293E-1,1.4146283E-1,1.8463886E-1,1.0381632E-2,1.6007991E-1,5.4031104E-2,-8.370416E-2,9.258744E-2,-1.2983173E-2,-1.5714405E-1],"split_indices":[2162,2879,518,1587,2816,0,1029,0,0,0,15,2010,1027,2431,0,15,15,0,3047,0,2866,0,0,0,0,777,999,1538,2879,1426,1666,0,0,0,0,0,0,0,0,0,0,0,0,0,0],"split_type":[0,0,0,0,0,0,0,0,0,0,0,0,0,0,0,0,0,0,0,0,0,0,0,0,0,0,0,0,0,0,0,0,0,0,0,0,0,0,0,0,0,0,0,0,0],"sum_hessian":[1.6347543E2,2.4968634E1,1.385068E2,9.853475E0,1.511516E1,4.9340506E0,1.3357275E2,1.126472E0,8.727002E0,2.0221841E0,1.3092976E1,7.376924E1,5.9803513E1,1.0459123E1,2.6338527E0,6.912167E0,6.685707E1,4.0231464E1,1.957205E1,1.3739039E0,9.085219E0,1.3673257E0,1.266527E0,1.1556144E0,5.7565527E0,2.0264885E1,4.6592186E1,3.046235E1,9.769113E0,8.894805E0,1.0677245E1,1.0910038E0,7.9942155E0,4.6097093E0,1.5655176E1,4.47481E1,1.8440868E0,3.349658E0,2.7112692E1,7.676277E0,2.0928357E0,1.6400023E0,7.2548027E0,1.8500236E0,8.827222E0],"tree_param":{"num_deleted":"0","num_feature":"3089","num_nodes":"45","size_leaf_vector":"0"}},{"base_weights":[3.1032888E-2,1.1286066E0,-1.1699888E-2,7.746783E-1,-7.702725E-2,-1.2601835E-1,9.49082E-1,8.767411E-1,-1.4142638E-1,-4.9026314E-2,1.0021913E0,7.318978E-1,-2.1681334E-1,8.705527E-1,-2.0933698E-1,-2.6594344E-1,1.2635647E0,2.5571978E-1,9.2648053E-1,1.0919156E0,-3.2398677E-1],"categories":[],"categories_nodes":[],"categories_segments":[],"categories_sizes":[],"default_left":[0,0,0,1,0,0,0,0,0,0,0,0,1,0,0,0,0,0,0,0,0],"id":26,"left_children":[1,-1,3,5,7,-1,-1,9,11,-1,-1,13,15,17,-1,19,-1,-1,-1,-1,-1],"loss_changes":[7.2957635E0,0E0,7.7881575E0,1.9464326E0,8.711508E0,0E0,0E0,1.0922852E0,8.83801E0,0E0,0E0,1.5791941E0,9.218392E0,9.055996E-2,0E0,9.735008E0,0E0,0E0,0E0,0E0,0E0],"parents":[2147483647,0,0,2,2,3,3,4,4,7,7,8,8,11,11,12,12,13,13,15,15],"right_children":[2,-1,4,6,8,-1,-1,10,12,-1,-1,14,16,18,-1,20,-1,-1,-1,-1,-1],"split_conditions":[1.1E1,1.8057704E-1,1.5E0,3.5E0,1.5E0,-2.0162934E-2,1.5185311E-1,1.5E0,3.5E0,-7.84421E-3,1.603506E-1,2.1E1,-9.536743E-7,2.000001E0,-3.3493917E-2,6.000001E0,2.0217034E-1,4.0915165E-2,1.4823689E-1,1.7470649E-1,-5.183788E-2],"split_indices":[2332,0,2614,15,2144,0,0,2955,1892,0,0,1029,890,102,0,518,0,0,0,0,0],"split_type":[0,0,0,0,0,0,0,0,0,0,0,0,0,0,0,0,0,0,0,0,0],"sum_hessian":[1.5427058E2,4.828997E0,1.4944159E2,1.0629581E1,1.3881201E2,1.7693456E0,8.860236E0,7.982018E0,1.3082999E2,1.0252587E0,6.956759E0,9.704077E0,1.21125916E2,8.523552E0,1.1805243E0,1.1802917E2,3.096743E0,1.1753095E0,7.3482423E0,4.108287E0,1.1392088E2],"tree_param":{"num_deleted":"0","num_feature":"3089","num_nodes":"21","size_leaf_vector":"0"}},{"base_weights":[3.5154868E-2,5.4729843E-1,-5.282901E-2,8.447661E-1,1.7370532E-1,-8.273579E-1,1.6923307E-2,4.4347282E-2,9.480249E-1,-6.05275E-1,3.4669775E-1,-1.0256948E0,5.449746E-1,-8.8280034E-1,7.596138E-2,-4.4163474E-1,5.7118595E-1,1.9631234E-1,-3.9988944E-1,-1.516621E-1,7.616409E-1,-8.6286503E-1,2.4571942E-1,7.660089E-1,-7.2071445E-1,2.2771999E-1,8.304645E-1,-7.37949E-1,3.0084804E-1,4.126823E-1,1.0407734E0,-8.2818735E-1,5.788456E-1],"categories":[],"categories_nodes":[],"categories_segments":[],"categories_sizes":[],"default_left":[0,0,0,0,0,1,0,0,0,0,0,0,0,0,0,0,0,0,0,0,0,0,0,1,1,0,0,0,0,0,0,0,0],"id":27,"left_children":[1,3,5,7,9,11,13,-1,-1,-1,15,-1,-1,-1,17,-1,19,21,23,-1,25,-1,27,29,31,-1,-1,-1,-1,-1,-1,-1,-1],"loss_changes":[6.78722E0,2.306704E0,6.978197E0,9.523897E-1,1.6982582E0,3.4631734E0,6.400658E0,0E0,0E0,0E0,1.9642384E0,0E0,0E0,0E0,6.5393167E0,0E0,1.2121458E0,4.95909E0,9.19352E0,0E0,4.8658133E-2,0E0,4.9641714E0,1.015389E-1,3.0817194E0,0E0,0E0,0E0,0E0,0E0,0E0,0E0,0E0],"parents":[2147483647,0,0,1,1,2,2,3,3,4,4,5,5,6,6,10,10,14,14,16,16,17,17,18,18,20,20,22,22,23,23,24,24],"right_children":[2,4,6,8,10,12,14,-1,-1,-1,16,-1,-1,-1,18,-1,20,22,24,-1,26,-1,28,30,32,-1,-1,-1,-1,-1,-1,-1,-1],"split_conditions":[1.5E0,1.6E1,7E0,1.5E0,2.5E0,2.05E1,5.5E0,7.095565E-3,1.5168399E-1,-9.6843995E-2,2.000001E0,-1.6411117E-1,8.719594E-2,-1.4124805E-1,2.56E2,-7.066156E-2,6.000001E0,9.5E0,6.000001E0,-2.4265936E-2,7E0,-1.3805841E-1,9E0,-9.536743E-7,1.5E0,3.6435198E-2,1.3287431E-1,-1.1807184E-1,4.8135687E-2,6.602917E-2,1.6652374E-1,-1.3250998E-1,9.26153E-2],"split_indices":[1666,3062,3062,1426,995,1029,2352,0,0,0,777,0,0,0,15,0,2019,1878,2010,0,1027,0,2251,2930,2202,0,0,0,0,0,0,0,0],"split_type":[0,0,0,0,0,0,0,0,0,0,0,0,0,0,0,0,0,0,0,0,0,0,0,0,0,0,0,0,0,0,0,0,0],"sum_hessian":[1.4898335E2,2.1076885E1,1.2790646E2,1.1031798E1,1.0045088E1,9.669961E0,1.182365E2,1.423889E0,9.607909E0,1.3713014E0,8.673786E0,8.669577E0,1.0003844E0,6.4215055E0,1.11815E2,1.7081169E0,6.9656696E0,8.971258E1,2.2102423E1,1.495056E0,5.4706135E0,3.264504E0,8.6448074E1,4.470116E0,1.7632305E1,1.1166439E0,4.3539696E0,3.9304538E0,8.2517624E1,3.0499969E0,1.420119E0,1.6620516E1,1.0117904E0],"tree_param":{"num_deleted":"0","num_feature":"3089","num_nodes":"33","size_leaf_vector":"0"}},{"base_weights":[2.926341E-2,5.2409875E-1,-6.234958E-2,9.281634E-1,2.123911E-1,8.982022E-1,-1.1772528E-1,-7.5007385E-1,4.1068766E-1,9.8968583E-1,-1.7042759E-1,-3.7456203E-1,5.180249E-1,1.0142592E0,-2.2220924E-1,-2.0580208E-1,6.8225986E-1,-2.7039877E-1,1.1417497E0,8.8983536E-1,-2.1158698E-1,6.59218E-1,-3.5113162E-1],"categories":[],"categories_nodes":[],"categories_segments":[],"categories_sizes":[],"default_left":[0,0,0,0,0,0,0,0,0,0,0,0,0,0,1,0,0,0,0,0,0,0,0],"id":28,"left_children":[1,3,5,-1,7,-1,9,-1,11,-1,13,-1,15,-1,17,-1,19,21,-1,-1,-1,-1,-1],"loss_changes":[6.5445056E0,2.64251E0,6.6002555E0,0E0,2.9846094E0,0E0,6.957838E0,0E0,1.2286136E0,0E0,7.089575E0,0E0,1.4739974E0,0E0,7.409328E0,0E0,1.9277663E0,8.123135E0,0E0,0E0,0E0,0E0,0E0],"parents":[2147483647,0,0,1,1,2,2,4,4,6,6,8,8,10,10,12,12,14,14,16,16,17,17],"right_children":[2,4,6,-1,8,-1,10,-1,12,-1,14,-1,16,-1,18,-1,20,22,-1,-1,-1,-1,-1],"split_conditions":[4E1,4.6E1,8.000001E0,1.4850613E-1,8.000001E0,1.4371234E-1,1.0000001E1,-1.20011814E-1,4.000001E0,1.5834972E-1,4.000001E0,-5.9929922E-2,1.5E0,1.6228147E-1,-9.536743E-7,-3.2928333E-2,5.6E1,2.5E0,1.8267995E-1,1.4237365E-1,-3.3853915E-2,1.0547488E-1,-5.618106E-2],"split_indices":[2162,2879,1581,0,2816,0,3014,0,2866,0,518,0,2431,0,890,0,15,1892,0,0,0,0,0],"split_type":[0,0,0,0,0,0,0,0,0,0,0,0,0,0,0,0,0,0,0,0,0,0,0],"sum_hessian":[1.4264325E2,2.1545784E1,1.2109746E2,8.5216055E0,1.3024178E1,5.7711115E0,1.1532635E2,1.7496035E0,1.1274573E1,4.4314466E0,1.10894905E2,1.0564313E0,1.02181425E1,3.865723E0,1.0702918E2,1.8428999E0,8.375242E0,1.0415121E2,2.8779728E0,6.8004756E0,1.574767E0,7.749732E0,9.6401474E1],"tree_param":{"num_deleted":"0","num_feature":"3089","num_nodes":"23","size_leaf_vector":"0"}},{"base_weights":[3.23908E-2,9.086448E-1,-1.6853847E-2,6.647714E-1,-8.464854E-2,-2.5568336E-1,8.0074555E-1,8.437398E-1,-1.425498E-1,2.0939192E-1,8.5969985E-1,-2.1889756E-2,1.0133235E0,9.656683E-1,-1.9558299E-1,9.1439664E-1,2.9157558E-1,9.6656877E-1,-2.4723871E-1,2.2685194E-1,-4.1275355E-1],"categories":[],"categories_nodes":[],"categories_segments":[],"categories_sizes":[],"default_left":[0,0,0,0,0,0,1,1,0,0,0,0,0,0,0,0,0,0,0,0,0],"id":29,"left_children":[1,-1,3,5,7,-1,9,11,13,-1,15,-1,-1,-1,17,-1,-1,-1,19,-1,-1],"loss_changes":[5.9916005E0,0E0,6.1611576E0,1.7146473E0,6.6270924E0,0E0,1.9487429E-1,1.0865574E0,6.935663E0,0E0,2.7239323E-2,0E0,0E0,0E0,6.865548E0,0E0,0E0,0E0,8.449263E0,0E0,0E0],"parents":[2147483647,0,0,2,2,3,3,4,4,6,6,7,7,8,8,10,10,14,14,18,18],"right_children":[2,-1,4,6,8,-1,10,12,14,-1,16,-1,-1,-1,18,-1,-1,-1,20,-1,-1],"split_conditions":[4.000001E0,1.4538316E-1,1.0000001E1,3.5E0,6.000001E0,-4.090934E-2,2E0,3.5E0,2.5E0,3.3502705E-2,2.5E0,-3.5023608E-3,1.6213176E-1,1.5450692E-1,8.000001E0,1.4630346E-1,4.6652094E-2,1.54651E-1,1.5E0,3.6296308E-2,-6.604057E-2],"split_indices":[2087,0,2614,1614,2485,0,15,1029,2333,0,2614,0,0,0,236,0,0,0,15,0,0],"split_type":[0,0,0,0,0,0,0,0,0,0,0,0,0,0,0,0,0,0,0,0,0],"sum_hessian":[1.3749763E2,6.3875E0,1.3111014E2,1.1064018E1,1.2004612E2,1.3107476E0,9.75327E0,6.250683E0,1.1379544E2,1.2968364E0,8.456434E0,1.1666273E0,5.0840554E0,4.4110165E0,1.0938442E2,7.157807E0,1.2986273E0,3.9012933E0,1.0548313E2,2.7200651E1,7.828248E1],"tree_param":{"num_deleted":"0","num_feature":"3089","num_nodes":"21","size_leaf_vector":"0"}},{"base_weights":[3.5139795E-2,1.1299236E0,-4.1360874E-3,4.912463E-1,-8.663814E-2,8.250056E-1,5.0668504E-2,-1.578271E-1,7.515721E-1,5.3107753E-2,9.3580765E-1,6.969011E-1,-2.3226346E-1,7.8616476E-1,-2.2576693E-1,9.135151E-1,5.2499384E-2,6.119042E-1,-5.640351E-1,9.15115E-1,1.03968635E-1,-6.264313E-1,-2.383561E-2,-7.670999E-2,-1.3917131E0,8.785626E-1,-7.5453466E-1,-9.7292817E-1,8.058412E-2],"categories":[],"categories_nodes":[],"categories_segments":[],"categories_sizes":[],"default_left":[0,0,0,0,1,0,0,0,1,0,0,0,0,0,0,0,0,0,0,0,0,0,0,0,0,0,0,0,0],"id":30,"left_children":[1,-1,3,5,7,9,11,13,15,-1,-1,-1,17,19,21,-1,-1,-1,23,-1,-1,25,27,-1,-1,-1,-1,-1,-1],"loss_changes":[5.776536E0,0E0,5.379421E0,2.7215676E0,6.8488703E0,8.5920286E-1,1.8376755E0,6.8978996E0,9.7124815E-1,0E0,0E0,0E0,2.3405266E0,5.433655E-1,7.9566135E0,0E0,0E0,0E0,2.1660533E0,0E0,0E0,7.0207586E0,6.673806E0,0E0,0E0,0E0,0E0,0E0,0E0],"parents":[2147483647,0,0,2,2,3,3,4,4,5,5,6,6,7,7,8,8,12,12,13,13,14,14,18,18,21,21,22,22],"right_children":[2,-1,4,6,8,10,12,14,16,-1,-1,-1,18,20,22,-1,-1,-1,24,-1,-1,26,28,-1,-1,-1,-1,-1,-1],"split_conditions":[1.1E1,1.8078777E-1,1.5E0,1.6E1,2.35E1,1.5E0,4.000001E0,1.5E0,1.05E1,8.49724E-3,1.4972922E-1,1.1150417E-1,6.000001E0,7E0,1.04E2,1.461624E-1,8.399901E-3,9.790467E-2,5.5E0,1.464184E-1,1.6634982E-2,8.000001E0,1.0000001E1,-1.2273598E-2,-2.226741E-1,1.4057001E-1,-1.2072554E-1,-1.556685E-1,1.2893458E-2],"split_indices":[2332,0,1666,3062,15,296,2162,2144,1027,0,0,0,2010,1029,1027,0,0,0,15,0,0,236,2340,0,0,0,0,0,0],"split_type":[0,0,0,0,0,0,0,0,0,0,0,0,0,0,0,0,0,0,0,0,0,0,0,0,0,0,0,0,0],"sum_hessian":[1.3323373E2,3.6525636E0,1.2958118E2,1.779243E1,1.1178874E2,9.626972E0,8.165458E0,1.0378594E2,8.002801E0,1.3941295E0,8.232843E0,2.0408654E0,6.124592E0,6.2583027E0,9.752764E1,6.248547E0,1.7542537E0,1.4897313E0,4.6348605E0,4.9762545E0,1.2820479E0,3.1977303E1,6.555034E1,3.6049802E0,1.0298805E0,2.0488317E0,2.992847E1,5.6726813E0,5.9877655E1],"tree_param":{"num_deleted":"0","num_feature":"3089","num_nodes":"29","size_leaf_vector":"0"}},{"base_weights":[3.525998E-2,-7.872471E-1,8.289245E-2,-9.5558834E-1,9.807601E-2,1.1107101E0,4.612739E-2,-1.3128735E-1,2.777494E-1,-8.475205E-1,3.015177E-3,9.7567844E-1,1.8748541E-1,1.263923E-2,-9.670812E-1,4.0035644E-1,-2.3071492E-1,-6.086754E-1,2.850738E-1,-6.8289304E-1,5.094909E-1,6.6502374E-1,-4.123088E-1,-8.6280423E-1,1.0072645E-2,6.390778E-1,8.437355E-2],"categories":[],"categories_nodes":[],"categories_segments":[],"categories_sizes":[],"default_left":[0,1,0,0,0,0,1,0,0,0,0,0,0,0,0,0,0,1,0,0,0,0,0,0,0,0,0],"id":31,"left_children":[1,3,5,-1,-1,-1,7,9,11,13,15,-1,17,-1,-1,19,21,23,25,-1,-1,-1,-1,-1,-1,-1,-1],"loss_changes":[5.09419E0,1.1551418E0,4.5679097E0,0E0,0E0,0E0,4.9290557E0,6.553103E0,3.0905824E0,1.1184425E0,5.5106406E0,0E0,3.844606E0,0E0,0E0,2.9456673E0,6.352558E0,8.700788E-1,2.98492E0,0E0,0E0,0E0,0E0,0E0,0E0,0E0,0E0],"parents":[2147483647,0,0,1,1,2,2,6,6,7,7,8,8,9,9,10,10,12,12,15,15,16,16,17,17,18,18],"right_children":[2,4,6,-1,-1,-1,8,10,12,14,16,-1,18,-1,-1,20,22,24,26,-1,-1,-1,-1,-1,-1,-1,-1],"split_conditions":[3.4E1,1.5E0,4.000001E0,-1.5289412E-1,1.5692161E-2,1.7771362E-1,3.5E0,4.000001E0,6.000001E0,2.5E0,1.5E0,1.5610854E-1,2.5E0,2.0222769E-3,-1.5473299E-1,4.000001E0,6.000001E0,1.5E0,2.5E0,-1.0926288E-1,8.1518546E-2,1.064038E-1,-6.596941E-2,-1.3804868E-1,1.6116231E-3,1.02252446E-1,1.34997675E-2],"split_indices":[2392,3062,2332,0,0,0,1029,102,2485,2879,15,0,0,0,0,1481,2010,2879,2879,0,0,0,0,0,0,0,0],"split_type":[0,0,0,0,0,0,0,0,0,0,0,0,0,0,0,0,0,0,0,0,0,0,0,0,0,0,0],"sum_hessian":[1.27361015E2,6.1218963E0,1.2123912E2,5.0771303E0,1.0447658E0,3.1781633E0,1.1806095E2,6.709873E1,5.096222E1,9.756572E0,5.7342163E1,4.712853E0,4.6249367E1,1.2997833E0,8.456789E0,2.0973797E1,3.6368366E1,4.4781165E0,4.177125E1,1.4384677E0,1.953533E1,5.6814795E0,3.0686886E1,2.894761E0,1.5833554E0,1.4323167E1,2.7448084E1],"tree_param":{"num_deleted":"0","num_feature":"3089","num_nodes":"27","size_leaf_vector":"0"}},{"base_weights":[3.076032E-2,5.043562E-1,-5.5412445E-2,8.9922065E-1,2.0889409E-1,8.5395986E-1,-1.0842894E-1,2.7534392E-1,9.5363784E-1,-6.6527754E-1,3.858959E-1,-1.4621407E-1,1.3100413E0,-2.1186624E-1,5.129108E-1,9.2045426E-1,-1.9874224E-1,6.639158E-1,-1.5787014E-1,8.1168187E-1,-2.554067E-1,7.55423E-1,2.698821E-1,2.2141954E-1,9.4328296E-1,9.25201E-1,-3.0944067E-1],"categories":[],"categories_nodes":[],"categories_segments":[],"categories_sizes":[],"default_left":[0,0,0,0,0,0,1,0,0,0,0,0,0,0,0,0,0,0,0,1,0,0,0,0,0,0,0],"id":32,"left_children":[1,3,5,7,9,-1,11,-1,-1,-1,13,15,-1,-1,17,-1,19,21,-1,23,25,-1,-1,-1,-1,-1,-1],"loss_changes":[5.0793395E0,2.046732E0,5.1847987E0,5.4574013E-3,2.1534479E0,0E0,5.5882635E0,0E0,0E0,0E0,9.307084E-1,5.7286553E0,0E0,0E0,1.0389166E0,0E0,5.6553936E0,7.446647E-2,0E0,2.0223522E-1,6.082665E0,0E0,0E0,0E0,0E0,0E0,0E0],"parents":[2147483647,0,0,1,1,2,2,3,3,4,4,6,6,10,10,11,11,14,14,16,16,17,17,19,19,20,20],"right_children":[2,4,6,8,10,-1,12,-1,-1,-1,14,16,-1,-1,18,-1,20,22,-1,24,26,-1,-1,-1,-1,-1,-1],"split_conditions":[4E1,4.6E1,8.000001E0,2.5E0,8.000001E0,1.3663357E-1,-9.536743E-7,4.4055026E-2,1.5258205E-1,-1.064444E-1,1.5E0,1.0000001E1,2.096066E-1,-3.38986E-2,5.6E1,1.4727268E-1,1.5E0,1.5E0,-2.5259223E-2,6E0,4.000001E0,1.2086768E-1,4.3181136E-2,3.5427127E-2,1.5092526E-1,1.4803216E-1,-4.9510505E-2],"split_indices":[2162,2879,1581,3062,2816,0,511,0,0,0,2431,3014,0,0,15,0,2485,2162,0,1029,518,0,0,0,0,0,0],"split_type":[0,0,0,0,0,0,0,0,0,0,0,0,0,0,0,0,0,0,0,0,0,0,0,0,0,0,0],"sum_hessian":[1.2277505E2,1.815336E1,1.0462169E2,6.8951015E0,1.1258259E1,4.9312005E0,9.969049E1,1.0393332E0,5.855768E0,1.4312164E0,9.827043E0,9.797749E1,1.7129978E0,1.6050855E0,8.221957E0,3.8229675E0,9.4154526E1,6.7195077E0,1.5024496E0,4.2922378E0,8.986228E1,4.708817E0,2.010691E0,1.2715478E0,3.0206897E0,3.2272103E0,8.663507E1],"tree_param":{"num_deleted":"0","num_feature":"3089","num_nodes":"27","size_leaf_vector":"0"}},{"base_weights":[3.6029596E-2,1.09696E0,1.9841809E-3,4.6664435E-1,-7.5539745E-2,7.973106E-1,4.5954596E-2,-1.402388E-1,6.982047E-1,-2.3913138E-2,9.1912067E-1,6.4520544E-1,-1.9399066E-1,7.3892885E-1,-2.0262456E-1,8.600422E-1,4.471454E-2,5.719947E-1,-4.725411E-1,8.749763E-1,3.4343284E-2,-2.5231695E-1,1.0323473E0,3.0864745E-1,-8.374834E-1,6.342539E-1,-3.273692E-1],"categories":[],"categories_nodes":[],"categories_segments":[],"categories_sizes":[],"default_left":[0,0,0,0,1,0,0,0,1,0,0,0,0,0,1,0,0,0,0,0,0,0,0,0,0,0,0],"id":33,"left_children":[1,-1,3,5,7,9,11,13,15,-1,-1,-1,17,19,21,-1,-1,-1,23,-1,-1,25,-1,-1,-1,-1,-1],"loss_changes":[4.338683E0,0E0,4.2658715E0,2.3187463E0,5.1796856E0,9.6421623E-1,1.349204E0,5.3334737E0,8.076751E-1,0E0,0E0,0E0,1.7313473E0,5.9085584E-1,5.7244167E0,0E0,0E0,0E0,1.8461977E0,0E0,0E0,5.9562297E0,0E0,0E0,0E0,0E0,0E0],"parents":[2147483647,0,0,2,2,3,3,4,4,5,5,6,6,7,7,8,8,12,12,13,13,14,14,18,18,21,21],"right_children":[2,-1,4,6,8,10,12,14,16,-1,-1,-1,18,20,22,-1,-1,-1,24,-1,-1,26,-1,-1,-1,-1,-1],"split_conditions":[1.1E1,1.7551358E-1,1.5E0,1.6E1,2.35E1,1.5E0,4.000001E0,1.5E0,1.05E1,-3.826102E-3,1.470593E-1,1.0323287E-1,6.000001E0,7E0,-9.536743E-7,1.3760675E-1,7.1543264E-3,9.1519155E-2,3.5E0,1.399962E-1,5.494925E-3,2.5E0,1.6517557E-1,4.938359E-2,-1.3399734E-1,1.01480626E-1,-5.237907E-2],"split_indices":[2332,0,1666,3062,15,1426,2162,2144,1027,0,0,0,2010,1029,890,0,0,0,1008,0,0,1892,0,0,0,0,0],"split_type":[0,0,0,0,0,0,0,0,0,0,0,0,0,0,0,0,0,0,0,0,0,0,0,0,0,0,0],"sum_hessian":[1.1917944E2,2.7348545E0,1.1644459E2,1.593208E1,1.00512505E2,8.419234E0,7.5128465E0,9.351196E1,7.000542E0,1.1913087E0,7.227926E0,1.665179E0,5.847667E0,5.477407E0,8.803456E1,5.357641E0,1.6429011E0,1.2784874E0,4.56918E0,4.388254E0,1.0891529E0,8.539418E1,2.6403737E0,1.5040009E0,3.0651789E0,6.0832815E0,7.9310905E1],"tree_param":{"num_deleted":"0","num_feature":"3089","num_nodes":"27","size_leaf_vector":"0"}},{"base_weights":[4.1025825E-2,-7.480066E-1,8.392589E-2,-1.4995484E-1,-8.9800406E-1,-8.495958E-1,1.2165686E-1,-6.338517E-1,1.6639875E-1,1.9229212E-1,-8.432244E-1,-4.279046E-2,3.492736E-1,-7.7737516E-1,8.9453906E-2,-6.683451E-1,3.9606825E-1,-2.4357225E-1,-8.589701E-1,-7.732185E-1,2.0590214E-1,4.477842E-1,-4.693093E-1],"categories":[],"categories_nodes":[],"categories_segments":[],"categories_sizes":[],"default_left":[0,0,0,0,0,0,0,0,1,0,0,0,0,0,0,0,1,0,0,0,0,0,0],"id":34,"left_children":[1,3,5,-1,-1,-1,7,9,11,-1,-1,13,15,17,19,-1,21,-1,-1,-1,-1,-1,-1],"loss_changes":[3.9857652E0,4.1050315E-1,4.006653E0,0E0,0E0,0E0,3.7354755E0,1.2366383E0,3.9237118E0,0E0,0E0,4.7858844E0,2.86594E0,1.178813E-1,4.3823767E0,0E0,2.5754843E0,0E0,0E0,0E0,0E0,0E0,0E0],"parents":[2147483647,0,0,1,1,2,2,6,6,7,7,8,8,11,11,12,12,13,13,14,14,16,16],"right_children":[2,4,6,-1,-1,-1,8,10,12,-1,-1,14,16,18,20,-1,22,-1,-1,-1,-1,-1,-1],"split_conditions":[3.4E1,6E1,1.6E1,-2.3992773E-2,-1.4368065E-1,-1.3593532E-1,1.6E1,1.5E0,2.5E0,3.0766739E-2,-1.349159E-1,4.000001E0,4.000001E0,4.000001E0,2.4E1,-1.0693521E-1,1.5E0,-3.897156E-2,-1.3743521E-1,-1.2371496E-1,3.2944344E-2,7.164547E-2,-7.5089484E-2],"split_indices":[2392,3062,1522,0,0,0,2352,2816,0,0,0,102,2689,2162,1027,0,1481,0,0,0,0,0,0],"split_type":[0,0,0,0,0,0,0,0,0,0,0,0,0,0,0,0,0,0,0,0,0,0,0],"sum_hessian":[1.1489486E2,5.0772038E0,1.0981766E2,1.4190509E0,3.6581528E0,3.4302726E0,1.0638739E2,5.211947E0,1.0117544E2,1.0703063E0,4.1416407E0,4.7549698E1,5.3625744E1,6.5099907E0,4.1039707E1,1.7736037E0,5.185214E1,1.3915385E0,5.118452E0,4.2101364E0,3.682957E1,4.9383484E1,2.4686563E0],"tree_param":{"num_deleted":"0","num_feature":"3089","num_nodes":"23","size_leaf_vector":"0"}},{"base_weights":[2.7568493E-2,-1.3028845E-3,1.2246426E0,8.4556293E-1,-4.4430077E-2,8.0890536E-1,-9.195303E-2,6.582154E-1,-1.4709666E-1,-1.8468997E-1,8.446196E-1,8.93463E-1,-1.9239907E-1,1.9432753E-1,-3.4413698E-1],"categories":[],"categories_nodes":[],"categories_segments":[],"categories_sizes":[],"default_left":[1,0,0,0,0,0,0,0,0,0,0,0,0,0,0],"id":35,"left_children":[1,3,-1,-1,5,-1,7,9,11,-1,-1,-1,13,-1,-1],"loss_changes":[3.8808086E0,4.0769153E0,0E0,0E0,4.3806357E0,0E0,4.294931E0,1.2765474E0,4.666812E0,0E0,0E0,0E0,5.4771166E0,0E0,0E0],"parents":[2147483647,0,0,1,1,4,4,6,6,7,7,8,8,12,12],"right_children":[2,4,-1,-1,6,-1,8,10,12,-1,-1,-1,14,-1,-1],"split_conditions":[-9.536743E-7,4.000001E0,1.9594282E-1,1.3529007E-1,1.0000001E1,1.2942486E-1,5E0,2.5E0,8.000001E0,-2.9550394E-2,1.3513912E-1,1.4295408E-1,6.5E0,3.1092405E-2,-5.5061918E-2],"split_indices":[511,2087,0,0,1581,0,1286,2671,236,0,0,0,2879,0,0],"split_type":[0,0,0,0,0,0,0,0,0,0,0,0,0,0,0],"sum_hessian":[1.1124191E2,1.0959753E2,1.6443928E0,4.409246E0,1.0518828E2,4.7038193E0,1.0048446E2,6.131793E0,9.435267E1,1.1121105E0,5.019683E0,3.1553192E0,9.119735E1,2.562008E1,6.557726E1],"tree_param":{"num_deleted":"0","num_feature":"3089","num_nodes":"15","size_leaf_vector":"0"}},{"base_weights":[3.096066E-2,1.070383E0,-1.1989147E-3,9.5827025E-1,-3.6152836E-2,7.9962486E-1,-8.022312E-2,3.9658087E-1,-1.678079E-1,7.4226683E-1,5.2614197E-2,2.0774494E-1,-3.195248E-1,-6.9391556E-2,8.759498E-1,6.942207E-1,-2.2111857E-1,-7.42166E-1,3.1634626E-1,3.892199E-1,-4.4632557E-1],"categories":[],"categories_nodes":[],"categories_segments":[],"categories_sizes":[],"default_left":[0,0,0,0,0,0,0,0,0,0,0,0,0,0,0,0,0,0,0,0,0],"id":36,"left_children":[1,-1,3,-1,5,-1,7,9,11,13,15,17,19,-1,-1,-1,-1,-1,-1,-1,-1],"loss_changes":[3.6541467E0,0E0,3.6230218E0,0E0,3.9021287E0,0E0,4.238001E0,1.8394773E0,4.914645E0,9.0748453E-1,1.7333405E0,2.823106E0,5.655803E0,0E0,0E0,0E0,0E0,0E0,0E0,0E0,0E0],"parents":[2147483647,0,0,2,2,4,4,6,6,7,7,8,8,9,9,10,10,11,11,12,12],"right_children":[2,-1,4,-1,6,-1,8,10,12,14,16,18,20,-1,-1,-1,-1,-1,-1,-1,-1],"split_conditions":[1.1E1,1.7126127E-1,1.0000001E1,1.5332323E-1,6.000001E0,1.2793997E-1,2.5E0,1.4000001E1,1.5E0,1.5E0,6.000001E0,6.000001E0,1.5E0,-1.1102648E-2,1.4015196E-1,1.1107531E-1,-3.537897E-2,-1.1874656E-1,5.06154E-2,6.2275182E-2,-7.141209E-2],"split_indices":[2332,0,1538,0,2293,0,1666,3062,15,1426,2162,2816,2879,0,0,0,0,0,0,0,0],"split_type":[0,0,0,0,0,0,0,0,0,0,0,0,0,0,0,0,0,0,0,0,0],"sum_hessian":[1.0827759E2,2.280682E0,1.059969E2,2.7972913E0,1.03199615E2,4.310384E0,9.888923E1,1.4798657E1,8.4090576E1,6.803345E0,7.995312E0,2.4090006E1,6.000057E1,1.0300857E0,5.773259E0,1.9316235E0,6.0636888E0,1.8730456E0,2.2216959E1,8.791502E0,5.1209064E1],"tree_param":{"num_deleted":"0","num_feature":"3089","num_nodes":"21","size_leaf_vector":"0"}},{"base_weights":[3.3047806E-2,-7.3190415E-1,7.2662085E-2,-1.8202405E-1,-8.580397E-1,8.350632E-1,3.3422202E-2,8.2336795E-1,-8.282883E-3,7.9437226E-1,-5.1970538E-2,2.3749018E-1,8.94026E-1,-8.4951445E-2,1.1179081E0,-1.6920467E-1,4.184049E-1],"categories":[],"categories_nodes":[],"categories_segments":[],"categories_sizes":[],"default_left":[0,0,0,0,0,0,0,0,0,1,1,0,0,1,0,0,0],"id":37,"left_children":[1,3,5,-1,-1,-1,7,-1,9,11,13,-1,-1,15,-1,-1,-1],"loss_changes":[3.2647696E0,2.120142E-1,3.0138206E0,0E0,0E0,0E0,3.2267976E0,0E0,3.3314476E0,5.9866667E-2,3.5645142E0,0E0,0E0,3.8192143E0,0E0,0E0,0E0],"parents":[2147483647,0,0,1,1,2,2,6,6,8,8,9,9,10,10,13,13],"right_children":[2,4,6,-1,-1,-1,8,-1,10,12,14,-1,-1,16,-1,-1,-1],"split_conditions":[3.4E1,6E1,8.000001E0,-2.9123846E-2,-1.3728635E-1,1.3361011E-1,4.000001E0,1.3173887E-1,1.5E0,6E0,-9.536743E-7,3.7998427E-2,1.4304416E-1,1.5E0,1.788653E-1,-2.7072746E-2,6.6944785E-2],"split_indices":[2392,3062,1581,0,0,0,2087,0,2485,1029,511,0,0,3047,0,0,0],"split_type":[0,0,0,0,0,0,0,0,0,0,0,0,0,0,0,0,0],"sum_hessian":[1.0498245E2,4.3085504E0,1.006739E2,1.2597653E0,3.048785E0,3.9351883E0,9.673871E1,3.9112968E0,9.2827415E1,3.904715E0,8.89227E1,1.1062051E0,2.7985098E0,8.7386505E1,1.5361923E0,7.542543E1,1.1961078E1],"tree_param":{"num_deleted":"0","num_feature":"3089","num_nodes":"17","size_leaf_vector":"0"}},{"base_weights":[3.3724442E-2,4.4625902E-1,-3.933895E-2,8.2821995E-1,1.8185425E-1,8.917751E-1,-8.759795E-2,-4.0968484E-1,3.9576605E-1,8.9199185E-1,-1.3219664E-1,-5.5214595E-2,-5.788677E-1,5.282023E-1,-1.5271248E-1,-1.7632118E-1,9.605882E-1,6.2455904E-1,1.8666522E-1,8.314009E-1,-2.2622116E-1,7.356438E-1,1.4957213E-1,5.7611054E-1,-2.989917E-1],"categories":[],"categories_nodes":[],"categories_segments":[],"categories_sizes":[],"default_left":[0,0,0,0,0,0,0,0,0,0,1,0,0,0,0,0,0,0,0,0,0,0,0,0,0],"id":38,"left_children":[1,3,5,-1,7,-1,9,11,13,-1,15,-1,-1,17,-1,19,-1,21,-1,-1,23,-1,-1,-1,-1],"loss_changes":[3.1497173E0,1.436614E0,4.0862894E0,0E0,1.4994736E0,0E0,3.8626807E0,1.6583192E-1,6.8141985E-1,0E0,4.164463E0,0E0,0E0,1.1003709E-1,0E0,4.2351913E0,0E0,1.5086555E-1,0E0,0E0,4.695528E0,0E0,0E0,0E0,0E0],"parents":[2147483647,0,0,1,1,2,2,4,4,6,6,7,7,8,8,10,10,13,13,15,15,17,17,20,20],"right_children":[2,4,6,-1,8,-1,10,12,14,-1,16,-1,-1,18,-1,20,-1,22,-1,-1,24,-1,-1,-1,-1],"split_conditions":[4E1,4.6E1,1.0000001E1,1.3251519E-1,2.000001E0,1.4268401E-1,4.000001E0,3.5E0,2.4E1,1.4271869E-1,-9.536743E-7,-8.834335E-3,-9.261882E-2,1.5E0,-2.4433997E-2,2.5E0,1.5369411E-1,2.5E0,2.9866435E-2,1.3302414E-1,2.5E0,1.17703006E-1,2.393154E-2,9.217768E-2,-4.7838673E-2],"split_indices":[2162,2879,3014,0,102,0,518,0,15,0,890,0,0,2162,0,2333,0,15,0,0,1892,0,0,0,0],"split_type":[0,0,0,0,0,0,0,0,0,0,0,0,0,0,0,0,0,0,0,0,0,0,0,0,0],"sum_hessian":[1.029164E2,1.4716342E1,8.820006E1,5.1476364E0,9.568706E0,3.484812E0,8.471524E1,2.2981982E0,7.2705073E0,2.8615773E0,8.185367E1,1.1710294E0,1.1271688E0,5.886189E0,1.384318E0,7.948295E1,2.370719E0,3.9446318E0,1.9415575E0,3.0111861E0,7.647176E1,2.7522087E0,1.1924229E0,5.7839565E0,7.0687805E1],"tree_param":{"num_deleted":"0","num_feature":"3089","num_nodes":"25","size_leaf_vector":"0"}},{"base_weights":[3.8138893E-2,8.698661E-1,4.7676213E-4,1.0542947E0,-3.1609725E-2,7.318007E-1,-7.616008E-2,1.8259585E-1,8.4808123E-1,3.7360454E-1,-1.6322233E-1,7.301493E-1,2.8042495E-2,-9.6898097E-1,-8.63618E-2,-3.872293E-2,8.639823E-1,6.557781E-1,-2.1302027E-1,-1.24868825E-1,1.0937192E0],"categories":[],"categories_nodes":[],"categories_segments":[],"categories_sizes":[],"default_left":[0,0,0,0,0,1,0,0,0,0,0,0,0,0,1,0,0,0,0,0,0],"id":39,"left_children":[1,-1,3,-1,5,7,9,-1,-1,11,13,15,17,-1,19,-1,-1,-1,-1,-1,-1],"loss_changes":[3.1638076E0,0E0,3.3348086E0,0E0,3.3113394E0,1.8823743E-1,3.6380959E0,0E0,0E0,1.8423676E0,4.699405E0,7.9507685E-1,1.4589218E0,0E0,3.3903923E0,0E0,0E0,0E0,0E0,0E0,0E0],"parents":[2147483647,0,0,2,2,4,4,5,5,6,6,9,9,10,10,11,11,12,12,14,14],"right_children":[2,-1,4,-1,6,8,10,-1,-1,12,14,16,18,-1,20,-1,-1,-1,-1,-1,-1],"split_conditions":[8.000001E0,1.3917857E-1,1.1E1,1.6868715E-1,6.000001E0,6E0,3.5E0,2.9215336E-2,1.35693E-1,6E1,2.8E1,1.5E0,6.000001E0,-1.5503696E-1,-9.536743E-7,-6.1956686E-3,1.3823716E-1,1.0492449E-1,-3.4083243E-2,-1.9979011E-2,1.7499508E-1],"split_indices":[2000,0,2332,0,2485,1029,1666,0,0,3062,3062,296,2162,0,2930,0,0,0,0,0,0],"split_type":[0,0,0,0,0,0,0,0,0,0,0,0,0,0,0,0,0,0,0,0,0],"sum_hessian":[1.0001392E2,3.375396E0,9.663853E1,1.9141487E0,9.472438E1,4.372433E0,9.0351944E1,1.2131077E0,3.1593254E0,1.4119452E1,7.62325E1,6.4015326E0,7.71792E0,5.6277375E0,7.060476E1,1.0544378E0,5.347095E0,1.6641234E0,6.0537963E0,6.92396E1,1.3651593E0],"tree_param":{"num_deleted":"0","num_feature":"3089","num_nodes":"21","size_leaf_vector":"0"}},{"base_weights":[4.034176E-2,-6.534857E-1,8.2877E-2,-4.6317177E-3,-8.470537E-1,8.420074E-1,3.837214E-2,-4.2151165E-1,1.158422E-1,-8.457766E-1,2.6240668E-1,3.717101E-2,6.175368E-1,-1.7771555E-1,-9.322153E-1,7.185533E-1,-3.140338E-1,-8.282449E-1,1.0650273E-1,7.2267854E-1,-1.4358014E-1,2.2685345E-1,-6.5558E-1,-3.8511476E-1,2.2869794E-1,-5.6044478E-2,8.3300364E-1],"categories":[],"categories_nodes":[],"categories_segments":[],"categories_sizes":[],"default_left":[0,0,0,0,0,0,0,1,1,0,0,0,1,0,0,0,0,0,0,0,0,0,0,0,0,0,0],"id":40,"left_children":[1,3,5,-1,-1,-1,7,9,11,13,15,17,19,-1,-1,-1,21,-1,23,25,-1,-1,-1,-1,-1,-1,-1],"loss_changes":[2.965715E0,7.259643E-1,3.1382413E0,0E0,0E0,0E0,3.244435E0,4.0366926E0,3.0378072E0,3.165393E-1,1.7497863E0,4.174301E0,9.3986726E-1,0E0,0E0,0E0,7.503165E-1,0E0,3.9288957E0,8.495946E-1,0E0,0E0,0E0,0E0,0E0,0E0,0E0],"parents":[2147483647,0,0,1,1,2,2,6,6,7,7,8,8,9,9,10,10,11,11,12,12,16,16,18,18,19,19],"right_children":[2,4,6,-1,-1,-1,8,10,12,14,16,18,20,-1,-1,-1,22,-1,24,26,-1,-1,-1,-1,-1,-1,-1],"split_conditions":[9E0,1.5E0,1.5E0,-7.410748E-4,-1.355286E-1,1.3472117E-1,5E1,1.15E1,1.25E1,3.5E0,8.5E0,1.0000001E1,1.5E0,-2.8434489E-2,-1.4915444E-1,1.1496852E-1,1.6E1,-1.3251919E-1,4.2E1,2.8E1,-2.2972822E-2,3.629655E-2,-1.048928E-1,-6.161836E-2,3.659167E-2,-8.9671165E-3,1.3328058E-1],"split_indices":[2251,777,2144,0,0,0,1426,1029,0,2879,0,2340,1481,0,0,0,2340,0,1027,1142,0,0,0,0,0,0,0],"split_type":[0,0,0,0,0,0,0,0,0,0,0,0,0,0,0,0,0,0,0,0,0,0,0,0,0,0,0],"sum_hessian":[9.765628E1,4.8113284E0,9.2844955E1,1.3407993E0,3.4705293E0,4.149332E0,8.8695625E1,1.2146956E1,7.654867E1,7.35047E0,4.7964864E0,6.710065E1,9.448023E0,1.1922058E0,6.158264E0,2.5400047E0,2.256482E0,4.16507E0,6.2935574E1,8.345646E0,1.1023768E0,1.0033454E0,1.2531364E0,1.2100607E1,5.083497E1,1.0966951E0,7.248951E0],"tree_param":{"num_deleted":"0","num_feature":"3089","num_nodes":"27","size_leaf_vector":"0"}},{"base_weights":[3.270833E-2,1.0068756E0,4.122555E-3,8.485499E-1,-3.1278394E-2,-8.520193E-1,1.5172819E-2,7.1377647E-1,-3.3698115E-2,1.9101928E-1,7.8547305E-1,4.2838997E-1,-1.17067404E-1,-2.5819936E-1,5.313301E-1,2.1700358E-1,-2.7088252E-1],"categories":[],"categories_nodes":[],"categories_segments":[],"categories_sizes":[],"default_left":[0,0,0,0,0,0,0,0,0,0,0,0,0,0,0,0,0],"id":41,"left_children":[1,-1,3,-1,5,-1,7,9,11,-1,-1,13,15,-1,-1,-1,-1],"loss_changes":[2.655748E0,0E0,2.830506E0,0E0,3.4818196E0,0E0,2.9976823E0,6.5080404E-2,3.2228985E0,0E0,0E0,1.0420337E0,3.6842818E0,0E0,0E0,0E0,0E0],"parents":[2147483647,0,0,2,2,4,4,6,6,7,7,8,8,11,11,12,12],"right_children":[2,-1,4,-1,6,-1,8,10,12,-1,-1,14,16,-1,-1,-1,-1],"split_conditions":[1.1E1,1.611001E-1,8.000001E0,1.3576798E-1,1.6E1,-1.3632308E-1,5E0,1.25E1,1.5E0,3.0563084E-2,1.2567568E-1,1.5E0,1.5E0,-4.1311897E-2,8.5012816E-2,3.4720574E-2,-4.33412E-2],"split_indices":[2332,0,236,0,1140,0,1286,2671,1666,0,0,1426,15,0,0,0,0],"split_type":[0,0,0,0,0,0,0,0,0,0,0,0,0,0,0,0,0],"sum_hessian":[9.451721E1,1.7188257E0,9.2798386E1,2.8096411E0,8.998875E1,3.8913155E0,8.609743E1,4.739634E0,8.1357796E1,1.0135885E0,3.7260456E0,1.1802427E1,6.955537E1,1.3421715E0,1.0460256E1,2.1799099E1,4.7756268E1],"tree_param":{"num_deleted":"0","num_feature":"3089","num_nodes":"17","size_leaf_vector":"0"}},{"base_weights":[3.2413233E-2,7.895725E-1,-3.9287745E-3,7.364046E-1,-4.5755584E-2,-7.608145E-2,1.0388179E0,3.8578328E-1,-1.5791038E-1,7.649097E-1,1.4621975E-1,8.419366E-1,-2.1294266E-1,-4.5345315E-1,3.5192174E-1,5.860731E-1,-2.8142297E-1],"categories":[],"categories_nodes":[],"categories_segments":[],"categories_sizes":[],"default_left":[0,0,0,0,1,0,0,0,0,0,0,0,0,0,0,0,0],"id":42,"left_children":[1,-1,3,-1,5,7,-1,9,11,-1,13,-1,15,-1,-1,-1,-1],"loss_changes":[2.570078E0,0E0,2.8209395E0,0E0,2.9121864E0,3.2630944E0,0E0,1.0727266E0,4.178691E0,0E0,1.297959E0,0E0,3.9782152E0,0E0,0E0,0E0,0E0],"parents":[2147483647,0,0,2,2,4,4,5,5,7,7,8,8,10,10,12,12],"right_children":[2,-1,4,-1,6,8,-1,10,12,-1,14,-1,16,-1,-1,-1,-1],"split_conditions":[4.000001E0,1.263316E-1,1.0000001E1,1.1782473E-1,-9.536743E-7,1.8E1,1.6621086E-1,1.8E1,1.0000001E1,1.2238555E-1,2.000001E0,1.3470985E-1,1.5E0,-7.25525E-2,5.6307476E-2,9.3771696E-2,-4.5027673E-2],"split_indices":[2087,0,1581,0,511,2162,0,2879,3014,0,102,0,2614,0,0,0,0],"split_type":[0,0,0,0,0,0,0,0,0,0,0,0,0,0,0,0,0],"sum_hessian":[9.228797E1,3.2774992E0,8.9010475E1,3.8719006E0,8.513857E1,8.372732E1,1.4112562E0,1.2042374E1,7.1684944E1,3.8138123E0,8.228561E0,2.9937856E0,6.8691154E1,1.7940466E0,6.434515E0,4.825842E0,6.3865314E1],"tree_param":{"num_deleted":"0","num_feature":"3089","num_nodes":"17","size_leaf_vector":"0"}},{"base_weights":[3.6676235E-2,8.8944066E-1,3.1994325E-3,-2.5937444E-2,1.03008E0,8.4833604E-1,-6.2764086E-2,5.7327557E-1,-1.1921136E-1,7.518009E-1,-1.726804E-1,6.848242E-1,-1.7005546E-1,2.2281638E-1,8.1729364E-1,3.2553613E-1,-2.6886266E-1],"categories":[],"categories_nodes":[],"categories_segments":[],"categories_sizes":[],"default_left":[0,0,1,0,0,0,0,0,0,0,0,0,0,0,0,0,0],"id":43,"left_children":[1,-1,3,5,-1,-1,7,9,11,13,-1,-1,15,-1,-1,-1,-1],"loss_changes":[2.589027E0,0E0,2.670596E0,2.8511896E0,0E0,0E0,3.0956757E0,1.0680768E0,3.31638E0,2.1316051E-2,0E0,0E0,3.7317607E0,0E0,0E0,0E0,0E0],"parents":[2147483647,0,0,2,2,3,