{"learner":{"attributes":{"best_iteration":"99","best_ntree_limit":"100","scikit_learn":"{\"use_label_encoder\": null, \"n_estimators\": 100, \"objective\": \"binary:logistic\", \"max_depth\": null, \"max_leaves\": null, \"max_bin\": null, \"grow_policy\": null, \"learning_rate\": 0.26, \"verbosity\": 0, \"booster\": null, \"tree_method\": null, \"gamma\": null, \"min_child_weight\": null, \"max_delta_step\": null, \"subsample\": null, \"sampling_method\": null, \"colsample_bytree\": null, \"colsample_bylevel\": null, \"colsample_bynode\": null, \"reg_alpha\": null, \"reg_lambda\": null, \"scale_pos_weight\": null, \"base_score\": null, \"missing\": NaN, \"num_parallel_tree\": null, \"random_state\": null, \"n_jobs\": -1, \"monotone_constraints\": null, \"interaction_constraints\": null, \"importance_type\": null, \"gpu_id\": null, \"validate_parameters\": true, \"predictor\": null, \"enable_categorical\": false, \"feature_types\": null, \"max_cat_to_onehot\": null, \"max_cat_threshold\": null, \"eval_metric\": null, \"early_stopping_rounds\": null, \"callbacks\": null, \"classes_\": [0, 1], \"n_classes_\": 2, \"_estimator_type\": \"classifier\"}"},"feature_names":[],"feature_types":[],"gradient_booster":{"model":{"gbtree_model_param":{"num_parallel_tree":"1","num_trees":"100","size_leaf_vector":"0"},"tree_info":[0,0,0,0,0,0,0,0,0,0,0,0,0,0,0,0,0,0,0,0,0,0,0,0,0,0,0,0,0,0,0,0,0,0,0,0,0,0,0,0,0,0,0,0,0,0,0,0,0,0,0,0,0,0,0,0,0,0,0,0,0,0,0,0,0,0,0,0,0,0,0,0,0,0,0,0,0,0,0,0,0,0,0,0,0,0,0,0,0,0,0,0,0,0,0,0,0,0,0,0],"trees":[{"base_weights":[-0E0,1.4770515E0,-9.7880185E-1,1.9763314E0,1.0287206E0,1.8683127E0,-1.3350595E0,1.9514563E0,-4.4692736E-2,-1E0,1.9330544E0,1.6065574E0,-1.5300606E0,1.9607843E0,5E-1,1.4523809E0,-1.3402061E0,-1E0,1.7288135E0,1.9058824E0,-1.6951501E0,1.670886E0,-1.4285715E0,1.6521739E0,-1.7028571E0,1.8490566E0,5E-1,1.7073171E0,-1.7734513E0,-1E0,1.7662338E0,1.4666667E0,-1.9512196E0,7.692308E-1,1.9175258E0,1.3333334E0,-1E0,3.529412E-1,-1.8349514E0],"categories":[],"categories_nodes":[],"categories_segments":[],"categories_sizes":[],"default_left":[0,0,0,0,0,0,0,1,0,0,0,0,0,0,0,1,0,0,0,0,0,1,0,0,0,1,0,0,0,0,0,0,0,0,0,0,0,0,0],"id":0,"left_children":[1,3,5,-1,7,9,11,13,15,-1,-1,17,19,-1,-1,21,23,-1,25,-1,27,29,-1,-1,31,33,35,-1,37,-1,-1,-1,-1,-1,-1,-1,-1,-1,-1],"loss_changes":[1.3040581E3,7.843829E1,5.527556E2,0E0,1.8976352E2,1.3214279E1,2.793725E2,4.1415405E-1,1.7552988E2,0E0,0E0,1.1448181E1,2.6033142E2,0E0,0E0,2.8826103E1,5.54451E1,0E0,3.4342804E0,0E0,1.18386475E2,1.1825417E1,0E0,0E0,3.7301376E1,4.8425293E-1,6.3333335E0,0E0,5.6062866E1,0E0,0E0,0E0,0E0,0E0,0E0,0E0,0E0,0E0,0E0],"parents":[2147483647,0,0,1,1,2,2,4,4,5,5,6,6,7,7,8,8,11,11,12,12,15,15,16,16,18,18,20,20,21,21,24,24,25,25,26,26,28,28],"right_children":[2,4,6,-1,8,10,12,14,16,-1,-1,18,20,-1,-1,22,24,-1,26,-1,28,30,-1,-1,32,34,36,-1,38,-1,-1,-1,-1,-1,-1,-1,-1,-1,-1],"split_conditions":[1.05E1,1.6E1,6.000001E0,5.1384616E-1,1.0000001E1,4.000001E0,6.000001E0,1.9E1,3.5E0,-2.6E-1,5.025941E-1,2.000001E0,2.000001E0,5.098039E-1,1.3E-1,1.5E0,2.000001E0,-2.6E-1,1.25E1,4.9552938E-1,2.000001E0,1.5E0,-3.7142858E-1,4.295652E-1,6.000001E0,2E0,1.5E0,4.4390243E-1,1.5E0,-2.6E-1,4.5922077E-1,3.8133332E-1,-5.0731707E-1,2E-1,4.9855667E-1,3.4666666E-1,-2.6E-1,9.17647E-2,-4.7708735E-1],"split_indices":[2796,2394,2394,0,2588,2629,2588,0,2407,0,0,1856,1334,0,0,2629,1075,0,0,0,1571,1025,0,0,1558,14,1025,0,1980,0,0,0,0,0,0,0,0,0,0],"split_type":[0,0,0,0,0,0,0,0,0,0,0,0,0,0,0,0,0,0,0,0,0,0,0,0,0,0,0,0,0,0,0,0,0,0,0,0,0,0,0],"sum_hessian":[9E2,3.585E2,5.415E2,1.68E2,1.905E2,5.975E1,4.8175E2,1.02E2,8.85E1,1E0,5.875E1,2.95E1,4.5225E2,1.01E2,1E0,4.1E1,4.75E1,1E0,2.85E1,2.025E1,4.32E2,3.85E1,2.5E0,4.75E0,4.275E1,2.55E1,3E0,9.25E0,4.2275E2,1E0,3.75E1,2.75E0,4E1,2.25E0,2.325E1,2E0,1E0,1.175E1,4.11E2],"tree_param":{"num_deleted":"0","num_feature":"3061","num_nodes":"39","size_leaf_vector":"0"}},{"base_weights":[3.439132E-3,1.1754464E0,-7.679579E-1,1.5754718E0,8.1777024E-1,1.4838456E0,-1.0479571E0,5.1794505E-1,1.5816388E0,1.5558981E0,-3.4531217E-2,1.5236719E0,4.7268182E-1,1.2767935E0,-1.202634E0,1.5657312E0,5.2000016E-1,1.1316035E0,-1.0536879E0,1.5272049E0,6.4447963E-1,1.5290108E0,-1.3333231E0,1.312996E0,-1.1950507E0,1.3526776E0,-1.351645E0,-1.1009539E0,1.078256E0,1.7852192E0,-1.4022781E0,4.251698E-1,1.483003E0,1.2221711E0,-1.560531E0,3.617968E-1,1.299224E0,2.3181157E-1,-1.4878273E0],"categories":[],"categories_nodes":[],"categories_segments":[],"categories_sizes":[],"default_left":[0,0,0,0,0,1,0,0,0,1,0,0,0,0,0,0,0,1,0,0,0,0,0,1,0,0,0,0,0,0,0,0,0,0,0,0,0,0,0],"id":1,"left_children":[1,3,5,7,9,11,13,-1,-1,15,17,-1,-1,19,21,-1,-1,23,25,-1,27,-1,29,31,-1,-1,33,-1,35,-1,37,-1,-1,-1,-1,-1,-1,-1,-1],"loss_changes":[7.6940497E2,4.7043915E1,3.2515118E2,2.137146E-1,1.1355701E2,1.5822372E0,1.6588785E2,0E0,0E0,1.7088318E-1,1.0187046E2,0E0,0E0,3.6073112E0,1.5521246E2,0E0,0E0,1.8446156E1,3.461118E1,0E0,8.72535E0,0E0,9.0670654E1,5.0407257E0,0E0,0E0,2.4049805E1,0E0,8.7240887E-1,0E0,5.6500122E1,0E0,0E0,0E0,0E0,0E0,0E0,0E0,0E0],"parents":[2147483647,0,0,1,1,2,2,3,3,4,4,5,5,6,6,9,9,10,10,13,13,14,14,17,17,18,18,20,20,22,22,23,23,26,26,28,28,30,30],"right_children":[2,4,6,8,10,12,14,-1,-1,16,18,-1,-1,20,22,-1,-1,24,26,-1,28,-1,30,32,-1,-1,34,-1,36,-1,38,-1,-1,-1,-1,-1,-1,-1,-1],"split_conditions":[1.05E1,1.6E1,6.000001E0,4.000001E0,1.0000001E1,1.4E1,6.000001E0,1.3466571E-1,4.1122606E-1,3.5E0,3.5E0,3.9615467E-1,1.2289727E-1,4.000001E0,2.000001E0,4.070901E-1,1.3520004E-1,1.5E0,2.000001E0,3.9707324E-1,8.5E0,3.9754277E-1,4.000001E0,2.5E0,-3.1071317E-1,3.5169616E-1,6.000001E0,-2.86248E-1,2.000001E0,4.64157E-1,2.5E0,1.10544145E-1,3.8558078E-1,3.1776446E-1,-4.0573806E-1,9.4067164E-2,3.3779824E-1,6.0271006E-2,-3.868351E-1],"split_indices":[2796,2394,2394,2680,2588,14,2588,0,0,2407,2407,0,0,3018,1334,0,0,2629,1075,0,14,0,516,1025,0,0,1558,0,953,0,991,0,0,0,0,0,0,0,0],"split_type":[0,0,0,0,0,0,0,0,0,0,0,0,0,0,0,0,0,0,0,0,0,0,0,0,0,0,0,0,0,0,0,0,0,0,0,0,0,0,0],"sum_hessian":[8.4903516E2,3.368003E2,5.1223486E2,1.5738077E2,1.7941954E2,5.6174E1,4.5606085E2,1.4051855E0,1.5597559E2,9.570745E1,8.371208E1,5.35577E1,2.6162992E0,2.7998383E1,4.2806247E2,9.430084E1,1.4066088E0,3.898944E1,4.4722645E1,1.904202E1,8.956361E0,1.9056065E1,4.090064E2,3.657372E1,2.4157202E0,4.537442E0,4.0185204E1,1.4766273E0,7.4797335E0,8.309574E0,4.0069684E2,6.440488E0,3.013323E1,2.652401E0,3.7532803E1,2.3847675E0,5.094966E0,1.9848946E1,3.808479E2],"tree_param":{"num_deleted":"0","num_feature":"3061","num_nodes":"39","size_leaf_vector":"0"}},{"base_weights":[7.863584E-3,1.0193415E0,-6.4501226E-1,1.3730875E0,7.0634216E-1,1.2781979E0,-8.810257E-1,5.024486E-1,1.3799417E0,1.3517213E0,-2.56204E-2,2.0389692E-1,1.3075113E0,1.087244E0,-1.0129355E0,1.360933E0,4.5225424E-1,9.458664E-1,-8.9982975E-1,1.3395637E0,3.4913602E-1,1.3286754E0,5.219907E-1,-1.1217544E0,1.5493752E0,1.10668E0,-1.0394713E0,1.1715875E0,-1.1668606E0,4.9698538E-1,1.3591537E0,-9.590955E-1,9.0009785E-1,1.4693406E0,-1.1815383E0,1.3924612E0,5.0992393E-1,1.0617964E0,-1.3597127E0,2.9945263E-1,1.0942328E0,2.510117E-1,-1.273331E0],"categories":[],"categories_nodes":[],"categories_segments":[],"categories_sizes":[],"default_left":[0,0,0,0,0,0,0,0,0,1,0,0,1,0,1,0,0,1,0,0,0,0,0,0,0,0,0,0,0,0,0,0,0,0,0,0,0,0,0,0,0,0,0],"id":2,"left_children":[1,3,5,7,9,11,13,-1,-1,15,17,-1,19,21,23,-1,-1,25,27,29,-1,-1,31,33,-1,35,-1,-1,37,-1,-1,-1,39,-1,41,-1,-1,-1,-1,-1,-1,-1,-1],"loss_changes":[4.9781522E2,3.1771484E1,2.0907774E2,1.2875366E-1,7.5120926E1,1.3232422E0,1.072023E2,0E0,0E0,8.454895E-2,6.493779E1,0E0,1.0362549E0,2.8750648E0,1.08670135E2,0E0,0E0,1.2717125E1,2.3620098E1,1.0067749E-1,0E0,0E0,6.168428E0,5.881305E1,0E0,5.0881157E0,0E0,0E0,1.6975842E1,0E0,0E0,0E0,6.1247635E-1,0E0,4.77518E1,0E0,0E0,0E0,0E0,0E0,0E0,0E0,0E0],"parents":[2147483647,0,0,1,1,2,2,3,3,4,4,5,5,6,6,9,9,10,10,12,12,13,13,14,14,17,17,18,18,19,19,22,22,23,23,25,25,28,28,32,32,34,34],"right_children":[2,4,6,8,10,12,14,-1,-1,16,18,-1,20,22,24,-1,-1,26,28,30,-1,-1,32,34,-1,36,-1,-1,38,-1,-1,-1,40,-1,42,-1,-1,-1,-1,-1,-1,-1,-1],"split_conditions":[1.05E1,1.6E1,6.000001E0,3.5E0,1.0000001E1,4.000001E0,6.000001E0,1.3063663E-1,3.5878482E-1,3.5E0,3.5E0,5.3013198E-2,4.5E0,4.000001E0,-9.536743E-7,3.5384256E-1,1.175861E-1,1.5E0,2.000001E0,2.000001E0,9.077536E-2,3.454556E-1,8.5E0,4.000001E0,4.0283754E-1,1.6E1,-2.702625E-1,3.0461273E-1,6.000001E0,1.292162E-1,3.5337996E-1,-2.4936481E-1,2.000001E0,3.8202852E-1,2.5E0,3.620399E-1,1.3258022E-1,2.7606705E-1,-3.5352528E-1,7.785768E-2,2.845005E-1,6.526304E-2,-3.3106607E-1],"split_indices":[2796,2394,2394,1823,2588,2056,2588,0,0,2407,2407,0,1023,3018,147,0,0,2629,1075,2397,0,0,14,516,0,3034,0,0,1558,0,0,0,953,0,991,0,0,0,0,0,0,0,0],"split_type":[0,0,0,0,0,0,0,0,0,0,0,0,0,0,0,0,0,0,0,0,0,0,0,0,0,0,0,0,0,0,0,0,0,0,0,0,0,0,0,0,0,0,0],"sum_hessian":[7.518477E2,2.9470703E2,4.571407E2,1.3675838E2,1.5794865E2,4.948498E1,4.076557E2,1.6486355E0,1.3510974E2,8.34889E1,7.4459755E1,1.5257015E0,4.7959282E1,2.5149502E1,3.825062E2,8.21347E1,1.3542016E0,3.522885E1,3.9230904E1,4.6022346E1,1.9369351E0,1.6676178E1,8.473323E0,3.6746265E2,1.5043571E1,3.2998524E1,2.2303293E0,4.093016E0,3.5137886E1,1.64487E0,4.4377476E1,1.4107383E0,7.062585E0,7.755464E0,3.5970718E2,2.141141E1,1.1587114E1,2.4395814E0,3.2698303E1,2.346161E0,4.716424E0,2.1556362E1,3.3815082E2],"tree_param":{"num_deleted":"0","num_feature":"3061","num_nodes":"43","size_leaf_vector":"0"}},{"base_weights":[1.2434267E-2,9.213013E-1,-5.584237E-1,1.2504994E0,6.3436496E-1,1.1451647E0,-7.6414347E-1,2.9701647E-1,1.2578739E0,1.2254258E0,-1.8521424E-2,1.1924573E0,2.2130305E-1,-1.158903E0,-1.9517858E-1,5.945074E-1,1.2481897E0,8.112133E-1,-7.9986525E-1,4.3402433E-1,1.2113137E0,8.963907E-1,-1.2569414E0,9.0214837E-1,-5.7373416E-1,8.363091E-1,7.952343E-2,1.262566E0,3.1788984E-1,9.572051E-1,-9.2524755E-1,1.0458809E0,-1.0500553E0,1.7890666E0,-1.1225734E0,6.5426064E-1,-1.2969937E0,1.4277489E0,-7.0255786E-2,1.2766126E0,-8.670167E-1,1.0547446E-1,1.1524119E0,9.450798E-1,-1.2367266E0,8.479496E-1,2.9174694E-1,1.7593874E-1,-1.3071367E0,2.040915E0,8.477358E-1,1.131375E0,-8.9961386E-1,1.1772051E0,-1.0588497E0],"categories":[],"categories_nodes":[],"categories_segments":[],"categories_sizes":[],"default_left":[0,0,0,0,0,1,1,0,0,0,0,0,0,0,0,0,1,1,0,0,0,0,0,0,0,0,0,0,0,1,0,0,0,0,0,0,0,0,0,0,0,0,0,0,0,0,0,0,0,0,0,0,0,0,0],"id":3,"left_children":[1,3,5,7,9,11,13,-1,-1,15,17,19,-1,21,23,25,27,29,31,-1,-1,33,35,37,39,-1,-1,-1,-1,41,-1,-1,43,-1,-1,45,47,49,51,-1,53,-1,-1,-1,-1,-1,-1,-1,-1,-1,-1,-1,-1,-1,-1],"loss_changes":[3.364313E2,2.2835922E1,1.4046138E2,4.3830872E-1,5.2383095E1,1.6285896E0,7.972797E1,0E0,0E0,2.8094482E-1,4.3084488E1,6.0295105E-2,0E0,4.3433228E1,6.158866E1,4.8014987E-1,5.0593567E-1,9.059145E0,1.6898064E1,0E0,0E0,2.028877E1,1.6220764E1,1.9572033E1,6.07575E1,0E0,0E0,0E0,0E0,4.905012E0,0E0,0E0,1.2576244E1,0E0,0E0,8.8715315E-2,3.173584E0,7.081833E0,1.528928E1,0E0,3.8687546E1,0E0,0E0,0E0,0E0,0E0,0E0,0E0,0E0,0E0,0E0,0E0,0E0,0E0,0E0],"parents":[2147483647,0,0,1,1,2,2,3,3,4,4,5,5,6,6,9,9,10,10,11,11,13,13,14,14,15,15,16,16,17,17,18,18,21,21,22,22,23,23,24,24,29,29,32,32,35,35,36,36,37,37,38,38,40,40],"right_children":[2,4,6,8,10,12,14,-1,-1,16,18,20,-1,22,24,26,28,30,32,-1,-1,34,36,38,40,-1,-1,-1,-1,42,-1,-1,44,-1,-1,46,48,50,52,-1,54,-1,-1,-1,-1,-1,-1,-1,-1,-1,-1,-1,-1,-1,-1],"split_conditions":[1.05E1,1.6E1,6.000001E0,4.000001E0,1.0000001E1,1.4E1,2.5E0,7.722428E-2,3.270472E-1,1.6E1,3.5E0,2.000001E0,5.753879E-2,1.5E0,7E0,1.9E1,-9.536743E-7,1.5E0,2.000001E0,1.1284632E-1,3.1494156E-1,6.000001E0,1.5E0,5.5E0,2.000001E0,2.1744035E-1,2.0676091E-2,3.2826713E-1,8.2651354E-2,2.5E0,-2.4056436E-1,2.7192903E-1,6.000001E0,4.651573E-1,-2.9186907E-1,2.000001E0,2.000001E0,2.5E0,6.000001E0,3.3191928E-1,3E0,2.7423358E-2,2.996271E-1,2.4572074E-1,-3.215489E-1,2.204669E-1,7.5854205E-2,4.5744073E-2,-3.3985552E-1,5.3063786E-1,2.204113E-1,2.9415748E-1,-2.338996E-1,3.060733E-1,-2.7530092E-1],"split_indices":[2796,2394,2394,2680,2588,14,1025,0,0,1023,2407,2397,0,1980,2407,0,505,2629,1075,0,0,14,2588,14,1334,0,0,0,0,1025,0,0,1558,0,0,991,2090,0,1908,0,1150,0,0,0,0,0,0,0,0,0,0,0,0,0,0],"split_type":[0,0,0,0,0,0,0,0,0,0,0,0,0,0,0,0,0,0,0,0,0,0,0,0,0,0,0,0,0,0,0,0,0,0,0,0,0,0,0,0,0,0,0,0,0,0,0,0,0,0,0,0,0,0,0],"sum_hessian":[6.464457E2,2.491532E2,3.9729248E2,1.144678E2,1.346854E2,4.2314518E1,3.5497794E2,1.1953312E0,1.1327246E2,7.022945E1,6.4455956E1,3.997735E1,2.3371716E0,2.0896019E2,1.4601776E2,3.3899643E0,6.683948E1,3.1241428E1,3.3214527E1,1.5524619E0,3.8424885E1,9.142934E0,1.9981726E2,3.709797E1,1.0891979E2,1.88224E0,1.5077244E0,6.547058E1,1.3689018E0,2.9232487E1,2.0089414E0,3.5851529E0,2.9629374E1,6.4187713E0,2.724162E0,3.7867618E0,1.9603049E2,2.3777546E1,1.3320424E1,1.4443235E1,9.4476555E1,5.7377462E0,2.349474E1,2.1874294E0,2.7441944E1,1.5953122E0,2.1914496E0,1.2288808E0,1.948016E2,1.033406E1,1.3443486E1,5.2907157E0,8.029709E0,7.66455E0,8.6812004E1],"tree_param":{"num_deleted":"0","num_feature":"3061","num_nodes":"55","size_leaf_vector":"0"}},{"base_weights":[1.5074611E-2,8.530801E-1,-4.9658954E-1,1.1684067E0,5.833726E-1,1.0448977E0,-6.802427E-1,2.715531E-1,1.1781678E0,1.1398779E0,-1.4212492E-2,1.1195126E0,3.4281224E-1,-1.0648509E0,-1.6208626E-1,1.154254E0,2.8069863E-1,7.0407444E-1,-7.264197E-1,3.7978017E-1,1.1421716E0,8.2267857E-1,-1.1593746E-1,6.8789136E-1,-1.1634065E0,7.373619E-1,-4.9442652E-1,3.783105E-1,1.169186E0,8.390443E-1,-8.354519E-1,9.499863E-1,-9.671966E-1,4.7234988E-1,1.171895E0,1.3712353E0,-9.9338424E-1,5.7404435E-1,-1.2054036E0,-1.0369309E0,9.3913895E-1,1.1690166E0,-7.476292E-1,1.1853033E0,2.78722E-1,1.1856318E0,2.1650313E-1,8.537323E-1,-1.1531446E0,1.532031E0,3.1258276E-1,8.30461E-1,1.9288757E-1,1.5039884E-1,-1.2167327E0,-9.508175E-1,1.0832274E0,1.4118761E0,-8.8551164E-1],"categories":[],"categories_nodes":[],"categories_segments":[],"categories_sizes":[],"default_left":[0,0,0,0,0,1,1,0,0,1,0,0,0,0,0,0,0,1,0,0,0,0,0,0,0,1,0,0,1,0,0,0,0,0,0,0,0,0,0,0,0,0,0,0,0,0,0,0,0,0,0,0,0,0,0,0,0,0,0],"id":4,"left_children":[1,3,5,7,9,11,13,-1,-1,15,17,19,21,23,25,27,-1,29,31,-1,33,-1,-1,35,37,39,41,-1,43,45,-1,-1,47,-1,-1,49,-1,51,53,-1,55,-1,57,-1,-1,-1,-1,-1,-1,-1,-1,-1,-1,-1,-1,-1,-1,-1,-1],"loss_changes":[2.3482213E2,1.6974869E1,9.698027E1,5.092163E-1,3.7893776E1,1.5333138E0,6.050244E1,0E0,0E0,4.045868E-1,2.911288E1,1.1330032E-1,1.1866024E0,3.0956024E1,3.9490555E1,2.2618866E-1,0E0,6.5904865E0,1.2449036E1,0E0,6.7043304E-2,0E0,0E0,1.2761266E1,1.2778946E1,1.3760521E1,4.1381363E1,0E0,4.7517395E-1,5.4735813E0,0E0,0E0,9.609787E0,0E0,0E0,7.935028E-1,0E0,2.881143E-1,2.672287E0,0E0,9.905888E0,0E0,2.6285309E1,0E0,0E0,0E0,0E0,0E0,0E0,0E0,0E0,0E0,0E0,0E0,0E0,0E0,0E0,0E0,0E0],"parents":[2147483647,0,0,1,1,2,2,3,3,4,4,5,5,6,6,9,9,10,10,11,11,12,12,13,13,14,14,15,15,17,17,18,18,20,20,23,23,24,24,25,25,26,26,28,28,29,29,32,32,35,35,37,37,38,38,40,40,42,42],"right_children":[2,4,6,8,10,12,14,-1,-1,16,18,20,22,24,26,28,-1,30,32,-1,34,-1,-1,36,38,40,42,-1,44,46,-1,-1,48,-1,-1,50,-1,52,54,-1,56,-1,58,-1,-1,-1,-1,-1,-1,-1,-1,-1,-1,-1,-1,-1,-1,-1,-1],"split_conditions":[1.05E1,1.6E1,6.000001E0,2.000001E0,1.0000001E1,8.5E0,2.5E0,7.06038E-2,3.0632362E-1,1.7E1,3.5E0,2.000001E0,6.000001E0,1.5E0,7E0,8.000001E0,7.298164E-2,1.5E0,2.000001E0,9.874284E-2,2.000001E0,2.1389642E-1,-3.0143738E-2,6.000001E0,1.5E0,2.5E0,2.000001E0,9.8360725E-2,-9.536743E-7,1.6E1,-2.1721749E-1,2.4699642E-1,6.000001E0,1.2281097E-1,3.046927E-1,1.5E0,-2.582799E-1,2.000001E0,2.000001E0,-2.6960203E-1,2.6E1,3.0394432E-1,2.5E0,3.0817884E-1,7.2467715E-2,3.0826426E-1,5.6290813E-2,2.2197038E-1,-2.998176E-1,3.9832807E-1,8.1271514E-2,2.1591985E-1,5.0150767E-2,3.9103694E-2,-3.163505E-1,-2.4721254E-1,2.816391E-1,3.6708778E-1,-2.3023301E-1],"split_indices":[2796,2394,2394,2674,2588,1025,1025,0,0,0,2407,2397,21,1980,2407,2489,0,2629,1075,0,1516,0,0,14,2588,14,1334,0,505,3034,0,0,1558,0,0,14,0,1127,2090,0,2224,0,1376,0,0,0,0,0,0,0,0,0,0,0,0,0,0,0,0],"split_type":[0,0,0,0,0,0,0,0,0,0,0,0,0,0,0,0,0,0,0,0,0,0,0,0,0,0,0,0,0,0,0,0,0,0,0,0,0,0,0,0,0,0,0,0,0,0,0,0,0,0,0,0,0,0,0,0,0,0,0],"sum_hessian":[5.456671E2,2.0661122E2,3.390559E2,9.371401E1,1.1289721E2,3.559562E1,3.0346027E2,1.3192604E0,9.239475E1,5.7988E1,5.490921E1,3.1638638E1,3.9569833E0,1.7357037E2,1.2988991E2,5.669591E1,1.2920899E0,2.7343605E1,2.7565605E1,1.4681956E0,3.0170443E1,1.5462509E0,2.4107323E0,8.9218445E0,1.6464853E2,3.4715885E1,9.517403E1,1.5676689E0,5.5128242E1,2.5557947E1,1.7856588E0,3.092011E0,2.4473595E1,1.9996448E0,2.8170797E1,6.474665E0,2.447179E0,3.586895E0,1.6106163E2,3.1222143E0,3.159367E1,1.2095353E1,8.3078674E1,5.3822945E1,1.3052958E0,1.5836682E1,9.721264E0,1.9348627E0,2.253873E1,5.2327285E0,1.2419366E0,1.4396225E0,2.1472726E0,1.2329726E0,1.5982866E2,1.8414311E0,2.9752237E1,4.4315944E0,7.864708E1],"tree_param":{"num_deleted":"0","num_feature":"3061","num_nodes":"59","size_leaf_vector":"0"}},{"base_weights":[1.7962327E-2,7.999835E-1,-4.470312E-1,1.1087062E0,5.42304E-1,9.6674937E-1,-6.150182E-1,1.3988437E-1,1.1196653E0,1.0741156E0,-8.740874E-3,1.0275685E0,1.0026523E-1,-9.9621034E-1,-1.384823E-1,4.2366213E-1,1.1056736E0,1.0075852E0,-4.3684384E-1,2.527444E-1,1.0543001E0,5.7598925E-1,-1.0964968E0,5.98796E-1,-4.2328203E-1,7.2155493E-1,-7.6065496E-2,1.1244674E0,2.4446405E-1,1.1211829E0,3.1099215E-1,5.142062E-1,-1.011812E0,3.3270204E-1,1.080072E0,1.1533237E0,-8.946104E-1,5.049476E-1,-1.1420575E0,1.0008407E0,-1.7296365E-1,1.0890954E0,-6.421291E-1,-3.5906926E-1,9.4609386E-1,-1.3157912E0,9.017271E-1,4.1568506E-1,1.113379E0,1.2979069E0,2.6671588E-1,7.5060254E-1,1.4352123E-1,1.2860794E-1,-1.1551347E0,1.3535962E0,5.787473E-1,9.463709E-1,-7.986692E-1,-7.6970625E-1,1.6393994E0],"categories":[],"categories_nodes":[],"categories_segments":[],"categories_sizes":[],"default_left":[0,0,0,0,0,1,1,0,0,0,0,0,0,0,0,0,1,0,0,0,0,0,0,0,0,0,0,0,0,0,0,0,1,0,0,0,0,0,0,0,0,0,1,0,0,0,0,0,0,0,0,0,0,0,0,0,0,0,0,0,0],"id":5,"left_children":[1,3,5,7,9,11,13,-1,-1,15,17,19,-1,21,23,25,27,29,31,-1,33,35,37,39,41,-1,-1,-1,-1,-1,-1,43,45,-1,47,49,-1,51,53,55,57,-1,59,-1,-1,-1,-1,-1,-1,-1,-1,-1,-1,-1,-1,-1,-1,-1,-1,-1,-1],"loss_changes":[1.6652515E2,1.2982422E1,6.88059E1,6.5799713E-1,2.7857553E1,1.5248928E0,4.6604378E1,0E0,0E0,5.2437973E-1,2.1177534E1,3.2915115E-1,0E0,2.314679E1,2.4509777E1,6.293834E-1,4.6165085E-1,7.9307747E-1,1.9239916E1,0E0,1.5175247E-1,8.858297E0,1.0396118E1,1.0289312E1,2.847375E1,0E0,0E0,0E0,0E0,0E0,0E0,5.454488E0,1.3792585E1,0E0,1.1451912E-1,5.583687E-1,0E0,2.843789E-1,2.3280945E0,2.4303074E0,9.174144E0,0E0,2.2782759E1,0E0,0E0,0E0,0E0,0E0,0E0,0E0,0E0,0E0,0E0,0E0,0E0,0E0,0E0,0E0,0E0,0E0,0E0],"parents":[2147483647,0,0,1,1,2,2,3,3,4,4,5,5,6,6,9,9,10,10,11,11,13,13,14,14,15,15,16,16,17,17,18,18,20,20,21,21,22,22,23,23,24,24,31,31,32,32,34,34,35,35,37,37,38,38,39,39,40,40,42,42],"right_children":[2,4,6,8,10,12,14,-1,-1,16,18,20,-1,22,24,26,28,30,32,-1,34,36,38,40,42,-1,-1,-1,-1,-1,-1,44,46,-1,48,50,-1,52,54,56,58,-1,60,-1,-1,-1,-1,-1,-1,-1,-1,-1,-1,-1,-1,-1,-1,-1,-1,-1,-1],"split_conditions":[1.05E1,1.6E1,6.000001E0,4.000001E0,1.0000001E1,1.4E1,2.5E0,3.6369935E-2,2.9111296E-1,1.6E1,1.2000001E1,2.000001E0,2.6068958E-2,1.5E0,7E0,1.9E1,-9.536743E-7,1.0000001E1,4.5E0,6.571354E-2,2.000001E0,6.000001E0,1.5E0,5.5E0,2.000001E0,1.8760428E-1,-1.9777028E-2,2.923615E-1,6.356065E-2,2.9150754E-1,8.0857955E-2,1.8E1,-9.536743E-7,8.650253E-2,2.000001E0,1.5E0,-2.3259869E-1,2.000001E0,2.000001E0,2.5E0,6.000001E0,2.8316477E-1,1.5E0,-9.3358E-2,2.4598439E-1,-3.4210572E-1,2.3444903E-1,1.08078115E-1,2.8947854E-1,3.3745578E-1,6.934613E-2,1.9515665E-1,3.731552E-2,3.3438064E-2,-3.0033502E-1,3.51935E-1,1.5047428E-1,2.4605642E-1,-2.0765398E-1,-2.0012362E-1,4.2624384E-1],"split_indices":[2796,2394,2394,2680,2588,14,1025,0,0,1023,2128,1629,0,1980,2407,0,505,1023,3034,0,2397,14,2588,14,1334,0,0,0,0,0,0,2857,2395,0,1516,14,0,991,2090,0,1908,0,214,0,0,0,0,0,0,0,0,0,0,0,0,0,0,0,0,0,0],"split_type":[0,0,0,0,0,0,0,0,0,0,0,0,0,0,0,0,0,0,0,0,0,0,0,0,0,0,0,0,0,0,0,0,0,0,0,0,0,0,0,0,0,0,0,0,0,0,0,0,0,0,0,0,0,0,0,0,0,0,0,0,0],"sum_hessian":[4.559627E2,1.6975319E2,2.8620953E2,7.572515E1,9.402804E1,2.9891066E1,2.5631845E2,1.0009606E0,7.472419E1,4.7366013E1,4.6662025E1,2.7756886E1,2.1341789E0,1.4179935E2,1.1451911E2,2.859181E0,4.4506832E1,1.3428607E1,3.3233418E1,1.2743523E0,2.6482534E1,8.218215E0,1.3358113E2,3.160328E1,8.291583E1,1.5132315E0,1.3459494E0,4.3257168E1,1.2496643E0,1.1021705E1,2.4069016E0,1.2561396E1,2.0672022E1,1.3928579E0,2.5089676E1,6.056338E0,2.1618774E0,3.4162998E0,1.3016483E2,2.0583546E1,1.1019733E1,9.978856E0,7.293698E1,4.2124467E0,8.3489485E0,1.8107841E1,2.5641809E0,1.8412867E0,2.3248388E1,4.808321E0,1.2480167E0,1.3928359E0,2.023464E0,1.2359629E0,1.2892886E2,1.0010565E1,1.0572981E1,3.7675028E0,7.2522306E0,6.970206E1,3.2349222E0],"tree_param":{"num_deleted":"0","num_feature":"3061","num_nodes":"61","size_leaf_vector":"0"}},{"base_weights":[2.3480278E-2,7.577854E-1,-3.9893115E-1,1.0627172E0,5.100059E-1,8.967179E-1,-5.521877E-1,8.350793E-2,1.0775293E0,1.0218307E0,-8.599314E-4,-1.4968193E-1,9.4806474E-1,-9.4254327E-1,-1.0803022E-1,1.0426648E0,1.35466E-1,9.2182565E-1,-3.9368463E-1,1.0087286E0,-1.0135938E-1,-1.0081865E0,1.2419063E0,1.7274345E-1,-7.6374924E-1,2.5904343E-1,1.0636908E0,1.5593778E-1,1.0339777E0,4.4259351E-1,-9.5059586E-1,2.9166088E-1,1.0382037E0,-1.0529858E0,8.7036574E-1,-3.984845E-1,4.74779E-1,1.255109E0,-1.1281407E0,1.086163E0,2.1446262E-1,1.0009596E0,-2.7609572E-1,-1.2558721E0,8.266645E-1,3.6553508E-1,1.0760701E0,4.4705573E-1,-1.1024373E0,9.6986353E-1,-7.5690573E-1,-9.806754E-1,6.092195E-1,2.290848E0,3.435899E-1],"categories":[],"categories_nodes":[],"categories_segments":[],"categories_sizes":[],"default_left":[0,0,0,0,0,0,1,0,0,1,0,0,1,1,0,0,0,0,0,0,0,1,0,1,0,0,1,0,0,0,1,0,0,0,0,0,0,0,0,0,0,0,0,0,0,0,0,0,0,0,0,0,0,0,0],"id":6,"left_children":[1,3,5,7,9,11,13,-1,-1,15,17,-1,19,21,23,25,-1,27,29,31,-1,33,-1,35,37,-1,39,-1,-1,41,43,-1,45,47,-1,49,51,53,-1,-1,-1,-1,-1,-1,-1,-1,-1,-1,-1,-1,-1,-1,-1,-1,-1],"loss_changes":[1.18573555E2,1.0004753E1,4.8689575E1,8.042679E-1,2.0640064E1,1.5417595E0,3.763555E1,0E0,0E0,5.869026E-1,1.5043437E1,0E0,1.6919727E0,1.7845055E1,1.9084457E1,3.5675812E-1,0E0,9.033518E-1,1.3977861E1,1.9807053E-1,0E0,1.0417213E1,0E0,1.2765701E1,2.42565E1,0E0,4.741516E-1,0E0,0E0,5.219634E0,1.069071E1,0E0,1.7649841E-1,8.705612E0,0E0,1.3365787E1,1.0016817E1,4.1415358E0,0E0,0E0,0E0,0E0,0E0,0E0,0E0,0E0,0E0,0E0,0E0,0E0,0E0,0E0,0E0,0E0,0E0],"parents":[2147483647,0,0,1,1,2,2,3,3,4,4,5,5,6,6,9,9,10,10,12,12,13,13,14,14,15,15,17,17,18,18,19,19,21,21,23,23,24,24,26,26,29,29,30,30,32,32,33,33,35,35,36,36,37,37],"right_children":[2,4,6,8,10,12,14,-1,-1,16,18,-1,20,22,24,26,-1,28,30,32,-1,34,-1,36,38,-1,40,-1,-1,42,44,-1,46,48,-1,50,52,54,-1,-1,-1,-1,-1,-1,-1,-1,-1,-1,-1,-1,-1,-1,-1,-1,-1],"split_conditions":[1.05E1,1.6E1,6.000001E0,1.5E0,1.0000001E1,4.000001E0,2.5E0,2.1712061E-2,2.801576E-1,1.7E1,1.2000001E1,-3.89173E-2,4.5E0,-9.536743E-7,8.5E0,8.000001E0,3.5221156E-2,5.5E0,4.5E0,2.000001E0,-2.635344E-2,-9.536743E-7,3.2289562E-1,2.5E0,5E0,6.735129E-2,-9.536743E-7,4.054382E-2,2.688342E-1,1.5E0,-9.536743E-7,7.583182E-2,2.000001E0,1.5E0,2.2629508E-1,2.000001E0,1.2000001E1,4.000001E0,-2.9331657E-1,2.8240237E-1,5.576028E-2,2.602495E-1,-7.1784884E-2,-3.2652673E-1,2.1493277E-1,9.5039114E-2,2.797782E-1,1.1623448E-1,-2.8663367E-1,2.521645E-1,-1.9679548E-1,-2.549756E-1,1.5839706E-1,5.9562045E-1,8.933337E-2],"split_indices":[2796,2394,2394,2857,2588,2056,1025,0,0,0,2128,0,1023,219,0,2489,0,14,3034,2397,0,147,0,14,2844,0,505,0,0,2407,2395,0,1516,2588,0,1334,2311,1552,0,0,0,0,0,0,0,0,0,0,0,0,0,0,0,0,0],"split_type":[0,0,0,0,0,0,0,0,0,0,0,0,0,0,0,0,0,0,0,0,0,0,0,0,0,0,0,0,0,0,0,0,0,0,0,0,0,0,0,0,0,0,0,0,0,0,0,0,0,0,0,0,0,0,0],"sum_hessian":[3.8030017E2,1.3858864E2,2.4171153E2,6.0654606E1,7.793403E1,2.5053675E1,2.1665787E2,1.0027372E0,5.965187E1,3.8430843E1,3.9503185E1,1.0823011E0,2.3971373E1,1.1471578E2,1.0194208E2,3.737598E1,1.0548654E0,1.1393926E1,2.8109259E1,2.269805E1,1.2733237E0,1.1189188E2,2.8239045E0,7.189414E1,3.004794E1,1.3247259E0,3.6051254E1,1.7606751E0,9.63325E0,1.1318404E1,1.6790855E1,1.3263292E0,2.137172E1,1.0971489E2,2.176986E0,2.4755571E1,4.713857E1,4.220495E0,2.5827444E1,3.485005E1,1.2011994E0,6.148633E0,5.1697707E0,1.4579868E1,2.2109869E0,1.7067025E0,1.9665018E1,3.244913E0,1.0646998E2,4.7843566E0,1.9971214E1,3.453749E0,4.368482E1,1.267286E0,2.9532094E0],"tree_param":{"num_deleted":"0","num_feature":"3061","num_nodes":"55","size_leaf_vector":"0"}},{"base_weights":[2.5497979E-2,7.2065145E-1,-3.5766733E-1,1.0240037E0,4.81438E-1,8.299209E-1,-4.962015E-1,9.1766E-2,1.0419304E0,1.0187758E0,4.2940505E-2,9.457996E-1,9.360892E-2,-8.9351696E-1,-9.40776E-2,1.0617102E0,4.0072557E-1,1.0461607E0,1.8816991E-1,8.4241295E-1,-2.691126E-1,2.5578693E-1,9.8094326E-1,6.4793277E-1,-3.4248927E-1,4.5944265E-1,-1.0006996E0,9.231515E-1,-2.533412E-1,1.0025451E0,1.31279E-1,9.751999E-1,-5.7973665E-1,3.2114297E-1,1.0264801E0,8.9221317E-1,-7.233776E-1,3.7436512E-1,-1.0558342E0,1.2226598E0,1.067387E-1,1.2032053E0,-4.2000252E-1,8.025095E-1,-7.7827585E-1,1.034315E0,1.8680024E-1,6.9896936E-1,-2.744957E-3,2.7053237E-1,-1.0785251E0,1.5583966E0,8.0063534E-1,1.0689315E0,-8.388544E-1,9.7990835E-1,-5.7969344E-1],"categories":[],"categories_nodes":[],"categories_segments":[],"categories_sizes":[],"default_left":[0,0,0,0,0,1,1,0,0,1,0,0,0,0,0,0,0,0,0,0,0,0,0,0,0,0,0,0,0,0,0,0,0,0,0,0,0,0,0,0,0,0,0,0,0,0,0,0,0,0,0,0,0,0,0,0,0],"id":7,"left_children":[1,3,5,7,9,11,13,-1,15,17,19,21,23,25,27,-1,-1,-1,-1,29,31,-1,33,-1,-1,35,37,39,41,-1,-1,-1,43,-1,-1,45,-1,47,49,51,53,-1,55,-1,-1,-1,-1,-1,-1,-1,-1,-1,-1,-1,-1,-1,-1],"loss_changes":[8.545776E1,7.7789993E0,3.444747E1,7.294731E-1,1.54180765E1,1.787344E0,2.9615753E1,0E0,1.8767929E-1,4.7286224E-1,9.501813E0,2.070713E-1,1.2128975E0,1.40021515E1,1.5382249E1,0E0,0E0,0E0,0E0,1.0845313E0,1.11938925E1,0E0,1.9969559E-1,0E0,0E0,4.505294E0,6.9794083E0,3.0172644E0,2.0321276E1,0E0,0E0,0E0,6.8355756E0,0E0,0E0,4.0505886E-1,0E0,5.0211596E-1,2.8126526E0,7.317543E-2,5.037138E0,0E0,1.7108932E1,0E0,0E0,0E0,0E0,0E0,0E0,0E0,0E0,0E0,0E0,0E0,0E0,0E0,0E0],"parents":[2147483647,0,0,1,1,2,2,3,3,4,4,5,5,6,6,8,8,9,9,10,10,11,11,12,12,13,13,14,14,19,19,20,20,22,22,25,25,26,26,27,27,28,28,32,32,35,35,37,37,38,38,39,39,40,40,42,42],"right_children":[2,4,6,8,10,12,14,-1,16,18,20,22,24,26,28,-1,-1,-1,-1,30,32,-1,34,-1,-1,36,38,40,42,-1,-1,-1,44,-1,-1,46,-1,48,50,52,54,-1,56,-1,-1,-1,-1,-1,-1,-1,-1,-1,-1,-1,-1,-1,-1],"split_conditions":[1.05E1,1.6E1,6.000001E0,2.000001E0,1.5E0,8.5E0,2.5E0,2.3859158E-2,2.66E2,-9.536743E-7,1.2000001E1,2.000001E0,6.000001E0,1.5E0,2.5E0,2.7604467E-1,1.0418864E-1,2.7200177E-1,4.8924174E-2,1.0000001E1,2.000001E0,6.65046E-2,2.000001E0,1.6846251E-1,-8.904721E-2,6.000001E0,1.5E0,3.5E0,4.000001E0,2.6066172E-1,3.413254E-2,2.5355196E-1,2.000001E0,8.349717E-2,2.668848E-1,1.5E0,-1.8807817E-1,2.000001E0,2.000001E0,4.000001E0,2.000001E0,3.1283337E-1,2.000001E0,2.0865245E-1,-2.0235172E-1,2.6892188E-1,4.8568062E-2,1.8173203E-1,-7.1368885E-4,7.033841E-2,-2.8041652E-1,4.051831E-1,2.0816518E-1,2.7792218E-1,-2.1810213E-1,2.5477615E-1,-1.5072028E-1],"split_indices":[2796,2394,2394,1352,2588,1025,1025,0,0,505,2128,2397,21,1980,2128,0,0,0,0,1023,1334,0,1516,0,0,14,2588,0,2939,0,0,0,1271,0,0,14,0,1127,2090,1573,603,0,1334,0,0,0,0,0,0,0,0,0,0,0,0,0,0],"split_type":[0,0,0,0,0,0,0,0,0,0,0,0,0,0,0,0,0,0,0,0,0,0,0,0,0,0,0,0,0,0,0,0,0,0,0,0,0,0,0,0,0,0,0,0,0,0,0,0,0,0,0,0,0,0,0,0,0],"sum_hessian":[3.1886945E2,1.12992775E2,2.0587668E2,4.8371277E1,6.46215E1,2.0985668E1,1.8489102E2,1.0280596E0,4.7343216E1,2.844341E1,3.6178085E1,1.7886269E1,3.0994E0,9.238687E1,9.250414E1,4.52903E1,2.0529199E0,2.728434E1,1.1590722E0,9.679602E0,2.6498486E1,1.2680302E0,1.6618238E1,1.1508309E0,1.9485693E0,6.540466E0,8.5846405E1,1.1873133E1,8.063101E1,7.5660954E0,2.1135066E0,4.86611E0,2.1632376E1,1.592743E0,1.5025496E1,4.968339E0,1.5721269E0,3.0861948E0,8.276021E1,8.32239E0,3.550743E0,7.640136E0,7.2990875E1,2.3348544E0,1.9297522E1,3.747225E0,1.2211138E0,1.1998842E0,1.8863106E0,1.2082945E0,8.155192E1,3.1353946E0,5.1869946E0,1.6952739E0,1.8554691E0,6.9477735E0,6.60431E1],"tree_param":{"num_deleted":"0","num_feature":"3061","num_nodes":"57","size_leaf_vector":"0"}},{"base_weights":[3.4891337E-2,6.811905E-1,-3.1112236E-1,9.899201E-1,4.5083362E-1,-8.439139E-1,-1.489342E-2,8.050144E-2,1.0116373E0,9.3635136E-1,1.36212595E-2,4.119137E-1,-9.618898E-1,2.3709784E0,-7.2004065E-2,1.0356499E0,3.5394058E-1,9.957949E-1,2.0533067E-1,7.717492E-1,-3.0241582E-1,9.447056E-1,-4.9798512E-1,1.6420132E-1,-1.0434079E0,5.391426E-1,-3.0766112E-1,4.29387E-1,1.0334158E0,5.6326574E-1,-2.4846439E-1,9.502169E-1,1.089666E-1,4.3360272E-1,-8.7448055E-1,5.5016804E-1,-3.639091E-1,1.2688889E-1,-1.068795E0,7.8396034E-1,-9.8063916E-1,1.157306E0,-4.328015E-1,9.4195884E-1,-2.2583768E-1,-1.1640916E0,6.9937974E-1,6.497563E-1,1.6882621E-1,-8.0746293E-1,8.769592E-1,-5.592968E-1,1.070013E0],"categories":[],"categories_nodes":[],"categories_segments":[],"categories_sizes":[],"default_left":[0,0,1,0,0,0,0,0,0,0,0,0,0,0,0,0,0,0,0,0,0,0,0,0,0,0,0,0,0,0,0,0,0,0,1,0,0,0,0,0,0,0,1,0,0,0,0,0,0,0,0,0,0],"id":8,"left_children":[1,3,5,7,9,11,13,-1,15,17,19,21,23,-1,25,-1,-1,27,29,31,33,-1,-1,35,37,39,41,-1,-1,-1,-1,-1,-1,43,45,47,-1,-1,-1,49,-1,-1,51,-1,-1,-1,-1,-1,-1,-1,-1,-1,-1],"loss_changes":[6.0686356E1,6.282097E0,2.7893847E1,7.004814E-1,1.1878384E1,9.754181E0,1.5793152E1,0E0,2.4275208E-1,9.4828606E-1,7.5386715E0,3.4394064E0,5.499031E0,0E0,1.6432037E1,0E0,0E0,7.3495865E-2,6.686056E-1,9.9085426E-1,9.74239E0,0E0,0E0,1.1749017E0,1.7475929E0,1.2598446E1,1.556093E1,0E0,0E0,0E0,0E0,0E0,0E0,3.6970387E0,6.668524E0,1.0342956E-2,0E0,0E0,0E0,4.8430824E0,0E0,0E0,1.5124208E1,0E0,0E0,0E0,0E0,0E0,0E0,0E0,0E0,0E0,0E0],"parents":[2147483647,0,0,1,1,2,2,3,3,4,4,5,5,6,6,8,8,9,9,10,10,11,11,12,12,14,14,17,17,18,18,19,19,20,20,23,23,24,24,25,25,26,26,33,33,34,34,35,35,39,39,42,42],"right_children":[2,4,6,8,10,12,14,-1,16,18,20,22,24,-1,26,-1,-1,28,30,32,34,-1,-1,36,38,40,42,-1,-1,-1,-1,-1,-1,44,46,48,-1,-1,-1,50,-1,-1,52,-1,-1,-1,-1,-1,-1,-1,-1,-1,-1],"split_conditions":[1.05E1,1.6E1,1.5E0,2.000001E0,1.0000001E1,1.5E0,3.5E0,2.0930372E-2,2.66E2,6.000001E0,1.2000001E1,1.5E0,6.000001E0,6.1645436E-1,3.5E0,2.6926896E-1,9.202455E-2,4.000001E0,2.000001E0,1.0000001E1,4.5E0,2.4562345E-1,-1.2947613E-1,4.000001E0,2.5E0,8.5E0,2.000001E0,1.1164062E-1,2.6868808E-1,1.4644909E-1,-6.4600736E-2,2.4705638E-1,2.8331313E-2,1.5E0,-9.536743E-7,2.000001E0,-9.461636E-2,3.2991108E-2,-2.778867E-1,4.000001E0,-2.5496617E-1,3.0089954E-1,1.5E0,2.4490929E-1,-5.8717795E-2,-3.026638E-1,1.8183872E-1,1.6893664E-1,4.3894812E-2,-2.0994036E-1,2.2800939E-1,-1.4541715E-1,2.7820337E-1],"split_indices":[2796,2394,1025,1352,2588,1980,480,0,0,2857,2128,14,991,0,3034,0,0,991,991,1023,3034,0,0,2857,1651,0,1571,0,0,0,0,0,0,2407,2395,2588,0,0,0,1415,0,0,1004,0,0,0,0,0,0,0,0,0,0],"split_type":[0,0,0,0,0,0,0,0,0,0,0,0,0,0,0,0,0,0,0,0,0,0,0,0,0,0,0,0,0,0,0,0,0,0,0,0,0,0,0,0,0,0,0,0,0,0,0,0,0,0,0,0,0],"sum_hessian":[2.6942377E2,9.360872E1,1.7581505E2,3.8590935E1,5.5017784E1,6.21623E1,1.1365274E2,1.0098498E0,3.7581085E1,2.5527851E1,2.9489933E1,5.1242537E0,5.7038044E1,1.7097602E0,1.11942986E2,3.5702904E1,1.8781824E0,2.3273174E1,2.2546754E0,8.252177E0,2.1237755E1,3.2077184E0,1.9165353E0,3.7818077E0,5.3256237E1,3.079423E1,8.114875E1,2.2226863E0,2.105049E1,1.1256078E0,1.1290674E0,6.1598377E0,2.0923393E0,9.393769E0,1.1843986E1,2.160818E0,1.6209897E0,1.04586E0,5.2210377E1,2.6938877E1,3.855352E0,5.7372355E0,7.541152E1,5.0626225E0,4.331147E0,1.0223151E1,1.6208353E0,1.1552529E0,1.0055652E0,1.0631661E0,2.5875711E1,7.013586E1,5.27566E0],"tree_param":{"num_deleted":"0","num_feature":"3061","num_nodes":"53","size_leaf_vector":"0"}},{"base_weights":[3.9404467E-2,9.022127E-1,-1.8309E-1,-5.3563374E-1,9.5893407E-1,8.389451E-1,-4.0103504E-1,9.775605E-1,8.769688E-2,9.066121E-1,-4.632643E-1,1.0500774E0,-5.0974935E-1,1.3544282E-1,9.982184E-1,3.2161778E-1,9.703623E-1,5.2465034E-1,-6.6991585E-1,3.5474485E-1,1.0153102E0,6.7245024E-1,-7.775109E-2,1.0023909E0,2.5742385E-1,-7.646972E-1,6.799626E-1,-7.132999E-1,2.318507E0,-6.042737E-1,4.8292875E-1,1.1502875E0,3.4414557E-1,1.1242839E0,-7.780968E-1],"categories":[],"categories_nodes":[],"categories_segments":[],"categories_sizes":[],"default_left":[0,0,0,0,1,1,0,0,0,0,0,0,0,0,0,0,1,1,1,0,0,0,0,0,0,0,0,0,0,0,0,0,0,0,0],"id":9,"left_children":[1,3,5,-1,7,9,11,13,-1,15,-1,-1,17,-1,19,21,23,25,27,-1,-1,-1,29,-1,-1,-1,31,33,-1,-1,-1,-1,-1,-1,-1],"loss_changes":[4.4838116E1,4.418194E0,4.173015E1,0E0,6.6753006E-1,3.3266354E0,2.4805534E1,6.5366364E-1,0E0,8.699341E-1,0E0,0E0,2.4175182E1,0E0,1.24881744E-1,6.982442E-1,3.832569E-1,4.493148E0,1.785429E1,0E0,0E0,0E0,1.1929176E0,0E0,0E0,0E0,2.48458E0,1.5631424E1,0E0,0E0,0E0,0E0,0E0,0E0,0E0],"parents":[2147483647,0,0,1,1,2,2,4,4,5,5,6,6,7,7,9,9,12,12,14,14,15,15,16,16,17,17,18,18,22,22,26,26,27,27],"right_children":[2,4,6,-1,8,10,12,14,-1,16,-1,-1,18,-1,20,22,24,26,28,-1,-1,-1,30,-1,-1,-1,32,34,-1,-1,-1,-1,-1,-1,-1],"split_conditions":[1.6E1,4.000001E0,1.0000001E1,-1.3926476E-1,-9.536743E-7,3E0,2.000001E0,1.5E0,2.2801189E-2,2.5E0,-1.2044871E-1,2.7302012E-1,1.8E1,3.5215132E-2,2.000001E0,4.000001E0,1.5E1,1.5E0,-9.536743E-7,9.223366E-2,2.6398063E-1,1.7483705E-1,8.000001E0,2.606216E-1,6.69302E-2,-1.9882126E-1,6.000001E0,5E0,6.028118E-1,-1.5711115E-1,1.2556148E-1,2.9907474E-1,8.9477845E-2,2.923138E-1,-2.0230515E-1],"split_indices":[2394,2629,2588,0,2395,1023,1334,1271,0,0,0,0,2128,0,1516,1004,0,1025,474,0,0,0,2407,0,0,0,1573,2289,0,0,0,0,0,0,0],"split_type":[0,0,0,0,0,0,0,0,0,0,0,0,0,0,0,0,0,0,0,0,0,0,0,0,0,0,0,0,0,0,0,0,0,0,0],"sum_hessian":[2.317078E2,4.687539E1,1.8483241E2,1.4585651E0,4.5416824E1,3.1986244E1,1.5284616E2,4.4346684E1,1.0701404E0,3.069502E1,1.2912226E0,1.0049321E1,1.4279684E2,1.2427456E0,4.310394E1,3.6103299E0,2.708469E1,1.8840971E1,1.2395587E2,1.6781932E0,4.1425747E1,1.5579444E0,2.0523853E0,2.5531687E1,1.5530043E0,1.6037326E0,1.7237238E1,1.22932526E2,1.0233433E0,1.0183358E0,1.0340495E0,6.170237E0,1.1067E1,3.6302745E0,1.1930225E2],"tree_param":{"num_deleted":"0","num_feature":"3061","num_nodes":"35","size_leaf_vector":"0"}},{"base_weights":[4.594208E-2,-6.699876E-1,2.741919E-1,7.0061594E-1,-8.351218E-1,8.726152E-1,8.8100426E-2,2.4186882E-1,8.058127E-1,4.49898E-1,-9.862595E-1,9.165812E-1,-2.1883023E-1,7.8197527E-1,-9.165481E-2,9.311124E-1,-6.53302E-1,1.3315678E-1,-1.0273226E0,9.671566E-2,9.457328E-1,9.133358E-1,-3.7033749E-3,1.0004238E0,-2.0584996E-1,1.6958804E-1,9.667826E-1,9.5374656E-1,7.6765336E-2,4.931028E-1,-7.3961383E-1,1.000614E0,-3.3978525E-1,2.3496364E-1,9.897212E-1,3.55614E-1,9.906276E-1,1.4569023E-1,5.858628E-1,1.0222173E-1,1.103683E0,2.848198E-1,-5.742505E-1],"categories":[],"categories_nodes":[],"categories_segments":[],"categories_sizes":[],"default_left":[1,0,0,0,0,1,0,0,0,0,0,0,0,0,0,0,0,0,0,0,0,1,0,0,0,0,0,0,0,0,0,1,0,0,0,0,0,0,0,0,0,0,0],"id":10,"left_children":[1,3,5,7,9,11,13,-1,-1,15,17,19,-1,21,23,-1,-1,-1,-1,-1,25,27,29,-1,31,-1,33,35,-1,37,-1,39,41,-1,-1,-1,-1,-1,-1,-1,-1,-1,-1],"loss_changes":[3.3043488E1,1.1653255E1,1.6982025E1,8.510089E-2,9.00857E0,1.9388409E0,1.47846575E1,0E0,0E0,3.4366436E0,1.9649925E0,7.453823E-1,0E0,2.5191736E0,1.2001608E1,0E0,0E0,0E0,0E0,0E0,3.8659668E-1,6.329498E-1,2.0054321E0,0E0,1.4310895E1,0E0,3.146248E-1,8.534813E-2,0E0,2.031678E-2,0E0,7.106142E-1,1.1669589E1,0E0,0E0,0E0,0E0,0E0,0E0,0E0,0E0,0E0,0E0],"parents":[2147483647,0,0,1,1,2,2,3,3,4,4,5,5,6,6,9,9,10,10,11,11,13,13,14,14,20,20,21,21,22,22,24,24,26,26,27,27,29,29,31,31,32,32],"right_children":[2,4,6,8,10,12,14,-1,-1,16,18,20,-1,22,24,-1,-1,-1,-1,-1,26,28,30,-1,32,-1,34,36,-1,38,-1,40,42,-1,-1,-1,-1,-1,-1,-1,-1,-1,-1],"split_conditions":[1.5E0,2.000001E0,1.0000001E1,6E0,1.5E0,1.45E1,6.000001E0,6.2885895E-2,2.095113E-1,1.5E0,1.5E0,1.5E0,-5.6895856E-2,7.5E0,2.000001E0,2.4208921E-1,-1.6985852E-1,3.4620762E-2,-2.6710388E-1,2.514607E-2,1.5E0,-9.536743E-7,1.8E1,2.6011017E-1,5E0,4.409289E-2,8.000001E0,2.000001E0,1.9958986E-2,4.000001E0,-1.9229959E-1,2.5E0,2.5E0,6.1090544E-2,2.573275E-1,9.245964E-2,2.5756317E-1,3.787946E-2,1.5232433E-1,2.6577648E-2,2.8695756E-1,7.4053146E-2,-1.4930514E-1],"split_indices":[1025,2394,2588,1023,1980,14,2394,0,0,14,2588,2109,0,0,1334,0,0,0,0,0,991,2395,2857,0,2050,0,2489,2397,0,215,0,1023,2407,0,0,0,0,0,0,0,0,0,0],"split_type":[0,0,0,0,0,0,0,0,0,0,0,0,0,0,0,0,0,0,0,0,0,0,0,0,0,0,0,0,0,0,0,0,0,0,0,0,0,0,0,0,0,0,0],"sum_hessian":[2.0008694E2,4.790198E1,1.5218497E2,4.8021045E0,4.3099876E1,3.5224064E1,1.169609E2,1.511199E0,3.2909055E0,4.3276973E0,3.877218E1,3.401411E1,1.2099539E0,2.3376156E1,9.358474E1,3.1219127E0,1.2057848E0,1.2925812E0,3.74796E1,1.3161469E0,3.2697964E1,1.9888453E1,3.4877045E0,8.124768E0,8.545998E1,1.1025248E0,3.1595438E1,1.8838392E1,1.05006E0,2.2790687E0,1.2086358E0,7.8927426E0,7.756723E1,1.3019482E0,3.029349E1,1.7122064E0,1.7126186E1,1.0220009E0,1.2570678E0,1.0173008E0,6.8754416E0,2.111174E1,5.645549E1],"tree_param":{"num_deleted":"0","num_feature":"3061","num_nodes":"43","size_leaf_vector":"0"}},{"base_weights":[4.8504E-2,-6.36448E-1,2.4866395E-1,6.498193E-1,-8.0566853E-1,-8.547462E-1,3.3330375E-1,7.632645E-1,1.919763E-1,4.0021533E-1,-9.602677E-1,-9.767567E-1,5.5784904E-3,-8.7592137E-1,4.085522E-1,8.5824424E-1,-6.0383445E-1,1.14631616E-1,-1.0091878E0,2.0124248E-1,-1.1188251E0,-2.6378888E-1,5.379148E-1,-6.3380015E-1,6.8897724E-1,-7.330607E-1,6.285637E-1,1.4588584E0,-9.18662E-1,1.18714735E-1,8.358307E-1,-9.66006E-1,3.3888346E-1,2.7546057E-1,8.404669E-1],"categories":[],"categories_nodes":[],"categories_segments":[],"categories_sizes":[],"default_left":[1,0,0,1,0,1,0,0,0,0,0,0,0,0,0,0,0,0,0,0,0,1,0,0,1,1,1,0,0,0,0,0,0,0,0],"id":11,"left_children":[1,3,5,7,9,11,13,-1,-1,15,17,-1,-1,19,21,-1,-1,-1,-1,-1,-1,23,25,27,29,31,33,-1,-1,-1,-1,-1,-1,-1,-1],"loss_changes":[2.3942602E1,9.123884E0,1.2890019E1,1.2082696E-1,6.9773407E0,1.0442328E0,1.1829571E1,0E0,0E0,2.690974E0,1.7794628E0,0E0,0E0,2.2408414E0,1.0524155E1,0E0,0E0,0E0,0E0,0E0,0E0,7.463523E0,1.20323925E1,1.020907E1,4.0782475E-1,2.1122847E0,6.823532E0,0E0,0E0,0E0,0E0,0E0,0E0,0E0,0E0],"parents":[2147483647,0,0,1,1,2,2,3,3,4,4,5,5,6,6,9,9,10,10,13,13,14,14,21,21,22,22,23,23,24,24,25,25,26,26],"right_children":[2,4,6,8,10,12,14,-1,-1,16,18,-1,-1,20,22,-1,-1,-1,-1,-1,-1,24,26,28,30,32,34,-1,-1,-1,-1,-1,-1,-1,-1],"split_conditions":[1.5E0,2.000001E0,7.8E1,1.5E0,1.5E0,2.5E0,4.8E1,1.9844876E-1,4.9913835E-2,1.5E0,1.5E0,-2.5395674E-1,1.4504074E-3,1.5E0,5E1,2.2314349E-1,-1.5699695E-1,2.9804219E-2,-2.6238883E-1,5.2323043E-2,-2.908945E-1,2.5E0,1.2000001E1,4.000001E0,2.5E0,3.5E0,2.5E0,3.7930316E-1,-2.3885211E-1,3.086583E-2,2.1731597E-1,-2.5116155E-1,8.8109694E-2,7.161975E-2,2.1852139E-1],"split_indices":[1025,2394,1468,1023,1980,2857,2629,0,0,14,2588,0,0,1441,1415,0,0,0,0,0,0,2857,2311,2841,1023,991,14,0,0,0,0,0,0,0,0],"split_type":[0,0,0,0,0,0,0,0,0,0,0,0,0,0,0,0,0,0,0,0,0,0,0,0,0,0,0,0,0,0,0,0,0,0,0],"sum_hessian":[1.7248175E2,3.851225E1,1.3396951E2,4.147382E0,3.436487E1,8.89613E0,1.2507338E2,2.789185E0,1.358197E0,3.7245336E0,3.0640333E1,7.672664E0,1.2234656E0,6.7038407E0,1.1836954E2,2.6574647E0,1.0670687E0,1.2753075E0,2.9365026E1,1.2651237E0,5.438717E0,1.8932388E1,9.943715E1,1.3877698E1,5.0546904E0,6.148139E0,9.328901E1,1.1689619E0,1.2708736E1,1.4054449E0,3.6492457E0,5.131776E0,1.0163631E0,3.585022E1,5.743879E1],"tree_param":{"num_deleted":"0","num_feature":"3061","num_nodes":"35","size_leaf_vector":"0"}},{"base_weights":[3.6054604E-2,7.92758E-1,-1.3534349E-1,-4.0982375E-1,8.61479E-1,-7.754497E-1,4.923385E-2,1.13136195E-1,8.91546E-1,3.5646796E-1,-9.333806E-1,6.83119E-1,-1.0121639E-1,9.875478E-2,9.2183304E-1,2.6930556E-2,6.465472E-1,9.866099E-2,-9.9168795E-1,9.585477E-1,8.555451E-2,9.3617797E-1,-1.9533849E-1,5.8447268E-2,9.579806E-1,7.234625E-1,-2.6782098E-1,5.4364896E-1,-3.7252134E-1,3.1734005E-1,9.9090755E-1,2.1505937E-1,-5.0761414E-1,1.0792189E0,2.4110089E-1,-4.457111E-1,1.6365443E0],"categories":[],"categories_nodes":[],"categories_segments":[],"categories_sizes":[],"default_left":[0,0,1,0,0,0,0,0,0,1,0,0,0,0,0,0,0,0,0,0,0,0,0,0,0,0,0,0,1,0,0,0,0,0,0,0,0],"id":12,"left_children":[1,3,5,-1,7,9,11,-1,13,15,17,19,21,-1,23,-1,-1,-1,-1,-1,25,-1,27,-1,29,-1,31,33,35,-1,-1,-1,-1,-1,-1,-1,-1],"loss_changes":[2.0167587E1,2.7256947E0,1.5038411E1,0E0,5.174484E-1,5.4231224E0,9.556824E0,0E0,5.398178E-1,3.8505E-1,1.6181908E0,3.080041E0,8.118477E0,0E0,7.300644E-1,0E0,0E0,0E0,0E0,0E0,1.8076386E0,0E0,1.006718E1,0E0,1.9411659E-1,0E0,7.2714853E-1,2.166594E0,9.752383E0,0E0,0E0,0E0,0E0,0E0,0E0,0E0,0E0],"parents":[2147483647,0,0,1,1,2,2,4,4,5,5,6,6,8,8,9,9,10,10,11,11,12,12,14,14,20,20,22,22,24,24,26,26,27,27,28,28],"right_children":[2,4,6,-1,8,10,12,-1,14,16,18,20,22,-1,24,-1,-1,-1,-1,-1,26,-1,28,-1,30,-1,32,34,36,-1,-1,-1,-1,-1,-1,-1,-1],"split_conditions":[1.6E1,4.000001E0,1.5E0,-1.0655417E-1,1.5E0,1.5E0,1.0000001E1,2.941541E-2,2.5E0,-9.536743E-7,1.5E0,6.000001E0,2.000001E0,2.5676241E-2,1.5E0,7.0019444E-3,1.6810226E-1,2.5651857E-2,-2.5783885E-1,2.492224E-1,6.000001E0,2.4340627E-1,1.8E1,1.5196289E-2,1.5E0,1.8810025E-1,4.000001E0,6.000001E0,-9.536743E-7,8.250841E-2,2.5763595E-1,5.5915434E-2,-1.3197967E-1,2.8059688E-1,6.268623E-2,-1.15884885E-1,4.2550153E-1],"split_indices":[2394,2629,1025,0,1271,1980,2588,0,1415,219,2588,3018,1334,0,1025,0,0,0,0,0,1127,0,2128,0,2397,0,2128,1573,474,0,0,0,0,0,0,0,0],"split_type":[0,0,0,0,0,0,0,0,0,0,0,0,0,0,0,0,0,0,0,0,0,0,0,0,0,0,0,0,0,0,0,0,0,0,0,0,0],"sum_hessian":[1.5366983E2,2.7709637E1,1.2596019E2,1.2295504E0,2.6480087E1,2.7475416E1,9.848477E1,1.2067963E0,2.527329E1,3.2102065E0,2.426521E1,1.8212093E1,8.027268E1,1.0867673E0,2.4186523E1,2.0145102E0,1.1956964E0,1.2605928E0,2.3004618E1,1.205269E1,6.159403E0,5.9330797E0,7.43396E1,1.077089E0,2.3109434E1,1.82238E0,4.3370233E0,1.3976917E1,6.0362682E1,1.6497099E0,2.1459724E1,1.47331E0,2.863713E0,4.1187744E0,9.858143E0,5.8991776E1,1.3709061E0],"tree_param":{"num_deleted":"0","num_feature":"3061","num_nodes":"37","size_leaf_vector":"0"}},{"base_weights":[4.3564323E-2,5.184567E-1,-1.7574546E-1,-3.303157E-1,5.860059E-1,2.822123E-2,-7.354463E-1,-8.116675E-1,4.437984E-1,8.818771E-1,4.1077542E-1,1.0865291E0,-8.757133E-2,6.3027245E-1,-8.26051E-1,9.447878E-1,8.711659E-2,7.7292055E-1,1.6049518E-1,1.6681839E0,6.6251653E-1,8.2213473E-1,-2.421314E-1,9.401019E-2,-9.747722E-1,8.430184E-1,4.690271E-2,4.9781647E-1,-2.4298517E-1,7.078294E-2,9.4770056E-1,1.4007114E0,-3.3314562E-1,5.022989E-1,-3.1537998E-1,9.036467E-1,2.7371404E-1,-2.535073E-1,7.1493405E-1,-6.126739E-1,6.272799E-1,3.6737967E-1,1.7815748E0,7.6900584E-1,-4.7140795E-1],"categories":[],"categories_nodes":[],"categories_segments":[],"categories_sizes":[],"default_left":[0,0,0,1,0,0,0,0,0,0,0,0,0,0,0,0,0,1,0,0,0,0,0,0,0,0,0,1,1,0,0,0,0,0,0,0,0,0,0,0,0,0,0,0,0],"id":13,"left_children":[1,3,5,7,9,11,13,-1,-1,15,17,19,21,-1,23,-1,-1,25,27,-1,-1,29,31,33,-1,35,-1,37,39,-1,-1,41,43,-1,-1,-1,-1,-1,-1,-1,-1,-1,-1,-1,-1],"loss_changes":[1.4348779E1,2.687666E0,1.0797047E1,1.7934434E0,1.7455282E0,8.691262E0,3.644968E0,0E0,0E0,6.3017845E-1,2.359871E0,6.1939144E-1,9.219443E0,0E0,3.3908062E0,0E0,0E0,5.1709557E-1,2.4983187E0,0E0,0E0,8.3338165E-1,8.781554E0,8.716557E-1,0E0,9.4903946E-2,0E0,1.7866721E0,3.159444E0,0E0,0E0,5.6993914E-1,8.514971E0,0E0,0E0,0E0,0E0,0E0,0E0,0E0,0E0,0E0,0E0,0E0,0E0],"parents":[2147483647,0,0,1,1,2,2,3,3,4,4,5,5,6,6,9,9,10,10,11,11,12,12,14,14,17,17,18,18,21,21,22,22,23,23,25,25,27,27,28,28,31,31,32,32],"right_children":[2,4,6,8,10,12,14,-1,-1,16,18,20,22,-1,24,-1,-1,26,28,-1,-1,30,32,34,-1,36,-1,38,40,-1,-1,42,44,-1,-1,-1,-1,-1,-1,-1,-1,-1,-1,-1,-1],"split_conditions":[1.05E1,1.4000001E1,4.05E1,2.5E0,6.000001E0,8.000001E0,2.000001E0,-2.1103354E-1,1.1538758E-1,4.4E1,1.0000001E1,2.000001E0,5.5E0,1.6387083E-1,1.5E0,2.4564482E-1,2.2650313E-2,-9.536743E-7,2.5E0,4.337278E-1,1.722543E-1,2.5E0,2.5E0,2.000001E0,-2.5344077E-1,6.000001E0,1.2194704E-2,2.5E0,1.5E0,1.8403564E-2,2.4640213E-1,1.45E1,3E0,1.3059771E-1,-8.199879E-2,2.3494813E-1,7.116564E-2,-6.591189E-2,1.8588285E-1,-1.592952E-1,1.6309276E-1,9.551871E-2,4.6320945E-1,1.9994152E-1,-1.2256606E-1],"split_indices":[2796,1135,14,2857,2394,1980,1334,0,0,14,2588,1516,2935,0,2857,0,0,505,2407,0,0,2857,2061,991,0,2857,0,1025,2128,0,0,0,1150,0,0,0,0,0,0,0,0,0,0,0,0],"split_type":[0,0,0,0,0,0,0,0,0,0,0,0,0,0,0,0,0,0,0,0,0,0,0,0,0,0,0,0,0,0,0,0,0,0,0,0,0,0,0,0,0,0,0,0,0],"sum_hessian":[1.3589738E2,4.2501278E1,9.33961E1,2.8463368E0,3.9654938E1,6.914705E1,2.4249054E1,1.7251254E0,1.1212115E0,1.3250021E1,2.6404919E1,5.9926534E0,6.3154396E1,1.1380785E0,2.3110975E1,1.21032E1,1.1468208E0,9.93752E0,1.64674E1,1.2894816E0,4.7031717E0,8.544455E0,5.4609943E1,3.2670853E0,1.984389E1,8.915559E0,1.0219613E0,8.841686E0,7.625713E0,1.4473883E0,7.097066E0,2.1112375E0,5.2498703E1,1.5221182E0,1.7449672E0,7.5267158E0,1.388843E0,1.9446667E0,6.8970194E0,5.5598707E0,2.0658422E0,1.0976819E0,1.0135556E0,5.3432574E0,4.715545E1],"tree_param":{"num_deleted":"0","num_feature":"3061","num_nodes":"45","size_leaf_vector":"0"}},{"base_weights":[5.3119957E-2,7.1513784E-1,-8.515325E-2,-3.6690232E-1,7.927615E-1,2.6759975E-2,-9.5022506E-1,1.6552962E-2,8.3246034E-1,-9.333886E-1,1.0413496E-1,7.658608E-2,8.747994E-1,8.4099036E-1,1.1846919E-2,1.07738115E-1,9.167912E-1,-1.2314538E-1,9.9622244E-1,1.4414963E-1,-5.842297E-1,2.9933712E-1,9.602242E-1,3.5368747E-1,1.1427284E0,-8.578715E-1,2.2478892E-1,-8.499095E-1,4.2337796E-1],"categories":[],"categories_nodes":[],"categories_segments":[],"categories_sizes":[],"default_left":[0,0,0,0,0,0,0,0,0,0,0,0,0,0,1,0,0,0,0,0,1,0,0,0,0,0,0,0,0],"id":14,"left_children":[1,3,5,-1,7,9,-1,-1,11,-1,13,-1,15,17,19,-1,21,-1,23,25,27,-1,-1,-1,-1,-1,-1,-1,-1],"loss_changes":[1.13185E1,2.084506E0,9.96097E0,0E0,6.099644E-1,6.920348E0,0E0,0E0,5.486345E-1,0E0,5.831031E0,0E0,4.8488903E-1,1.551394E0,6.1840124E0,0E0,1.6972542E-1,0E0,3.8019085E-1,5.3722606E0,4.1738305E0,0E0,0E0,0E0,0E0,0E0,0E0,0E0,0E0],"parents":[2147483647,0,0,1,1,2,2,4,4,5,5,8,8,10,10,12,12,13,13,14,14,16,16,18,18,19,19,20,20],"right_children":[2,4,6,-1,8,10,-1,-1,12,-1,14,-1,16,18,20,-1,22,-1,24,26,28,-1,-1,-1,-1,-1,-1,-1,-1],"split_conditions":[1.6E1,4.000001E0,3.15E1,-9.53946E-2,4.000001E0,3E1,-2.4705851E-1,4.30377E-3,1.5E0,-2.4268103E-1,3.5E0,1.991238E-2,1.5E0,6.000001E0,6.5E0,2.8011909E-2,2E0,-3.2017797E-2,9E0,8.000001E0,2.5E0,7.782765E-2,2.4965829E-1,9.195874E-2,2.971094E-1,-2.2304657E-1,5.844512E-2,-2.2097646E-1,1.1007827E-1],"split_indices":[2394,2629,1025,0,1271,1468,0,0,1025,0,1080,0,1135,2755,0,0,2397,0,1025,2311,2796,0,0,0,0,0,0,0,0],"split_type":[0,0,0,0,0,0,0,0,0,0,0,0,0,0,0,0,0,0,0,0,0,0,0,0,0,0,0,0,0],"sum_hessian":[1.2198104E2,2.03549E1,1.0162614E2,1.113033E0,1.9241867E1,9.0842964E1,1.0783172E1,1.0051773E0,1.823669E1,5.9497056E0,8.489326E1,1.1163043E0,1.7120386E1,8.546085E0,7.6347176E1,1.0736578E0,1.6046728E1,1.2138218E0,7.332263E0,6.309994E1,1.3247233E1,1.5732307E0,1.4473498E1,1.9953518E0,5.3369117E0,3.981952E0,5.911799E1,1.0606963E1,2.6402707E0],"tree_param":{"num_deleted":"0","num_feature":"3061","num_nodes":"29","size_leaf_vector":"0"}},{"base_weights":[4.0274996E-2,6.607045E-1,-7.726678E-2,-3.168722E-1,7.43127E-1,-5.3021127E-1,1.1473334E-1,1.4429756E-2,7.877351E-1,8.464806E-1,-6.653818E-1,5.4563904E-1,-1.14420936E-1,6.682209E-2,8.361647E-1,-1.40980175E-2,-8.086026E-1,-5.7606375E-1,7.0696485E-1,8.5220194E-1,-2.7025232E-1,8.755784E-2,8.8652396E-1,-7.5805724E-1,2.9953107E-1,4.192812E-1,-8.936818E-1,-7.5265944E-1,-6.372598E-2,1.2305778E0,4.577877E-1,-2.1948852E-1,1.1773818E0,-3.6822626E-1,1.3570627E0,1.703823E-1,9.4133526E-1,6.553428E-1,-5.9472542E-2,-1.3013439E-1,-9.6407294E-1,7.207296E-1,1.3297302E-1,8.779671E-1,-5.2264225E-1],"categories":[],"categories_nodes":[],"categories_segments":[],"categories_sizes":[],"default_left":[0,0,1,0,0,0,0,0,0,0,0,0,0,0,0,0,0,1,0,0,1,0,0,0,0,0,0,0,0,0,0,0,0,0,0,0,0,0,0,0,0,0,0,0,0],"id":15,"left_children":[1,3,5,-1,7,9,11,-1,13,-1,15,17,19,-1,21,23,25,27,29,31,33,-1,35,-1,37,-1,39,-1,-1,-1,41,-1,-1,43,-1,-1,-1,-1,-1,-1,-1,-1,-1,-1,-1],"loss_changes":[8.309971E0,1.6973224E0,8.418839E0,0E0,5.4224014E-1,5.920533E0,6.8084393E0,0E0,5.03788E-1,0E0,2.486104E0,4.7306547E0,7.0729427E0,0E0,4.8537922E-1,1.5907015E0,2.6657467E0,2.7368867E-1,2.2204704E0,2.5401392E0,6.8578415E0,0E0,3.8456154E-1,0E0,6.556876E-1,0E0,9.940319E-1,0E0,0E0,0E0,1.2748768E0,0E0,0E0,7.8485007E0,0E0,0E0,0E0,0E0,0E0,0E0,0E0,0E0,0E0,0E0,0E0],"parents":[2147483647,0,0,1,1,2,2,4,4,5,5,6,6,8,8,10,10,11,11,12,12,14,14,15,15,16,16,17,17,18,18,19,19,20,20,22,22,24,24,26,26,30,30,33,33],"right_children":[2,4,6,-1,8,10,12,-1,14,-1,16,18,20,-1,22,24,26,28,30,32,34,-1,36,-1,38,-1,40,-1,-1,-1,42,-1,-1,44,-1,-1,-1,-1,-1,-1,-1,-1,-1,-1,-1],"split_conditions":[1.6E1,4.000001E0,2.5E0,-8.238677E-2,4.000001E0,4.000001E0,2.5E0,3.7517366E-3,1.5E0,2.2008495E-1,1.5E0,1.0000001E1,1.5E0,1.7373743E-2,1.2000001E1,2.000001E0,2.000001E0,7.5E0,1.5E0,2.5E0,-9.536743E-7,2.2765037E-2,2.000001E0,-1.9709487E-1,2.000001E0,1.0901311E-1,1.5E0,-1.9569145E-1,-1.6568754E-2,3.1995022E-1,1.0000001E1,-5.706701E-2,3.0611923E-1,2E0,3.5283628E-1,4.4299398E-2,2.4474716E-1,1.7038913E-1,-1.546286E-2,-3.383494E-2,-2.5065896E-1,1.8738969E-1,3.457298E-2,2.2827144E-1,-1.3588698E-1],"split_indices":[2394,2629,1025,0,1271,902,2407,0,1025,0,2857,2629,2455,0,1415,953,2090,14,0,1678,474,0,2397,0,2588,0,1980,0,0,0,2796,0,0,1783,0,0,0,0,0,0,0,0,0,0,0],"split_type":[0,0,0,0,0,0,0,0,0,0,0,0,0,0,0,0,0,0,0,0,0,0,0,0,0,0,0,0,0,0,0,0,0,0,0,0,0,0,0,0,0,0,0,0,0],"sum_hessian":[1.122501E2,1.7142826E1,9.510727E1,1.1117982E0,1.6031029E1,2.7789047E1,6.731822E1,1.0010935E0,1.5029934E1,2.0140388E0,2.577501E1,2.2891516E1,4.442671E1,1.0959307E0,1.3934004E1,4.844323E0,2.0930685E1,2.55509E0,2.0336426E1,5.547402E0,3.8879307E1,1.0508862E0,1.2883118E1,1.016362E0,3.8279612E0,1.1017559E0,1.982893E1,1.5513073E0,1.0037826E0,5.287298E0,1.5049128E1,1.367052E0,4.18035E0,3.7401253E1,1.4780538E0,1.20803E0,1.1675088E1,1.5079596E0,2.3200016E0,1.9141774E0,1.7914753E1,7.6430664E0,7.4060616E0,3.606859E0,3.379439E1],"tree_param":{"num_deleted":"0","num_feature":"3061","num_nodes":"45","size_leaf_vector":"0"}},{"base_weights":[4.6405412E-2,6.282787E-1,-7.407303E-2,9.19754E-1,2.2317661E-1,8.100623E-2,-5.599144E-1,-3.5366228E-1,4.1054246E-1,1.5976103E-2,1.1471946E0,4.6686935E-1,-8.509091E-1,5.422091E-1,-1.6985019E-1,5.0027627E-1,-1.3692662E-1,6.0528326E-1,3.4651982E-3,-2.6455613E-2,-9.040278E-1,3.2674745E-2,6.7571205E-1,9.6390104E-1,2.9586297E-1,5.4425097E-1,-3.586709E-1,-3.2262707E-1,-1.0220115E0,-4.6249655E-1,5.0069135E-1,1.0434386E0,3.2240428E-2,5.282678E-1,-5.8831966E-1,-3.743332E-1,-1.07088275E-1],"categories":[],"categories_nodes":[],"categories_segments":[],"categories_sizes":[],"default_left":[0,0,0,0,0,1,0,0,1,0,0,0,0,0,0,0,0,0,0,0,0,0,0,0,0,0,0,1,0,0,0,0,0,0,0,0,0],"id":16,"left_children":[1,3,5,-1,7,9,11,-1,13,15,-1,17,19,21,-1,23,25,-1,-1,-1,27,-1,-1,-1,29,31,33,35,-1,-1,-1,-1,-1,-1,-1,-1,-1],"loss_changes":[7.168321E0,1.8648381E0,6.4539757E0,0E0,1.0807741E0,4.5127325E0,6.584387E0,0E0,6.267791E-1,4.704688E0,0E0,3.3261633E-1,6.982012E-1,3.8209248E-1,0E0,1.158967E0,7.501343E0,0E0,0E0,0E0,7.308178E-1,0E0,0E0,0E0,2.0984297E0,3.1040142E0,7.866201E0,5.266309E-3,0E0,0E0,0E0,0E0,0E0,0E0,0E0,0E0,0E0],"parents":[2147483647,0,0,1,1,2,2,4,4,5,5,6,6,8,8,9,9,11,11,12,12,13,13,15,15,16,16,20,20,24,24,25,25,26,26,27,27],"right_children":[2,4,6,-1,8,10,12,-1,14,16,-1,18,20,22,-1,24,26,-1,-1,-1,28,-1,-1,-1,30,32,34,36,-1,-1,-1,-1,-1,-1,-1,-1,-1],"split_conditions":[1.0000001E1,1.0000001E1,4.05E1,2.3913604E-1,5.5E0,-9.536743E-7,1.5E0,-9.195219E-2,3E0,1.8E1,2.9827058E-1,3.5E0,5E0,1.5E0,-4.4161048E-2,6.000001E0,1.5E0,1.5737364E-1,9.009515E-4,-6.878459E-3,3.5E0,8.495433E-3,1.7568512E-1,2.5061426E-1,2.5E0,3E0,4.5E0,1.5E0,-2.65723E-1,-1.202491E-1,1.3017975E-1,2.7129403E-1,8.382511E-3,1.3734962E-1,-1.529631E-1,-9.732663E-2,-2.784295E-2],"split_indices":[2588,3018,14,0,14,147,2796,0,1023,2128,0,1025,2360,2407,0,1573,0,0,0,0,1023,0,0,0,2857,2407,215,0,0,0,0,0,0,0,0,0,0],"split_type":[0,0,0,0,0,0,0,0,0,0,0,0,0,0,0,0,0,0,0,0,0,0,0,0,0,0,0,0,0,0,0,0,0,0,0,0,0],"sum_hessian":[1.00590004E2,1.6531786E1,8.405822E1,8.875407E0,7.6563783E0,6.435086E1,1.9707357E1,1.6595649E0,5.9968133E0,6.1608173E1,2.7426884E0,4.218359E0,1.5488997E1,4.941569E0,1.0552446E0,1.42382965E1,4.7369877E1,3.0124152E0,1.2059437E0,1.0282115E0,1.4460787E1,1.2843606E0,3.6572082E0,3.2198908E0,1.1018406E1,1.127616E1,3.6093716E1,3.069482E0,1.1391304E1,2.075622E0,8.942784E0,5.184034E0,6.092127E0,7.1559625E0,2.8937754E1,1.881413E0,1.1880691E0],"tree_param":{"num_deleted":"0","num_feature":"3061","num_nodes":"37","size_leaf_vector":"0"}},{"base_weights":[4.7664452E-2,5.6781584E-1,-5.5094745E-2,8.9205885E-1,1.8372995E-1,9.0654805E-2,-4.835175E-1,-9.50513E-2,5.5139124E-1,8.807473E-1,1.2453232E-2,3.8054073E-1,-7.251649E-1,-7.148696E-1,3.342602E-1,6.6158307E-1,1.3003321E-1,1.2489625E0,4.2911458E-1,5.735335E-1,-1.2308617E-1,5.27014E-1,-2.8469205E-2,-8.1660396E-1,3.155737E-1,6.7620736E-1,-3.0141374E-1,7.5977677E-3,6.379567E-1,-7.225461E-2,7.528272E-1,-7.874666E-1,3.105138E-2,-7.4618995E-2,-8.715548E-1,7.069925E-2,-1.7880337E-1,3.737646E-2,-9.0854335E-1,5.0673157E-1,-1.6473733E-1,-2.7043238E-1,-9.9348456E-1],"categories":[],"categories_nodes":[],"categories_segments":[],"categories_sizes":[],"default_left":[0,0,0,0,0,0,0,0,1,0,0,0,1,0,0,0,0,0,1,0,1,0,0,0,0,0,0,0,0,1,0,0,0,0,0,0,0,0,0,0,0,0,0],"id":17,"left_children":[1,3,5,-1,7,9,11,13,15,17,19,21,23,-1,25,-1,-1,-1,27,29,31,-1,-1,33,-1,-1,-1,-1,-1,35,-1,37,39,-1,41,-1,-1,-1,-1,-1,-1,-1,-1],"loss_changes":[4.971111E0,1.7458119E0,4.9196215E0,0E0,9.009685E-1,3.6409497E0,4.4475374E0,1.7188464E0,8.6568594E-2,3.4691143E-1,4.2377877E0,3.158781E-1,1.7762251E0,0E0,1.0661343E0,0E0,0E0,0E0,3.3915597E-1,1.3093166E0,4.628444E0,0E0,0E0,5.443888E-1,0E0,0E0,0E0,0E0,0E0,6.2412467E-2,0E0,8.8326263E-1,3.571682E0,0E0,7.444563E-1,0E0,0E0,0E0,0E0,0E0,0E0,0E0,0E0],"parents":[2147483647,0,0,1,1,2,2,4,4,5,5,6,6,7,7,8,8,9,9,10,10,11,11,12,12,14,14,18,18,19,19,20,20,23,23,29,29,31,31,32,32,34,34],"right_children":[2,4,6,-1,8,10,12,14,16,18,20,22,24,-1,26,-1,-1,-1,28,30,32,-1,-1,34,-1,-1,-1,-1,-1,36,-1,38,40,-1,42,-1,-1,-1,-1,-1,-1,-1,-1],"split_conditions":[1.0000001E1,1.0000001E1,2.45E1,2.3193529E-1,2.000001E0,6.000001E0,1.5E0,4.5E0,1.5E0,2.000001E0,6.000001E0,3.5E0,4.5E0,-1.8586609E-1,1.15E1,1.7201158E-1,3.3808634E-2,3.2473025E-1,-9.536743E-7,1.5E0,2.5E0,1.3702364E-1,-7.401993E-3,2.5E0,8.2049154E-2,1.7581391E-1,-7.836757E-2,1.9754195E-3,1.6586873E-1,2.5E0,1.9573507E-1,1.5E0,2.5E0,-1.9400937E-2,2.5E0,1.8381804E-2,-4.6488874E-2,9.717879E-3,-2.3622127E-1,1.317502E-1,-4.2831704E-2,-7.031242E-2,-2.5830597E-1],"split_indices":[2588,3018,14,0,953,1980,2796,1025,0,1516,2394,1025,2857,0,0,0,0,0,147,1308,1025,0,0,2360,0,0,0,0,0,1025,0,3034,0,0,1023,0,0,0,0,0,0,0,0],"split_type":[0,0,0,0,0,0,0,0,0,0,0,0,0,0,0,0,0,0,0,0,0,0,0,0,0,0,0,0,0,0,0,0,0,0,0,0,0,0,0,0,0,0,0],"sum_hessian":[9.1419E1,1.4334459E1,7.708454E1,7.055608E0,7.2788515E0,5.810545E1,1.8979092E1,4.561522E0,2.7173295E0,4.308899E0,5.379655E1,4.022187E0,1.4956905E1,1.5944221E0,2.9671E0,1.7020859E0,1.0152436E0,1.4011259E0,2.9077733E0,9.838307E0,4.395824E1,2.7491565E0,1.2730308E0,1.3946895E1,1.0100102E0,1.887822E0,1.0792779E0,1.3067243E0,1.6010488E0,2.2676373E0,7.57067E0,7.504156E0,3.6454086E1,1.1242594E0,1.2822636E1,1.112066E0,1.1555711E0,1.0490102E0,6.455146E0,1.0166302E1,2.6287785E1,2.7049546E0,1.0117681E1],"tree_param":{"num_deleted":"0","num_feature":"3061","num_nodes":"43","size_leaf_vector":"0"}},{"base_weights":[4.6625428E-2,8.7826324E-1,-1.4611177E-2,6.2230915E-1,-1.03563294E-1,7.884045E-1,1.1147833E-2,-1.6873671E-1,7.9677624E-1,9.0626806E-1,3.4156755E-1,-5.390373E-1,5.409216E-1,4.13793E-1,-2.8470072E-1,-4.2326923E-2,5.50877E-1,6.3858193E-1,6.521041E-3,1.0771495E0,-3.483451E-1,5.8026177E-1,-4.5431694E-1,6.3773954E-1,-4.5192182E-1],"categories":[],"categories_nodes":[],"categories_segments":[],"categories_sizes":[],"default_left":[0,0,0,0,1,0,1,0,0,0,1,0,0,1,0,0,0,0,0,0,0,0,0,0,0],"id":18,"left_children":[1,-1,3,5,7,9,11,13,-1,-1,15,-1,-1,17,19,-1,-1,-1,21,-1,23,-1,-1,-1,-1],"loss_changes":[4.338613E0,0E0,4.6025114E0,1.002105E0,4.308868E0,1.0208702E-1,1.2075065E0,4.6549044E0,0E0,0E0,2.8335613E-1,0E0,0E0,1.0539894E0,5.2814856E0,0E0,0E0,0E0,1.617601E0,0E0,5.888722E0,0E0,0E0,0E0,0E0],"parents":[2147483647,0,0,2,2,3,3,4,4,5,5,6,6,7,7,10,10,13,13,14,14,18,18,20,20],"right_children":[2,-1,4,6,8,10,12,14,-1,-1,16,-1,-1,18,20,-1,-1,-1,22,-1,24,-1,-1,-1,-1],"split_conditions":[4.000001E0,2.2834843E-1,2.2E1,1.7E1,-9.536743E-7,6.5E0,1.5E0,2.5E0,2.0716181E-1,2.356297E-1,2.5E0,-1.4014968E-1,1.4063962E-1,3.5E0,3E0,-1.1004999E-2,1.4322801E-1,1.660313E-1,4.000001E0,2.8005886E-1,1.2000001E1,1.5086806E-1,-1.181224E-1,1.6581227E-1,-1.1749967E-1],"split_indices":[1334,0,2935,14,2040,0,2128,2128,0,0,2407,0,0,0,480,0,0,0,2831,0,2289,0,0,0,0],"split_type":[0,0,0,0,0,0,0,0,0,0,0,0,0,0,0,0,0,0,0,0,0,0,0,0,0],"sum_hessian":[8.394134E1,4.841953E0,7.909938E1,8.958462E0,7.014092E1,6.816052E0,2.1424096E0,6.616405E1,3.9768717E0,4.5798306E0,2.2362213E0,1.0423812E0,1.1000283E0,1.0558175E1,5.5605877E1,1.0705335E0,1.1656878E0,6.4372573E0,4.120918E0,1.7716637E0,5.3834213E1,1.7201704E0,2.4007473E0,4.626949E0,4.9207264E1],"tree_param":{"num_deleted":"0","num_feature":"3061","num_nodes":"25","size_leaf_vector":"0"}},{"base_weights":[5.6770198E-2,3.762087E-1,-8.2042746E-2,-3.644538E-1,4.5298484E-1,9.645275E-1,-1.4617184E-1,7.309923E-1,2.8371283E-1,6.008104E-1,-2.401147E-1,-1.2522648E-1,4.7671357E-1,-3.840444E-1,9.432161E-1,9.499436E-1,-2.9886553E-1,-4.791883E-1,4.3476012E-1,5.917129E-1,-1.311245E-1,-3.756187E-1,6.752485E-1,4.7210827E-2,-6.868002E-1,1.9608553E-1,6.527383E-1,5.8903986E-1,-4.71849E-1],"categories":[],"categories_nodes":[],"categories_segments":[],"categories_sizes":[],"default_left":[0,0,0,0,0,0,0,0,0,0,0,1,1,0,0,0,1,0,0,0,0,0,0,0,0,0,0,0,0],"id":19,"left_children":[1,3,5,-1,7,-1,9,-1,11,13,15,17,19,-1,-1,-1,21,23,-1,25,-1,27,-1,-1,-1,-1,-1,-1,-1],"loss_changes":[3.5584888E0,1.5456431E0,3.9180474E0,0E0,8.4876156E-1,0E0,3.9263468E0,0E0,1.2896686E0,2.488902E0,3.6811392E0,1.3557245E0,8.3218884E-1,0E0,0E0,0E0,3.7724652E0,4.72027E-1,0E0,9.5555544E-2,0E0,4.387441E0,0E0,0E0,0E0,0E0,0E0,0E0,0E0],"parents":[2147483647,0,0,1,1,2,2,4,4,6,6,8,8,9,9,10,10,11,11,12,12,16,16,17,17,19,19,21,21],"right_children":[2,4,6,-1,8,-1,10,-1,12,14,16,18,20,-1,-1,-1,22,24,-1,26,-1,28,-1,-1,-1,-1,-1,-1,-1],"split_conditions":[1.05E1,1.4000001E1,1.5E0,-9.475798E-2,3.5E0,2.5077713E-1,1.5E0,1.90058E-1,4.5E0,2.5E0,3.5E0,1.5E0,3.5E0,-9.985154E-2,2.4523617E-1,2.4698533E-1,-9.536743E-7,4.000001E0,1.1303763E-1,1.5E0,-3.4092367E-2,4E0,1.755646E-1,1.2274815E-2,-1.7856804E-1,5.0982237E-2,1.6971195E-1,1.5315036E-1,-1.2268073E-1],"split_indices":[2796,1135,2937,0,3018,0,2455,0,2857,1678,480,2128,1023,0,0,0,2040,2588,0,3034,0,1401,0,0,0,0,0,0,0],"split_type":[0,0,0,0,0,0,0,0,0,0,0,0,0,0,0,0,0,0,0,0,0,0,0,0,0,0,0,0,0],"sum_hessian":[7.855455E1,2.3277597E1,5.527695E1,1.8343723E0,2.1443226E1,2.380898E0,5.2896053E1,6.8592844E0,1.45839405E1,5.306465E0,4.758959E1,4.7886586E0,9.795282E0,1.337586E0,3.9688792E0,1.5252409E0,4.6064346E1,3.0224714E0,1.7661873E0,8.259216E0,1.5360653E0,4.326943E1,2.79492E0,1.0734199E0,1.9490515E0,1.6667646E0,6.592452E0,3.4603248E0,3.98091E1],"tree_param":{"num_deleted":"0","num_feature":"3061","num_nodes":"29","size_leaf_vector":"0"}},{"base_weights":[6.1182003E-2,8.415284E-1,5.282021E-3,4.9008462E-1,-9.16696E-2,-1.9712858E-1,5.718096E-1,-8.229141E-1,-1.3866336E-2,6.5911514E-1,-7.947142E-2,6.532241E-1,-9.990813E-2,2.8500628E-1,7.816903E-1,9.164068E-1,1.2711637E-1,1.0509624E0,-1.5645109E-1,6.590272E-1,-3.0063784E-1,5.500411E-1,-3.3891153E-1,2.4846816E-1,-3.4982786E-1],"categories":[],"categories_nodes":[],"categories_segments":[],"categories_sizes":[],"default_left":[0,0,0,0,0,0,0,0,0,0,0,0,0,0,0,0,0,0,0,0,0,0,0,0,0],"id":20,"left_children":[1,-1,3,5,7,-1,9,-1,11,13,-1,15,17,19,-1,-1,21,-1,23,-1,-1,-1,-1,-1,-1],"loss_changes":[3.2594175E0,0E0,3.373978E0,7.84492E-1,3.3945618E0,0E0,6.747925E-1,0E0,3.2293713E0,2.2477245E-1,0E0,7.7390003E-1,3.3982935E0,1.0704587E0,0E0,0E0,8.3786625E-1,0E0,3.8641098E0,0E0,0E0,0E0,0E0,0E0,0E0],"parents":[2147483647,0,0,2,2,3,3,4,4,6,6,8,8,9,9,11,11,12,12,13,13,16,16,18,18],"right_children":[2,-1,4,6,8,-1,10,-1,12,14,-1,16,18,20,-1,-1,22,-1,24,-1,-1,-1,-1,-1,-1],"split_conditions":[4.000001E0,2.1879739E-1,1.6E1,8.000001E0,8.000001E0,-5.1253427E-2,2.65E1,-2.1395767E-1,3.5E0,2.5E0,-2.0662569E-2,6.5E0,1.5E0,1.5E0,2.0323947E-1,2.3826577E-1,4E0,2.7325022E-1,2.2E1,1.7134707E-1,-7.816584E-2,1.4301068E-1,-8.8116996E-2,6.460172E-2,-9.095524E-2],"split_indices":[1334,0,2394,1135,934,0,0,0,1080,14,0,2844,1516,14,0,0,2588,0,3034,0,0,0,0,0,0],"split_type":[0,0,0,0,0,0,0,0,0,0,0,0,0,0,0,0,0,0,0,0,0,0,0,0,0],"sum_hessian":[7.3822586E1,3.9952972E0,6.9827286E1,1.096122E1,5.8866066E1,1.0149088E0,9.946311E0,4.739969E0,5.41261E1,8.759989E0,1.1863223E0,5.430553E0,4.8695545E1,2.9824572E0,5.777531E0,3.125284E0,2.3052688E0,1.4568087E0,4.7238735E1,1.7436036E0,1.2388536E0,1.1140149E0,1.191254E0,1.5176071E1,3.2062664E1],"tree_param":{"num_deleted":"0","num_feature":"3061","num_nodes":"25","size_leaf_vector":"0"}},{"base_weights":[6.1442547E-2,-6.777147E-1,1.1629307E-1,-1.8988225E-1,-7.8017205E-1,5.592776E-1,3.270133E-2,2.573981E-1,8.1935996E-1,1.02096006E-1,-7.9838175E-1,5.837075E-1,-3.5225192E-1,-7.479493E-1,1.5764691E-1,7.277186E-1,7.695563E-2,-7.193743E-1,2.1078238E-1,7.5441074E-1,1.3617125E-1],"categories":[],"categories_nodes":[],"categories_segments":[],"categories_sizes":[],"default_left":[0,0,0,0,0,0,0,0,0,0,0,1,0,0,0,0,0,0,0,0,0],"id":21,"left_children":[1,3,5,-1,-1,7,9,11,-1,13,-1,15,-1,-1,17,-1,-1,-1,19,-1,-1],"loss_changes":[2.928369E0,1.01857185E-1,2.4361506E0,0E0,0E0,6.1034966E-1,3.358634E0,1.4587091E0,0E0,2.6362133E0,0E0,2.708894E-1,0E0,0E0,2.522915E0,0E0,0E0,0E0,1.8746655E0,0E0,0E0],"parents":[2147483647,0,0,1,1,2,2,5,5,6,6,7,7,9,9,11,11,14,14,18,18],"right_children":[2,4,6,-1,-1,8,10,12,-1,14,-1,16,-1,-1,18,-1,-1,-1,20,-1,-1],"split_conditions":[4.8E1,3.5E0,1.6E1,-4.9369384E-2,-2.0284472E-1,4.5E0,3.15E1,2.5E0,2.1303359E-1,3E1,-2.0757924E-1,3E0,-9.1585495E-2,-1.9446681E-1,1.5E0,1.8920682E-1,2.0008463E-2,-1.870373E-1,8.000001E0,1.9614679E-1,3.5404526E-2],"split_indices":[2629,2796,2394,0,0,1025,1025,1025,0,1468,0,1023,0,0,1629,0,0,0,1980,0,0],"split_type":[0,0,0,0,0,0,0,0,0,0,0,0,0,0,0,0,0,0,0,0,0],"sum_hessian":[6.928449E1,4.0017576E0,6.528273E1,1.1898379E0,2.81192E0,9.46E0,5.582273E1,5.299042E0,4.1609583E0,5.233035E1,3.4923832E0,3.4793212E0,1.8197209E0,2.4454606E0,4.9884888E1,2.369812E0,1.1095092E0,2.1334236E0,4.7751465E1,4.663227E0,4.3088238E1],"tree_param":{"num_deleted":"0","num_feature":"3061","num_nodes":"21","size_leaf_vector":"0"}},{"base_weights":[4.3361258E-2,-1.9069532E-2,6.8032026E-1,7.9297453E-1,-7.602944E-2,8.161043E-1,1.6858831E-1,2.3347715E-1,-2.4787088E-1,-5.951384E-1,3.2838857E-1,6.205711E-1,-3.8698345E-1,-4.8260722E-1,3.9887312E-1,7.870211E-1,-4.228329E-2,7.306491E-1,-4.9564332E-1,-1.0507847E-1,4.4134787E-1,8.662351E-1,-5.8718026E-1],"categories":[],"categories_nodes":[],"categories_segments":[],"categories_sizes":[],"default_left":[1,0,0,0,0,0,0,0,0,0,0,0,0,0,0,0,0,0,0,0,0,0,0],"id":22,"left_children":[1,3,5,-1,7,-1,-1,9,11,-1,13,15,17,-1,19,-1,-1,-1,21,-1,-1,-1,-1],"loss_changes":[2.6786053E0,2.929063E0,2.8008628E-1,0E0,3.1889043E0,0E0,0E0,1.8887722E0,4.871818E0,0E0,1.3336365E0,6.5967727E-1,4.449952E0,0E0,4.5123863E-1,0E0,0E0,0E0,4.4073043E0,0E0,0E0,0E0,0E0],"parents":[2147483647,0,0,1,1,2,2,4,4,7,7,8,8,10,10,11,11,12,12,14,14,18,18],"right_children":[2,4,6,-1,8,-1,-1,10,12,-1,14,16,18,-1,20,-1,-1,-1,22,-1,-1,-1,-1],"split_conditions":[1.5E0,6.000001E0,2.3E1,2.0617338E-1,3.3E1,2.1218711E-1,4.3832958E-2,1.5E0,8.000001E0,-1.5473597E-1,4.000001E0,7.5E0,2.000001E0,-1.2547787E-1,1.5E0,2.0462547E-1,-1.0993655E-2,1.8996876E-1,3E0,-2.7320402E-2,1.14750445E-1,2.2522111E-1,-1.5266687E-1],"split_indices":[1004,21,14,0,3034,0,0,1415,1980,0,1629,14,1571,0,2451,0,0,0,480,0,0,0,0],"split_type":[0,0,0,0,0,0,0,0,0,0,0,0,0,0,0,0,0,0,0,0,0,0,0],"sum_hessian":[6.603319E1,6.102223E1,5.0109606E0,3.1528118E0,5.7869415E1,3.4901013E0,1.5208591E0,2.0531357E1,3.733806E1,1.568372E0,1.8962984E1,4.677399E0,3.266066E1,1.0487751E0,1.791421E1,3.588873E0,1.0885265E0,2.3867996E0,3.027386E1,1.277936E0,1.6636274E1,1.3736463E0,2.8900215E1],"tree_param":{"num_deleted":"0","num_feature":"3061","num_nodes":"23","size_leaf_vector":"0"}},{"base_weights":[4.7513857E-2,7.825379E-1,-1.7795615E-3,5.19246E-1,-6.9829024E-2,-1.9842462E-1,7.475175E-1,7.908335E-1,-1.2202047E-1,2.7034518E-1,8.672182E-1,3.7975442E-1,-2.2943108E-1,7.885317E-1,-2.9059318E-3,2.7415374E-1,-3.8539585E-1,-3.9522755E-1,5.0771E-1,-9.7193606E-2,9.4736236E-1,4.2230344E-1,-6.149839E-1],"categories":[],"categories_nodes":[],"categories_segments":[],"categories_sizes":[],"default_left":[0,0,0,0,0,0,0,0,0,0,0,0,0,0,0,1,0,0,0,0,0,0,0],"id":23,"left_children":[1,-1,3,5,7,-1,9,-1,11,-1,-1,13,15,-1,17,19,21,-1,-1,-1,-1,-1,-1],"loss_changes":[2.2576065E0,0E0,2.1407418E0,1.291038E0,2.4943018E0,0E0,7.980108E-2,0E0,2.8463154E0,0E0,0E0,1.4731654E0,3.466569E0,0E0,1.3731818E0,2.7678447E0,6.395527E0,0E0,0E0,0E0,0E0,0E0,0E0],"parents":[2147483647,0,0,2,2,3,3,4,4,6,6,8,8,11,11,12,12,14,14,15,15,16,16],"right_children":[2,-1,4,6,8,-1,10,-1,12,-1,-1,14,16,-1,18,20,22,-1,-1,-1,-1,-1,-1],"split_conditions":[4.000001E0,2.0345984E-1,1.5E0,1.25E1,6.000001E0,-5.15904E-2,2.5E0,2.056167E-1,6.000001E0,7.0289746E-2,2.2547673E-1,1.0000001E1,1.5E0,2.0501824E-1,2.000001E0,2.5E0,2.5E0,-1.0275916E-1,1.3200459E-1,-2.5270337E-2,2.4631421E-1,1.0979889E-1,-1.5989581E-1],"split_indices":[1334,0,2455,14,1573,0,1678,0,2588,0,0,3018,0,0,953,14,2831,0,0,0,0,0,0],"split_type":[0,0,0,0,0,0,0,0,0,0,0,0,0,0,0,0,0,0,0,0,0,0,0],"sum_hessian":[6.1271576E1,2.9159634E0,5.835561E1,5.9752517E0,5.238036E1,1.4734801E0,4.5017715E0,2.1856341E0,5.0194725E1,1.5562958E0,2.9454758E0,8.403191E0,4.1791534E1,3.5501173E0,4.8530736E0,9.703316E0,3.208822E1,2.8722308E0,1.9808428E0,6.8051605E0,2.8981555E0,6.91646E0,2.5171759E1],"tree_param":{"num_deleted":"0","num_feature":"3061","num_nodes":"23","size_leaf_vector":"0"}},{"base_weights":[5.8164824E-2,4.5348716E-1,-2.620485E-2,-5.1762838E-2,5.824604E-1,-7.119115E-2,8.022028E-1,7.063139E-1,-4.9319714E-2,7.345443E-1,-1.2043373E-1,1.7373201E-1,7.996394E-1,-6.2453E-1,-1.45836575E-2,1.1142259E-1,-7.605332E-1,-6.107752E-1,6.37494E-2,-2.6264745E-1,-8.304661E-1,4.1677752E-1,-8.770031E-2],"categories":[],"categories_nodes":[],"categories_segments":[],"categories_sizes":[],"default_left":[0,0,1,0,0,0,0,0,0,0,0,0,0,0,1,0,0,0,1,0,0,0,0],"id":24,"left_children":[1,3,5,-1,7,9,-1,11,-1,-1,13,-1,-1,15,17,-1,19,-1,21,-1,-1,-1,-1],"loss_changes":[1.9517763E0,7.003162E-1,1.8786359E0,0E0,6.823063E-1,1.9643152E0,0E0,2.0818543E-1,0E0,0E0,2.4141622E0,0E0,0E0,8.711989E-1,1.8396254E0,0E0,1.7240524E-2,0E0,1.90707E0,0E0,0E0,0E0,0E0],"parents":[2147483647,0,0,1,1,2,2,4,4,5,5,7,7,10,10,13,13,14,14,16,16,18,18],"right_children":[2,4,6,-1,8,10,-1,12,-1,-1,14,-1,-1,16,18,-1,20,-1,22,-1,-1,-1,-1],"split_conditions":[1.6E1,1.5E0,-9.536743E-7,-1.3458338E-2,3.1E1,6.000001E0,2.0857273E-1,2E0,-1.2823125E-2,1.909815E-1,2.5E0,4.5170322E-2,2.0790623E-1,2.000001E0,1.5E0,2.8969873E-2,2.000001E0,-1.5880154E-1,1.5E0,-6.828833E-2,-2.1592118E-1,1.0836215E-1,-2.280208E-2],"split_indices":[2394,1308,147,0,0,1573,0,2397,0,0,14,0,0,1980,1025,0,778,0,0,0,0,0,0],"split_type":[0,0,0,0,0,0,0,0,0,0,0,0,0,0,0,0,0,0,0,0,0,0,0],"sum_hessian":[5.7162083E1,9.28435E0,4.787773E1,2.0097706E0,7.27458E0,4.6278652E1,1.5990783E0,5.983589E0,1.2909907E0,1.8638827E0,4.4414772E1,1.3188518E0,4.6647377E0,6.857368E0,3.7557404E1,1.0977671E0,5.759601E0,3.5722108E0,3.398519E1,1.295072E0,4.464529E0,9.676777E0,2.4308414E1],"tree_param":{"num_deleted":"0","num_feature":"3061","num_nodes":"23","size_leaf_vector":"0"}},{"base_weights":[5.142411E-2,6.904975E-1,3.292809E-3,6.39783E-2,-6.6477865E-1,6.9715726E-1,1.8593637E-2,-1.9619882E-1,-7.4431986E-1,4.7094804E-1,-5.830328E-2,-1.6901384E-1,6.0863656E-1,2.6306275E-1,-2.0165712E-1,7.955007E-1,1.1846862E-1,3.8586536E-1,-1.6674994E-1,4.995652E-1,-3.418721E-1],"categories":[],"categories_nodes":[],"categories_segments":[],"categories_sizes":[],"default_left":[0,0,1,0,0,0,0,0,0,0,0,0,1,1,0,0,0,0,0,0,0],"id":25,"left_children":[1,-1,3,5,7,-1,9,-1,-1,11,13,-1,15,17,19,-1,-1,-1,-1,-1,-1],"loss_changes":[1.700235E0,0E0,2.1700802E0,1.3956952E0,2.0110607E-2,0E0,1.6542813E0,0E0,0E0,7.113333E-1,1.9355724E0,0E0,4.461696E-1,7.525753E-1,3.004815E0,0E0,0E0,0E0,0E0,0E0,0E0],"parents":[2147483647,0,0,2,2,3,3,4,4,6,6,9,9,10,10,12,12,13,13,14,14],"right_children":[2,-1,4,6,8,-1,10,-1,-1,12,14,-1,16,18,20,-1,-1,-1,-1,-1,-1],"split_conditions":[1.3E1,1.7952935E-1,5.5E0,6.000001E0,8.5E0,1.8126088E-1,2.5E0,-5.1011693E-2,-1.9352315E-1,2.5E0,1.8E1,-4.39436E-2,1.5E0,1.5E0,8.000001E0,2.0683017E-1,3.080184E-2,1.0032499E-1,-4.3354984E-2,1.2988696E-1,-8.8886745E-2],"split_indices":[2393,0,1023,21,2857,0,1856,0,0,2796,2796,0,1023,991,1980,0,0,0,0,0,0],"split_type":[0,0,0,0,0,0,0,0,0,0,0,0,0,0,0,0,0,0,0,0,0],"sum_hessian":[5.434915E1,2.8718214E0,5.147733E1,4.8019615E1,3.457715E0,2.2511985E0,4.5768417E1,1.0048345E0,2.4528806E0,5.9053216E0,3.9863094E1,1.0052971E0,4.9000244E0,1.2039121E1,2.7823975E1,3.0966067E0,1.8034177E0,9.443304E0,2.595817E0,4.20945E0,2.3614525E1],"tree_param":{"num_deleted":"0","num_feature":"3061","num_nodes":"21","size_leaf_vector":"0"}},{"base_weights":[4.8371594E-2,7.2841054E-1,3.3406622E-3,-2.045059E-1,1.5774226E-1,2.0356592E-2,-6.099236E-1,-6.2484586E-1,2.4049693E-1,5.3482366E-1,-2.205196E-1,-8.6291873E-1,2.2021921E-1,-5.2319217E-1,3.1500506E-1,6.809832E-1,2.763739E-1,4.1308218E-1,-4.218405E-1,-2.6538876E-1,-9.822178E-1,-5.685969E-1,3.7542215E-1,5.436049E-1,-5.4408208E-2,3.0893567E-1,-5.992871E-1,-5.015818E-1,4.393698E-1],"categories":[],"categories_nodes":[],"categories_segments":[],"categories_sizes":[],"default_left":[0,0,1,0,0,0,1,0,0,0,0,0,0,0,0,0,0,0,0,0,0,0,0,0,0,0,0,0,0],"id":26,"left_children":[1,-1,3,5,7,9,11,-1,13,15,17,19,-1,-1,21,-1,23,-1,25,-1,-1,-1,27,-1,-1,-1,-1,-1,-1],"loss_changes":[1.6235173E0,0E0,1.6626256E0,2.026153E0,2.0746226E0,1.9986333E0,1.8519416E0,0E0,1.7349507E0,5.6403875E-3,1.5830874E0,1.8614721E-1,0E0,0E0,1.5889504E0,0E0,3.422122E-1,0E0,1.3361647E0,0E0,0E0,0E0,1.6066732E0,0E0,0E0,0E0,0E0,0E0,0E0],"parents":[2147483647,0,0,2,2,3,3,4,4,5,5,6,6,8,8,9,9,10,10,11,11,14,14,16,16,18,18,22,22],"right_children":[2,-1,4,6,8,10,12,-1,14,16,18,20,-1,-1,22,-1,24,-1,26,-1,-1,-1,28,-1,-1,-1,-1,-1,-1],"split_conditions":[4.000001E0,1.8938674E-1,2.5E0,3.5E0,4.8E1,1.5E0,1.5E0,-1.6245992E-1,1.35E1,2.000001E0,1.5E0,3.5E0,5.7256993E-2,-1.3602996E-1,4.000001E0,1.7705563E-1,2.000001E0,1.0740136E-1,1.5E0,-6.900107E-2,-2.553766E-1,-1.478352E-1,1.6E1,1.4133728E-1,-1.4146133E-2,8.032327E-2,-1.5581463E-1,-1.3041127E-1,1.14236146E-1],"split_indices":[1334,0,14,1025,2629,14,3034,0,2367,991,2796,1023,0,0,2303,0,1980,0,1516,0,0,0,1135,0,0,0,0,0,0],"split_type":[0,0,0,0,0,0,0,0,0,0,0,0,0,0,0,0,0,0,0,0,0,0,0,0,0,0,0,0,0],"sum_hessian":[5.2096104E1,2.2929604E0,4.9803143E1,2.1089355E1,2.8713787E1,1.4176329E1,6.9130273E0,2.119517E0,2.6594269E1,4.131622E0,1.0044706E1,5.2680492E0,1.644978E0,1.8286926E0,2.4765577E1,1.5948305E0,2.5367916E0,2.1684017E0,7.876305E0,1.4133931E0,3.854656E0,1.0466782E0,2.3718899E1,1.0473053E0,1.4894861E0,1.3940791E0,6.482226E0,1.1468536E0,2.2572044E1],"tree_param":{"num_deleted":"0","num_feature":"3061","num_nodes":"29","size_leaf_vector":"0"}},{"base_weights":[3.3554673E-2,3.913982E-1,-4.2655353E-2,6.4501965E-1,3.1265005E-2,6.701988E-1,-9.3762025E-2,-3.4558713E-1,4.7044718E-1,6.59547E-1,-1.4465244E-1,4.5406975E-2,-5.600935E-1,6.641741E-1,-1.961165E-1,2.6575446E-1,-3.0259663E-1,7.185144E-1,-1.0188123E-1,6.4145815E-1,-3.6340314E-1],"categories":[],"categories_nodes":[],"categories_segments":[],"categories_sizes":[],"default_left":[0,1,0,0,1,0,0,0,0,0,0,0,0,0,0,0,0,0,0,0,0],"id":27,"left_children":[1,3,5,-1,7,-1,9,11,-1,-1,13,-1,-1,-1,15,17,19,-1,-1,-1,-1],"loss_changes":[1.3795353E0,7.902247E-1,1.5966458E0,0E0,9.433278E-1,0E0,1.6350576E0,2.8671628E-1,0E0,0E0,1.7303599E0,0E0,0E0,0E0,1.8957978E0,1.3129317E0,1.9819374E0,0E0,0E0,0E0,0E0],"parents":[2147483647,0,0,1,1,2,2,4,4,6,6,7,7,10,10,14,14,15,15,16,16],"right_children":[2,4,6,-1,8,-1,10,12,-1,-1,14,-1,-1,-1,16,18,20,-1,-1,-1,-1],"split_conditions":[1.6E1,2.5E0,2.5E0,1.677051E-1,1.5E0,1.7425168E-1,2.000001E0,5.5E0,1.2231626E-1,1.714822E-1,6.000001E0,1.1805813E-2,-1.4562431E-1,1.7268525E-1,1.0000001E1,6.000001E0,1.5E0,1.8681373E-1,-2.6489118E-2,1.6677912E-1,-9.448481E-2],"split_indices":[2394,1025,1376,0,2857,0,1334,0,0,0,1573,0,0,0,2588,3018,1516,0,0,0,0],"split_type":[0,0,0,0,0,0,0,0,0,0,0,0,0,0,0,0,0,0,0,0,0],"sum_hessian":[4.8973484E1,7.8724904E0,4.1100994E1,4.155176E0,3.717314E0,1.939161E0,3.9161835E1,2.1153193E0,1.6019948E0,1.721346E0,3.7440487E1,1.0286515E0,1.0866679E0,1.5275414E0,3.5912945E1,6.448022E0,2.9464924E1,2.4617932E0,3.9862287E0,1.2051494E0,2.8259775E1],"tree_param":{"num_deleted":"0","num_feature":"3061","num_nodes":"21","size_leaf_vector":"0"}},{"base_weights":[4.817818E-2,-3.563499E-3,5.746688E-1,6.084719E-1,-5.044287E-2,6.1052144E-1,-1.0131724E-1,4.8801252E-1,-1.6099194E-1,8.05354E-1,-1.3406572E-1,6.8653303E-1,-2.085025E-1,4.024301E-1,-2.8834656E-1],"categories":[],"categories_nodes":[],"categories_segments":[],"categories_sizes":[],"default_left":[1,0,0,0,0,0,0,0,0,0,0,0,0,0,0],"id":28,"left_children":[1,3,-1,-1,5,-1,7,9,11,-1,-1,-1,13,-1,-1],"loss_changes":[1.2893435E0,1.2937155E0,0E0,0E0,1.4678271E0,0E0,1.4740795E0,8.772176E-1,1.6243267E0,0E0,0E0,0E0,1.852536E0,0E0,0E0],"parents":[2147483647,0,0,1,1,4,4,6,6,7,7,8,8,12,12],"right_children":[2,4,-1,-1,6,-1,8,10,12,-1,-1,-1,14,-1,-1],"split_conditions":[1.5E0,3E1,1.4941388E-1,1.5820268E-1,1.5E0,1.5873557E-1,4E0,4.5E0,3.5E0,2.0939203E-1,-3.4857087E-2,1.7849858E-1,8.000001E0,1.0463182E-1,-7.4970104E-2],"split_indices":[1004,1571,0,0,2319,0,1401,14,480,0,0,0,1980,0,0],"split_type":[0,0,0,0,0,0,0,0,0,0,0,0,0,0,0],"sum_hessian":[4.625493E1,4.3020275E1,3.2346525E0,2.2084363E0,4.081184E1,2.1305804E0,3.868126E1,2.8966742E0,3.5784584E1,1.723066E0,1.1736082E0,1.185566E0,3.459902E1,3.5321696E0,3.106685E1],"tree_param":{"num_deleted":"0","num_feature":"3061","num_nodes":"15","size_leaf_vector":"0"}},{"base_weights":[5.7159178E-2,4.6615282E-1,1.0845285E-3,-1.7206818E-1,6.680143E-1,-6.8700737E-1,5.0441805E-2,4.082294E-1,-3.4487475E-2,-2.0862472E-1,5.7291734E-1,1.0828884E-1,-3.7940493E-1,6.437474E-1,2.2527874E-1,4.2967394E-1,-2.3437513E-2,1.7514029E-1,-5.5058026E-1,2.0019823E-1,7.287443E-1,6.3056284E-1,3.2085095E-2,2.9409787E-1,-4.7146457E-1,-9.9613406E-2,-7.8658587E-1],"categories":[],"categories_nodes":[],"categories_segments":[],"categories_sizes":[],"default_left":[0,0,0,0,0,0,0,0,0,0,0,0,0,0,0,0,1,0,0,0,0,0,0,0,0,0,0],"id":29,"left_children":[1,3,5,-1,-1,-1,7,9,11,-1,13,15,17,19,-1,21,23,-1,25,-1,-1,-1,-1,-1,-1,-1,-1],"loss_changes":[1.0522988E0,8.277247E-1,1.4397728E0,0E0,0E0,0E0,1.2154262E0,8.979188E-1,1.659958E0,0E0,1.0462761E-2,1.0272603E0,1.0310475E0,3.1578183E-2,0E0,5.41806E-1,2.698054E0,0E0,7.4807E-1,0E0,0E0,0E0,0E0,0E0,0E0,0E0,0E0],"parents":[2147483647,0,0,1,1,2,2,6,6,7,7,8,8,10,10,11,11,12,12,13,13,15,15,16,16,18,18],"right_children":[2,4,6,-1,-1,-1,8,10,12,-1,14,16,18,20,-1,22,24,-1,26,-1,-1,-1,-1,-1,-1,-1,-1],"split_conditions":[1.5E0,1.25E1,1.8E1,-4.4737726E-2,1.736837E-1,-1.786219E-1,6.000001E0,2.5E0,1.05E1,-5.4242425E-2,7.5E0,3.5E0,1.5E0,2.5E0,5.8572467E-2,1.6E1,3.5E0,4.5536473E-2,5.5E0,5.205154E-2,1.8947352E-1,1.6394633E-1,8.3421245E-3,7.646544E-2,-1.2258078E-1,-2.5899485E-2,-2.0451231E-1],"split_indices":[2455,14,2942,0,0,0,2588,0,14,0,1025,2407,2796,1025,0,3034,1025,0,1023,0,0,0,0,0,0,0,0],"split_type":[0,0,0,0,0,0,0,0,0,0,0,0,0,0,0,0,0,0,0,0,0,0,0,0,0,0,0],"sum_hessian":[4.490548E1,4.5326266E0,4.0372852E1,1.1245992E0,3.4080274E0,1.8374742E0,3.8535378E1,6.66223E0,3.1873148E1,1.3476589E0,5.3145714E0,2.3027224E1,8.845923E0,3.7074254E0,1.6071459E0,6.0368032E0,1.6990421E1,2.0810194E0,6.764904E0,1.1357852E0,2.57164E0,3.6211734E0,2.41563E0,1.0144303E1,6.8461175E0,2.812594E0,3.95231E0],"tree_param":{"num_deleted":"0","num_feature":"3061","num_nodes":"27","size_leaf_vector":"0"}},{"base_weights":[4.845113E-2,6.568896E-1,7.878962E-3,3.3649743E-1,-6.573015E-2,5.7560664E-1,1.6654385E-2,-6.505181E-1,-2.0369857E-3,-3.2867426E-1,3.8080862E-1,-6.78194E-2,5.2637005E-1,6.5685445E-1,-1.17752984E-1,3.9565864E-1,-1.9221286E-1],"categories":[],"categories_nodes":[],"categories_segments":[],"categories_sizes":[],"default_left":[0,0,0,1,0,0,1,0,1,0,0,0,0,0,0,0,0],"id":30,"left_children":[1,-1,3,5,7,-1,9,-1,11,-1,-1,13,-1,-1,15,-1,-1],"loss_changes":[1.0678031E0,0E0,1.032278E0,5.8737737E-1,1.3006374E0,0E0,6.7457E-1,0E0,1.1662548E0,0E0,0E0,1.1560313E0,0E0,0E0,1.174593E0,0E0,0E0],"parents":[2147483647,0,0,2,2,3,3,4,4,6,6,8,8,11,11,14,14],"right_children":[2,-1,4,6,8,-1,10,-1,12,-1,-1,14,-1,-1,16,-1,-1],"split_conditions":[4.000001E0,1.707913E-1,1.6E1,2.5E0,8.000001E0,1.4965773E-1,1.5E0,-1.691347E-1,1.5E0,-8.5455306E-2,9.901024E-2,3E0,1.3685621E-1,1.7078215E-1,1.9E1,1.0287125E-1,-4.9975343E-2],"split_indices":[1334,0,2394,1025,934,0,1023,0,2128,0,0,480,0,0,2093,0,0],"split_type":[0,0,0,0,0,0,0,0,0,0,0,0,0,0,0,0,0],"sum_hessian":[4.2465652E1,1.7050662E0,4.0760586E1,6.805754E0,3.3954834E1,3.4368045E0,3.3689497E0,2.4300869E0,3.1524746E1,1.7791793E0,1.5897703E0,2.8809809E1,2.714936E0,1.0736485E0,2.773616E1,2.96669E0,2.476947E1],"tree_param":{"num_deleted":"0","num_feature":"3061","num_nodes":"17","size_leaf_vector":"0"}},{"base_weights":[5.124391E-2,-4.8576355E-1,9.263329E-2,5.8523643E-1,4.87826E-2,9.707012E-2,-5.3222674E-1,3.7947414E-3,3.518014E-1,1.0042154E-1,-9.103648E-1,-1.997092E-1,5.6118995E-1,2.6258597E-1,-1.629511E-1,3.080625E-1,-5.6576437E-1,6.709758E-1,-1.5114637E-2],"categories":[],"categories_nodes":[],"categories_segments":[],"categories_sizes":[],"default_left":[0,0,0,0,1,1,0,1,0,0,0,0,0,0,0,0,0,0,0],"id":31,"left_children":[1,-1,3,-1,5,7,-1,9,11,13,-1,15,17,-1,-1,-1,-1,-1,-1],"loss_changes":[9.772809E-1,0E0,8.3080614E-1,0E0,1.1071715E0,8.440764E-1,0E0,2.4812732E0,1.2121143E0,1.1263133E0,0E0,7.9861766E-1,4.6359205E-1,0E0,0E0,0E0,0E0,0E0,0E0],"parents":[2147483647,0,0,2,2,4,4,5,5,7,7,8,8,9,9,11,11,12,12],"right_children":[2,-1,4,-1,6,8,-1,10,12,14,-1,16,18,-1,-1,-1,-1,-1,-1],"split_conditions":[4.8E1,-1.2629852E-1,1.3E1,1.5216146E-1,5.5E0,5.5E0,-1.3837895E-1,2.5E0,3.5E0,3.5E0,-2.3669484E-1,1.2000001E1,1.05E1,6.827235E-2,-4.2367283E-2,8.0096245E-2,-1.4709873E-1,1.744537E-1,-3.9298055E-3],"split_indices":[2629,0,2393,0,1023,14,0,1023,1023,1025,0,2128,0,0,0,0,0,0,0],"split_type":[0,0,0,0,0,0,0,0,0,0,0,0,0,0,0,0,0,0,0],"sum_hessian":[4.0944836E1,2.1616774E0,3.8783157E1,2.1610112E0,3.6622147E1,3.4581055E1,2.041093E0,2.6055254E1,8.5258E0,2.436954E1,1.6857152E0,2.358899E0,6.1669E0,1.50846E1,9.284939E0,1.0545338E0,1.3043654E0,5.0421076E0,1.1247927E0],"tree_param":{"num_deleted":"0","num_feature":"3061","num_nodes":"19","size_leaf_vector":"0"}},{"base_weights":[3.4377623E-2,3.4852445E-1,-3.860772E-2,-1.6297688E-1,4.896992E-1,6.072142E-1,-8.2806416E-2,-1.8318923E-1,6.541781E-1,5.7485837E-1,-1.3188739E-1,2.9042894E-1,-2.1491839E-1,5.388769E-1,-8.0646105E-2,3.6306643E-1,-3.0684268E-1,3.5043833E-1,-4.7954607E-1,-8.922085E-2,5.653107E-1,5.1025057E-1,-3.899848E-1],"categories":[],"categories_nodes":[],"categories_segments":[],"categories_sizes":[],"default_left":[0,0,0,0,0,0,0,0,0,0,0,0,0,0,0,1,0,0,0,0,0,0,0],"id":32,"left_children":[1,3,5,-1,7,-1,9,-1,-1,-1,11,13,15,-1,17,19,21,-1,-1,-1,-1,-1,-1],"loss_changes":[9.374152E-1,6.356224E-1,1.0094059E0,0E0,8.1509113E-1,0E0,1.1193507E0,0E0,0E0,0E0,1.1458333E0,5.506866E-1,1.5138037E0,0E0,6.970377E-1,4.2364192E-1,1.7829077E0,0E0,0E0,0E0,0E0,0E0,0E0],"parents":[2147483647,0,0,1,1,2,2,4,4,6,6,10,10,11,11,12,12,14,14,15,15,16,16],"right_children":[2,4,6,-1,8,-1,10,-1,-1,-1,12,14,16,-1,18,20,22,-1,-1,-1,-1,-1,-1],"split_conditions":[1.0000001E1,2.5E0,6.000001E0,-4.2373985E-2,1.0000001E1,1.5787569E-1,1.5E0,-4.7629196E-2,1.700863E-1,1.4946318E-1,2.5E0,4.5E0,1.5E0,1.4010799E-1,4E0,1.25E1,1.5E0,9.111396E-2,-1.2468197E-1,-2.319742E-2,1.4698078E-1,1.3266514E-1,-1.0139604E-1],"split_indices":[2588,0,1573,0,1598,0,2937,0,0,0,1856,0,2455,0,1389,14,2319,0,0,0,0,0,0],"split_type":[0,0,0,0,0,0,0,0,0,0,0,0,0,0,0,0,0,0,0,0,0,0,0],"sum_hessian":[3.92981E1,6.697057E0,3.2601044E1,1.4151787E0,5.2818785E0,1.2722926E0,3.132875E1,1.0151422E0,4.266736E0,1.4317288E0,2.9897022E1,4.501818E0,2.5395203E1,2.4255927E0,2.0762253E0,3.0799613E0,2.2315243E1,1.0562462E0,1.0199792E0,1.1243584E0,1.9556029E0,1.5865043E0,2.0728737E1],"tree_param":{"num_deleted":"0","num_feature":"3061","num_nodes":"23","size_leaf_vector":"0"}},{"base_weights":[4.539295E-2,6.210384E-1,5.4849666E-3,-3.9915774E-2,4.7538427E-1,5.311734E-1,-8.530769E-2,1.4253435E-1,-2.236172E-1,2.6729342E-2,4.2334867E-1,4.0957263E-1,-3.389257E-1,2.9658294E-1,-2.2270285E-1,6.449652E-1,-3.489422E-2,5.340806E-1,-4.3211296E-1],"categories":[],"categories_nodes":[],"categories_segments":[],"categories_sizes":[],"default_left":[0,0,1,0,0,0,0,1,0,1,0,0,0,0,0,0,0,0,0],"id":33,"left_children":[1,-1,3,5,-1,-1,7,9,11,13,15,-1,17,-1,-1,-1,-1,-1,-1],"loss_changes":[8.8288975E-1,0E0,8.101984E-1,9.4594264E-1,0E0,0E0,1.0732491E0,4.1448244E-1,1.6686138E0,7.6189446E-1,4.0390897E-1,0E0,1.7172687E0,0E0,0E0,0E0,0E0,0E0,0E0],"parents":[2147483647,0,0,2,2,3,3,6,6,7,7,8,8,9,9,10,10,12,12],"right_children":[2,-1,4,6,-1,-1,8,10,12,14,16,-1,18,-1,-1,-1,-1,-1,-1],"split_conditions":[4.000001E0,1.6146997E-1,1.5E0,3E1,1.235999E-1,1.3810508E-1,1.1E1,2.5E0,1.5E0,1.5E0,6.000001E0,1.0648888E-1,4.000001E0,7.7111565E-2,-5.790274E-2,1.6769093E-1,-9.072497E-3,1.3886096E-1,-1.1234937E-1],"split_indices":[1334,0,1004,1571,0,0,3034,2857,1980,0,2097,0,1276,0,0,0,0,0,0],"split_type":[0,0,0,0,0,0,0,0,0,0,0,0,0,0,0,0,0,0,0],"sum_hessian":[3.758016E1,1.4923449E0,3.6087814E1,3.3742714E1,2.3450997E0,1.6965077E0,3.2046207E1,1.2093545E1,1.9952662E1,9.337881E0,2.7556636E0,2.6806302E0,1.7272032E1,4.394531E0,4.943351E0,1.5827404E0,1.1729232E0,1.2095295E0,1.6062502E1],"tree_param":{"num_deleted":"0","num_feature":"3061","num_nodes":"19","size_leaf_vector":"0"}},{"base_weights":[5.640612E-2,3.3588356E-1,-1.2572121E-2,-1.3959421E-1,4.7333875E-1,5.7567346E-1,-5.5080704E-2,7.2769654E-1,7.787442E-2,4.4564328E-1,-1.1190715E-1,-3.6583024E-1,4.340695E-1,1.0605615E-1,5.7057E-1,5.489594E-1,-1.615525E-1,3.8372555E-1,-2.3771964E-1,5.083406E-1,7.979403E-2,4.6549684E-1,-2.9346254E-1],"categories":[],"categories_nodes":[],"categories_segments":[],"categories_sizes":[],"default_left":[0,0,0,0,1,0,0,0,1,0,0,0,0,0,0,0,0,0,0,0,0,0,0],"id":34,"left_children":[1,3,5,-1,7,-1,9,-1,11,13,15,-1,-1,-1,-1,-1,17,19,21,-1,-1,-1,-1],"loss_changes":[7.149691E-1,5.454262E-1,7.952301E-1,0E0,5.3855026E-1,0E0,8.861172E-1,0E0,7.0184535E-1,7.507688E-2,9.808583E-1,0E0,0E0,0E0,0E0,0E0,1.1737797E0,9.492326E-2,1.0573312E0,0E0,0E0,0E0,0E0],"parents":[2147483647,0,0,1,1,2,2,4,4,6,6,8,8,9,9,10,10,16,16,17,17,18,18],"right_children":[2,4,6,-1,8,-1,10,-1,12,14,16,-1,-1,-1,-1,-1,18,20,22,-1,-1,-1,-1],"split_conditions":[1.6E1,1.5E0,6.000001E0,-3.6294494E-2,2.5E0,1.496751E-1,4E0,1.8920109E-1,2.5E0,1.5E0,2.000001E0,-9.511586E-2,1.1285807E-1,2.7574597E-2,1.483482E-1,1.4272943E-1,3.5E0,6.5E0,1.5E0,1.3216855E-1,2.0746447E-2,1.21029176E-1,-7.6300256E-2],"split_indices":[2394,1308,1573,0,1025,0,1401,0,14,2097,1334,0,0,0,0,0,1080,2844,2937,0,0,0,0],"split_type":[0,0,0,0,0,0,0,0,0,0,0,0,0,0,0,0,0,0,0,0,0,0,0],"sum_hessian":[3.5868523E1,6.3343563E0,2.9534166E1,1.4170412E0,4.917315E0,1.1451224E0,2.8389044E1,2.48128E0,2.436035E0,2.196091E0,2.6192953E1,1.0727202E0,1.3633149E0,1.0878756E0,1.1082155E0,1.1274191E0,2.5065535E1,2.5772367E0,2.2488298E1,1.3508321E0,1.2264047E0,1.1117972E0,2.1376501E1],"tree_param":{"num_deleted":"0","num_feature":"3061","num_nodes":"23","size_leaf_vector":"0"}},{"base_weights":[6.889555E-2,-4.1074765E-1,1.0469144E-1,-3.820445E-2,2.243454E-1,4.5867762E-1,-1.8542491E-1,4.4932953E-1,4.6201084E-2,3.20922E-1,-3.328057E-1,3.690554E-2,5.405815E-1,4.8434377E-1,-2.0933768E-1,2.4722132E-1,-5.7839286E-1,-8.209927E-2,6.791411E-1,6.449661E-1,-2.3662133E-2,4.3514115E-1,-4.5516598E-1,3.9452165E-1,5.7051092E-2,-6.48181E-2,-7.483997E-1,1.2691495E-1,-6.0154486E-1],"categories":[],"categories_nodes":[],"categories_segments":[],"categories_sizes":[],"default_left":[0,0,1,0,0,0,0,0,0,0,0,0,0,0,0,0,0,0,0,0,0,0,1,0,0,0,0,0,0],"id":35,"left_children":[1,-1,3,5,7,-1,9,11,13,-1,15,-1,17,19,21,23,25,-1,-1,-1,-1,-1,27,-1,-1,-1,-1,-1,-1],"loss_changes":[6.546253E-1,0E0,5.88984E-1,1.2792462E0,7.2556776E-1,0E0,1.09976E0,2.854215E-1,1.3897383E0,0E0,1.6809871E0,0E0,6.226766E-1,3.8577092E-1,1.4601619E0,8.7081805E-2,6.3991547E-1,0E0,0E0,0E0,0E0,0E0,6.0933113E-1,0E0,0E0,0E0,0E0,0E0,0E0],"parents":[2147483647,0,0,2,2,3,3,4,4,6,6,7,7,8,8,10,10,12,12,13,13,14,14,15,15,16,16,22,22],"right_children":[2,-1,4,6,8,-1,10,12,14,-1,16,-1,18,20,22,24,26,-1,-1,-1,-1,-1,28,-1,-1,-1,-1,-1,-1],"split_conditions":[4.8E1,-1.0679439E-1,2.5E0,1.5E0,3.5E0,1.19256176E-1,1.5E0,2.5E0,2.5E0,8.3439715E-2,1.5E0,9.59544E-3,1.5E0,6.5E0,1.5E0,1.5E0,3.5E0,-2.134581E-2,1.7657667E-1,1.6769119E-1,-6.1521544E-3,1.13136694E-1,2.5E0,1.0257562E-1,1.4833284E-2,-1.6852705E-2,-1.9458391E-1,3.2997884E-2,-1.5640166E-1],"split_indices":[2629,0,14,2796,2407,0,2588,1848,2831,0,14,0,2128,0,2455,1025,1023,0,0,0,0,0,1025,0,0,0,0,0,0],"split_type":[0,0,0,0,0,0,0,0,0,0,0,0,0,0,0,0,0,0,0,0,0,0,0,0,0,0,0,0,0],"sum_hessian":[3.4623184E1,1.6770478E0,3.2946136E1,1.5325034E1,1.7621103E1,3.0192418E0,1.2305792E1,7.114145E0,1.0506958E1,2.5088367E0,9.796955E0,1.5433285E0,5.570816E0,3.5407176E0,6.9662404E0,2.9122226E0,6.8847327E0,1.0881586E0,4.4826574E0,2.4853048E0,1.0554127E0,1.7108546E0,5.2553854E0,1.035547E0,1.8766756E0,2.0557554E0,4.828977E0,1.082752E0,4.1726336E0],"tree_param":{"num_deleted":"0","num_feature":"3061","num_nodes":"29","size_leaf_vector":"0"}},{"base_weights":[6.428111E-2,5.5816364E-1,2.9345788E-2,2.9940346E-1,-3.909533E-2,-1.409613E-1,4.327007E-1,-5.42788E-1,1.4734667E-2,6.878116E-1,6.407606E-2,-4.2975415E-2,4.4810554E-1,-3.358543E-1,4.0318662E-1,4.300864E-1,-9.6533254E-2,-4.4599813E-1,4.1139808E-2],"categories":[],"categories_nodes":[],"categories_segments":[],"categories_sizes":[],"default_left":[0,0,0,0,0,0,1,0,1,0,0,0,0,0,0,0,1,0,0],"id":36,"left_children":[1,-1,3,5,7,-1,9,-1,11,-1,13,15,-1,-1,-1,-1,17,-1,-1],"loss_changes":[5.655279E-1,0E0,6.133933E-1,4.5413285E-1,7.3616564E-1,0E0,4.6251953E-1,0E0,6.5042096E-1,0E0,5.837775E-1,6.2889504E-1,0E0,0E0,0E0,0E0,1.0595992E0,0E0,0E0],"parents":[2147483647,0,0,2,2,3,3,4,4,6,6,8,8,10,10,11,11,16,16],"right_children":[2,-1,4,6,8,-1,10,-1,12,-1,14,16,-1,-1,-1,-1,18,-1,-1],"split_conditions":[4.000001E0,1.4512254E-1,1.6E1,1.5E0,8.000001E0,-3.664994E-2,2.5E0,-1.4112489E-1,1.5E0,1.7883101E-1,4.5E0,4E0,1.1650744E-1,-8.7322116E-2,1.04828514E-1,1.1182246E-1,2.5E0,-1.1595951E-1,1.069635E-2],"split_indices":[1334,0,2394,1308,934,0,1025,0,2128,0,1025,1733,0,0,0,0,1025,0,0],"split_type":[0,0,0,0,0,0,0,0,0,0,0,0,0,0,0,0,0,0,0],"sum_hessian":[3.272606E1,1.1725538E0,3.1553505E1,5.697494E0,2.585601E1,1.3105212E0,4.386973E0,1.6194335E0,2.4236578E1,2.080945E0,2.306028E0,2.2183353E1,2.0532243E0,1.0625321E0,1.2434958E0,1.5410815E0,2.0642271E1,5.2009077E0,1.5441363E1],"tree_param":{"num_deleted":"0","num_feature":"3061","num_nodes":"19","size_leaf_vector":"0"}},{"base_weights":[5.907794E-2,-3.8211715E-1,9.3045205E-2,-3.4644207E-1,1.21998906E-1,7.923647E-2,5.024611E-1,1.16126455E-1,-4.1429055E-1,2.8955745E-2,3.500214E-1,1.1288807E-1,-7.2241056E-1,-3.808809E-2,5.0360143E-1],"categories":[],"categories_nodes":[],"categories_segments":[],"categories_sizes":[],"default_left":[0,0,0,0,1,1,0,1,0,1,0,0,0,0,0],"id":37,"left_children":[1,-1,3,-1,5,7,-1,9,-1,11,13,-1,-1,-1,-1],"loss_changes":[5.249471E-1,0E0,4.383369E-1,0E0,4.4732282E-1,5.5977035E-1,0E0,5.3893703E-1,0E0,1.3875203E0,4.4962227E-1,0E0,0E0,0E0,0E0],"parents":[2147483647,0,0,2,2,4,4,5,5,7,7,9,9,10,10],"right_children":[2,-1,4,-1,6,8,-1,10,-1,12,14,-1,-1,-1,-1],"split_conditions":[4.8E1,-9.935045E-2,1.2000001E1,-9.0074934E-2,1.5E0,5.5E0,1.3063988E-1,5.5E0,-1.0771554E-1,2.5E0,3.5E0,2.9350897E-2,-1.8782674E-1,-9.902903E-3,1.3093637E-1],"split_indices":[2629,0,2755,0,1004,1023,0,14,0,1023,1023,0,0,0,0],"split_type":[0,0,0,0,0,0,0,0,0,0,0,0,0,0,0],"sum_hessian":[3.1656254E1,1.5302699E0,3.0125984E1,1.1842909E0,2.8941694E1,2.7103619E1,1.8380756E0,2.5930105E1,1.1735135E0,1.970865E1,6.2214537E0,1.849266E1,1.2159898E0,1.977116E0,4.2443376E0],"tree_param":{"num_deleted":"0","num_feature":"3061","num_nodes":"15","size_leaf_vector":"0"}},{"base_weights":[3.874452E-2,2.8122386E-1,-2.171908E-2,-3.8628016E-2,5.83616E-1,2.6187393E-1,-1.04279526E-1,-4.971037E-1,4.5090955E-1,4.638936E-1,3.30656E-2,2.2661608E-1,-2.1838245E-1,-2.8393298E-1,3.309445E-1,-2.0980082E-2,5.904873E-1,-3.2210195E-1,3.8552096E-1,3.8135752E-1,-4.3059844E-1,4.395906E-1,-4.1280556E-1,3.1256574E-1,-4.968176E-1],"categories":[],"categories_nodes":[],"categories_segments":[],"categories_sizes":[],"default_left":[0,0,0,1,0,1,0,0,0,0,1,1,1,0,0,0,0,0,0,0,0,0,0,0,0],"id":38,"left_children":[1,3,5,7,-1,9,11,-1,-1,-1,13,15,17,-1,-1,19,-1,21,-1,-1,-1,-1,23,-1,-1],"loss_changes":[4.723933E-1,6.4343214E-1,6.4506817E-1,1.134831E0,0E0,2.7282172E-1,8.480571E-1,0E0,0E0,0E0,4.7167024E-1,5.4520226E-1,1.1411843E0,0E0,0E0,9.0336245E-1,0E0,1.1764452E0,0E0,0E0,0E0,0E0,9.709575E-1,0E0,0E0],"parents":[2147483647,0,0,1,1,2,2,3,3,5,5,6,6,10,10,11,11,12,12,15,15,17,17,22,22],"right_children":[2,4,6,8,-1,10,12,-1,-1,-1,14,16,18,-1,-1,20,-1,22,-1,-1,-1,-1,24,-1,-1],"split_conditions":[1.0000001E1,2.000001E0,1.8E1,2.5E0,1.5174016E-1,2.5E0,1.5E0,-1.2924695E-1,1.1723648E-1,1.2061233E-1,8.5E0,2.5E0,1.5E0,-7.382257E-2,8.604557E-2,1.5E0,1.535267E-1,2.5E0,1.0023545E-1,9.915295E-2,-1.1195559E-1,1.1429355E-1,4.5E0,8.126709E-2,-1.2917256E-1],"split_indices":[2588,953,2128,0,0,0,0,0,0,0,14,14,1389,0,0,14,0,2937,0,0,0,0,2196,0,0],"split_type":[0,0,0,0,0,0,0,0,0,0,0,0,0,0,0,0,0,0,0,0,0,0,0,0,0],"sum_hessian":[3.08041E1,5.4193916E0,2.5384708E1,3.0575557E0,2.361836E0,5.234033E0,2.0150675E1,1.5708876E0,1.4866681E0,2.234082E0,2.9999514E0,4.914033E0,1.5236641E1,1.4760146E0,1.5239367E0,3.4850042E0,1.429029E0,1.3401574E1,1.8350667E0,1.7929329E0,1.6920713E0,1.0167624E0,1.2384812E1,1.0031334E0,1.1381679E1],"tree_param":{"num_deleted":"0","num_feature":"3061","num_nodes":"25","size_leaf_vector":"0"}},{"base_weights":[5.0244458E-2,5.3982383E-1,1.3501457E-2,2.0321083E-1,-7.743222E-2,3.1287512E-1,-2.0558593E-1,3.3458185E-1,-1.5276752E-1,-7.454888E-2,3.787804E-1,-3.9988714E-1,1.8837836E-2,2.2636669E-2,4.4399926E-1,2.5329694E-1,-7.6379925E-1,-5.2302563E-1,1.4351703E-1,5.953655E-1,-6.915819E-2,3.8627902E-1,2.7593842E-3,2.481247E-1,-3.1304204E-1],"categories":[],"categories_nodes":[],"categories_segments":[],"categories_sizes":[],"default_left":[0,0,0,1,0,0,0,0,1,0,0,0,0,0,0,0,0,0,0,0,0,0,0,0,0],"id":39,"left_children":[1,-1,3,5,7,9,-1,-1,11,-1,13,15,17,-1,19,21,-1,-1,23,-1,-1,-1,-1,-1,-1],"loss_changes":[5.3879297E-1,0E0,5.2055806E-1,5.017699E-1,6.8759155E-1,2.348119E-1,0E0,0E0,7.718085E-1,0E0,1.5436733E-1,1.9598441E0,8.581611E-1,0E0,5.017303E-1,1.1253704E-1,0E0,0E0,5.651934E-1,0E0,0E0,0E0,0E0,0E0,0E0],"parents":[2147483647,0,0,2,2,3,3,4,4,5,5,8,8,10,10,11,11,12,12,14,14,15,15,18,18],"right_children":[2,-1,4,6,8,10,-1,-1,12,-1,14,16,18,-1,20,22,-1,-1,24,-1,-1,-1,-1,-1,-1],"split_conditions":[4.000001E0,1.4035419E-1,6.5E0,1.5E0,8.000001E0,8.000001E0,-5.345234E-2,8.699128E-2,2.5E0,-1.9382708E-2,2.000001E0,1.5E0,2.2E1,5.8855335E-3,5.5E0,3E0,-1.985878E-1,-1.3598666E-1,1.05E1,1.5479504E-1,-1.7981129E-2,1.0043254E-1,7.1743986E-4,6.4512424E-2,-8.139093E-2],"split_indices":[1334,0,2796,991,1980,2324,0,0,14,0,778,2857,1415,0,1025,0,0,0,0,0,0,0,0,0,0],"split_type":[0,0,0,0,0,0,0,0,0,0,0,0,0,0,0,0,0,0,0,0,0,0,0,0,0],"sum_hessian":[2.9357052E1,1.0935986E0,2.8263454E1,8.757825E0,1.9505629E1,7.090392E0,1.6674331E0,2.4832609E0,1.7022367E1,1.0117383E0,6.078654E0,6.431065E0,1.0591303E1,1.1493624E0,4.9292912E0,2.4097598E0,4.021305E0,1.3835104E0,9.207792E0,3.6827798E0,1.2465115E0,1.2202606E0,1.189499E0,7.8627887E0,1.345004E0],"tree_param":{"num_deleted":"0","num_feature":"3061","num_nodes":"25","size_leaf_vector":"0"}},{"base_weights":[4.0352397E-2,2.8858495E-1,-2.4983475E-2,-1.2031593E-1,4.061921E-1,4.761212E-1,-6.8755455E-2,5.6805515E-1,-1.06190555E-1,1.24713615E-1,-1.8274023E-1,6.3223165E-4,5.0385976E-1,2.1057504E-1,-3.029095E-1,3.2815194E-1,-1.6034023E-1,-2.1717857E-1,4.6835557E-1,2.865137E-1,-4.264623E-1,2.0099285E-1,-3.4727165E-1,3.4378335E-1,-5.526617E-1],"categories":[],"categories_nodes":[],"categories_segments":[],"categories_sizes":[],"default_left":[0,0,0,0,0,0,1,0,0,1,0,0,0,1,0,0,0,0,0,0,0,0,0,0,0],"id":40,"left_children":[1,3,5,-1,7,-1,9,-1,-1,11,13,15,-1,17,19,-1,21,-1,-1,-1,23,-1,-1,-1,-1],"loss_changes":[4.7831035E-1,3.4375733E-1,5.572983E-1,0E0,4.7423834E-1,0E0,5.2708167E-1,0E0,0E0,4.264878E-1,7.6308304E-1,4.657741E-1,0E0,5.485657E-1,9.7736955E-1,0E0,4.700659E-1,0E0,0E0,0E0,1.1727232E0,0E0,0E0,0E0,0E0],"parents":[2147483647,0,0,1,1,2,2,4,4,6,6,9,9,10,10,11,11,13,13,14,14,16,16,20,20],"right_children":[2,4,6,-1,8,-1,10,-1,-1,12,14,16,-1,18,20,-1,22,-1,-1,-1,24,-1,-1,-1,-1],"split_conditions":[1.6E1,1.5E0,6.000001E0,-3.128214E-2,1.5E1,1.237915E-1,1.5E0,1.4769433E-1,-2.7609544E-2,2.5E0,1.5E0,1.5E0,1.3100353E-1,6.5E0,2.5E0,8.5319504E-2,1.5E0,-5.6466427E-2,1.21772446E-1,7.449356E-2,6.000001E0,5.225814E-2,-9.029063E-2,8.938367E-2,-1.4369205E-1],"split_indices":[2394,1308,21,0,0,0,0,0,0,14,778,2588,0,1025,1150,0,2796,0,0,0,1980,0,0,0,0],"split_type":[0,0,0,0,0,0,0,0,0,0,0,0,0,0,0,0,0,0,0,0,0,0,0,0,0],"sum_hessian":[2.8047123E1,5.1320033E0,2.291512E1,1.141201E0,3.9908023E0,1.0473764E0,2.1867743E1,2.9501789E0,1.0406234E0,8.072304E0,1.379544E1,6.8365917E0,1.2357119E0,3.0524428E0,1.0742996E1,1.9106214E0,4.92597E0,1.2070328E0,1.8454099E0,1.6331073E0,9.109889E0,1.6538681E0,3.272102E0,1.03975E0,8.070139E0],"tree_param":{"num_deleted":"0","num_feature":"3061","num_nodes":"25","size_leaf_vector":"0"}},{"base_weights":[4.931147E-2,5.183328E-1,1.2087705E-2,-2.9777715E-2,4.0111792E-1,3.4755245E-1,-7.147088E-2,2.566596E-1,-1.412504E-1,4.636659E-1,-1.1808181E-1,-2.8638402E-1,1.6024229E-1,2.9487655E-1,-4.2627704E-1,3.1757954E-1,-1.9697027E-1],"categories":[],"categories_nodes":[],"categories_segments":[],"categories_sizes":[],"default_left":[0,0,1,0,0,0,0,1,1,0,0,0,0,0,0,0,0],"id":41,"left_children":[1,-1,3,5,-1,-1,7,9,11,-1,-1,13,15,-1,-1,-1,-1],"loss_changes":[4.760659E-1,0E0,4.4549254E-1,4.1757563E-1,0E0,0E0,5.699659E-1,3.9938405E-1,9.151986E-1,0E0,0E0,1.2453798E0,4.6142823E-1,0E0,0E0,0E0,0E0],"parents":[2147483647,0,0,2,2,3,3,6,6,7,7,8,8,11,11,12,12],"right_children":[2,-1,4,6,-1,-1,8,10,12,-1,-1,14,16,-1,-1,-1,-1],"split_conditions":[4.000001E0,1.3476652E-1,1.5E0,4E0,1.0429066E-1,9.036364E-2,1.5E0,1.5E0,5.5E0,1.2055313E-1,-3.0701268E-2,1.5E0,1.05E1,7.66679E-2,-1.1083203E-1,8.257068E-2,-5.121227E-2],"split_indices":[1334,0,1004,1401,0,0,991,0,14,0,0,1980,0,0,0,0,0],"split_type":[0,0,0,0,0,0,0,0,0,0,0,0,0,0,0,0,0],"sum_hessian":[2.6626928E1,1.0075073E0,2.5619421E1,2.3963997E1,1.6554246E0,1.6545035E0,2.2309492E1,3.4426522E0,1.886684E1,2.064778E0,1.3778743E0,1.2769788E1,6.0970526E0,2.2622378E0,1.050755E1,4.3097415E0,1.7873108E0],"tree_param":{"num_deleted":"0","num_feature":"3061","num_nodes":"17","size_leaf_vector":"0"}},{"base_weights":[5.39465E-2,-3.576901E-1,8.5034624E-2,2.512596E-1,8.1797363E-4,3.4774488E-1,-7.797224E-2,-4.386931E-1,5.52738E-2,4.6083624E-3,4.1020662E-1,-3.048625E-1,1.0947497E-1,5.0621915E-1,-1.1335957E-2,3.3631963E-1,-1.3592414E-2,8.834649E-2,3.9509624E-1,-4.673205E-1,1.05055116E-1],"categories":[],"categories_nodes":[],"categories_segments":[],"categories_sizes":[],"default_left":[0,0,0,1,0,0,0,0,0,0,0,0,0,0,0,1,0,0,0,0,0],"id":42,"left_children":[1,-1,3,5,7,9,-1,-1,11,-1,13,-1,15,-1,-1,17,19,-1,-1,-1,-1],"loss_changes":[3.7471527E-1,0E0,3.6129317E-1,3.028568E-1,4.5847997E-1,1.4591587E-1,0E0,0E0,3.6581516E-1,0E0,2.4140888E-1,0E0,4.3837142E-1,0E0,0E0,4.5315504E-2,6.431401E-1,0E0,0E0,0E0,0E0],"parents":[2147483647,0,0,2,2,3,3,4,4,5,5,8,8,10,10,12,12,15,15,16,16],"right_children":[2,-1,4,6,8,10,-1,-1,12,-1,14,-1,16,-1,-1,18,20,-1,-1,-1,-1],"split_conditions":[1.6E1,-9.299942E-2,6.5E0,1.5E0,1.2000001E1,2.000001E0,-2.0272782E-2,-1.140602E-1,9E1,1.1981742E-3,6.5E0,-7.9264246E-2,2.5E0,1.3161698E-1,-2.9473486E-3,2.5E0,1.4000001E1,2.2970086E-2,1.0272502E-1,-1.2150332E-1,2.731433E-2],"split_indices":[1135,0,2796,991,2311,778,0,0,3018,0,1025,0,1023,0,0,14,1651,0,0,0,0],"split_type":[0,0,0,0,0,0,0,0,0,0,0,0,0,0,0,0,0,0,0,0,0],"sum_hessian":[2.5904661E1,1.0813162E0,2.4823345E1,7.680417E0,1.714293E1,5.896227E0,1.7841903E0,1.1120077E0,1.603092E1,1.0733742E0,4.8228526E0,1.492101E0,1.4538819E1,3.7645483E0,1.0583044E0,4.5039954E0,1.0034823E1,1.3426341E0,3.1613615E0,1.4709469E0,8.563877E0],"tree_param":{"num_deleted":"0","num_feature":"3061","num_nodes":"21","size_leaf_vector":"0"}},{"base_weights":[3.5877947E-2,4.158712E-1,7.9995784E-4,3.9676583E-1,-3.5109065E-2,3.876276E-2,-3.4798235E-1,5.4977006E-1,-1.7696353E-2,2.4580042E-1,-6.992313E-1,6.696016E-2,-3.055972E-1,-1.4380619E-1,1.853914E-1,-5.4377306E-1,1.7090584E-1],"categories":[],"categories_nodes":[],"categories_segments":[],"categories_sizes":[],"default_left":[0,0,0,0,1,0,0,0,1,0,0,0,0,0,0,0,0],"id":43,"left_children":[1,-1,3,-1,5,7,9,-1,11,-1,-1,13,15,-1,-1,-1,-1],"loss_changes":[3.4907886E-1,0E0,3.6940157E-1,0E0,5.6449616E-1,5.9212387E-1,1.14252E0,0E0,4.8711932E-1,0E0,0E0,4.164626E-1,6.0710204E-1,0E0,0E0,0E0,0E0],"parents":[2147483647,0,0,2,2,4,4,5,5,6,6,8,8,11,11,12,12],"right_children":[2,-1,4,-1,6,8,10,-1,12,-1,-1,14,16,-1,-1,-1,-1],"split_conditions":[1.3E1,1.08126506E-1,5E0,1.03159115E-1,2.5E0,1.5E0,6.5E0,1.4294021E-1,4.5E0,6.390811E-2,-1.8180014E-1,4.000001E0,1.05E1,-3.7389606E-2,4.8201762E-2,-1.41381E-1,4.4435516E-2],"split_indices":[2393,0,2050,0,1023,1516,2857,0,0,0,0,953,1025,0,0,0,0],"split_type":[0,0,0,0,0,0,0,0,0,0,0,0,0,0,0,0,0],"sum_hessian":[2.5213598E1,1.213404E0,2.4000195E1,1.1599811E0,2.2840214E1,1.9186289E1,3.6539252E0,1.0395855E0,1.8146704E1,1.4696714E0,2.184254E0,1.461625E1,3.5304525E0,5.1812215E0,9.435029E0,2.2597578E0,1.2706946E0],"tree_param":{"num_deleted":"0","num_feature":"3061","num_nodes":"17","size_leaf_vector":"0"}},{"base_weights":[3.2714307E-2,2.5076178E-1,-2.6399696E-2,4.5110703E-1,-9.0648414E-4,3.1329733E-1,-7.190522E-2,-2.8960457E-1,3.2034236E-1,8.483682E-3,-4.0026549E-1,8.393716E-2,-2.6441592E-1,6.822405E-2,-6.255119E-1,4.208165E-1,1.991275E-2,-4.0724126E-1,-6.3449144E-2,9.383912E-2,-2.4189045E-1],"categories":[],"categories_nodes":[],"categories_segments":[],"categories_sizes":[],"default_left":[0,1,0,0,0,0,0,0,0,1,0,0,1,0,0,0,1,0,0,0,0],"id":44,"left_children":[1,3,5,-1,7,-1,9,-1,-1,11,13,15,17,-1,-1,-1,19,-1,-1,-1,-1],"loss_changes":[3.342226E-1,2.785312E-1,3.4559986E-1,0E0,4.1207746E-1,0E0,5.1137614E-1,0E0,0E0,3.6068717E-1,4.4425523E-1,2.857524E-1,8.32783E-2,0E0,0E0,0E0,2.647986E-1,0E0,0E0,0E0,0E0],"parents":[2147483647,0,0,1,1,2,2,4,4,6,6,9,9,10,10,11,11,12,12,16,16],"right_children":[2,4,6,-1,8,-1,10,-1,-1,12,14,16,18,-1,-1,-1,20,-1,-1,-1,-1],"split_conditions":[1.6E1,2.5E0,3.5E0,1.1728782E-1,4.5E0,8.14573E-2,7.5E0,-7.5297184E-2,8.328901E-2,1.5E0,6E0,2.5E0,3.5E0,1.7738253E-2,-1.6263309E-1,1.0941229E-1,3.5E0,-1.0588272E-1,-1.6496778E-2,2.4398169E-2,-6.289151E-2],"split_indices":[2394,1025,1080,0,1025,0,1025,0,0,1023,2407,1856,0,0,0,0,0,0,0,0,0],"split_type":[0,0,0,0,0,0,0,0,0,0,0,0,0,0,0,0,0,0,0,0,0],"sum_hessian":[2.4415926E1,4.5160513E0,1.9899874E1,2.0731857E0,2.4428654E0,1.6556544E0,1.8244219E1,1.3384967E0,1.1043687E0,1.5438694E1,2.8055255E0,1.2637109E1,2.8015852E0,1.1372583E0,1.6682673E0,1.1281794E0,1.1508929E1,1.0376941E0,1.7638911E0,9.475003E0,2.0339265E0],"tree_param":{"num_deleted":"0","num_feature":"3061","num_nodes":"21","size_leaf_vector":"0"}},{"base_weights":[2.5263624E-2,2.4272063E-1,-3.388818E-2,5.4720306E-1,2.6063131E-2,2.3495594E-1,-1.1584732E-1,-2.3207448E-1,